-916931739648,-928804896768,-1258255810560,999261995008,-909347651584,-1189120835584,-970098016256,-1537440350208,1734949339136,923545305088,-977785978880,-1738888708096,1375484379136,-917079785472,-850716196864,927674466304
-49631485952,-45436305408,-153412599808,-235511119872,-46391734272,-144469753856,-49297666048,-183513137152,211059998720,46287556608,-50114371584,-213136687104,164549066752,-44905193472,-41608032256,46098919424
618211311616,626361761792,258862710784,-376840585216,611681959936,263025246208,653622116352,341878472704,-385198292992,-622834221056,658678743040,390861127680,-300671336448,616008384512,571786264576,-627540361216
-37033385984,-35915030528,249218383872,13372958720,-36934389760,228583063552,-37998288896,296894431232,-336055107584,37686509568,-38189330432,332682952704,-261027479552,-35590266880,-33272815616,37423054848
-127477366784,-133551276032,-277758902272,716868222976,-125861421056,-257246674944,-134169214976,-328056995840,374543187968,129993809920,-134791987200,-370988941312,297680797696,-129228775424,-117303517184,129926316032
353568915456,359874920448,494168047616,-395069652992,350704140288,463435366400,374886858752,602276364288,-675571892224,-356225089536,373882880000,673697169408,-533153644544,354322055168,327989460992,-359134822400
-130656632832,-136609136640,40873205760,174780366848,-120399306752,44363182080,-134806945792,57268260864,-48521404416,126876041216,-136552333312,57916608512,-46964310016,-131418923008,-115643604992,135908335616
14655181824,15693588480,224937967616,-174973009920,15358813184,212488503296,14485521408,270273544192,-304050700288,-14350979072,14154845184,308508393472,-244421197824,14464886784,12174443520,-13968513024
