209353523200,-28226838528,96998801408,-132265279488,-93074776064,-127312764928,-168928722944,-165426167808,52292956160,-211587022848,-54404140,75846828032,109586702336,-197900238848,-192774193152,10695591936,170531667968,193934917632,145223843840,198612959232,22345617408,58337046528,-146691342336,-75756544000,-211206815744,125682728960,203182931968,152744361984,150390964224,-21596059648,80561356800,157977755648,63839866880,101208547328,-99445293056,-88015790080,-150773039104,-150190555136,197603262464,-88276672512,-97820483584,19237578752,4513888768,-84593942528,172508577792,-208084844544,181649620992,-167292026880,-71863164928,-198785597440,9907051520,169819586560,192912457728,121567715328,172945145856,81963433984,122786480128,128454164480,19687069696,44715266048,175565144064,-31336785920,-1831606144,69478580224
-123761164288,190802149376,60805070848,86708740096,50107047936,74298933248,-37137952768,-32963770368,-71565443072,122795417600,-62386741248,-93143687168,-107346698240,141799407616,184851267584,119558848512,3573388032,89997869056,-47614889984,-33560692736,-175794012160,175952232448,-164794138624,173534429184,122488487936,-148332871680,76610838528,12972816384,169067151360,-7487774208,-124725919744,-208461905920,-36501331968,96081813504,29366687744,-207369764864,-175158247424,3705680384,-206577565696,175174221824,-139166023680,56703401984,-142135050240,-38540558336,112851304448,34000291840,-50851196928,141207437312,26354147328,41484849152,133012905984,-57683091456,37058400256,190422843392,196439801856,-160530087936,-78419640320,98595536896,17068953600,-47182258176,-30213191680,87730544640,-185435668480,-139816730624
51336421376,196225302528,82595274752,122642415616,2626642688,128428916736,65546436608,-187286765568,-136307023872,-152679383040,-95495086080,-132172636160,159894306816,-214749544448,216416632832,-47748222976,-169882697728,-100439015424,45991165952,37739200512,-194637725696,-21673785344,-190748033024,153381781504,61513084928,78683152384,43955847168,5048409088,204021792768,190135730176,-182830235648,21440980992,-158071291904,89810067456,-144947134464,-139485118464,196335861760,-59667795968,-150826876928,126050508800,199383171072,35354005504,-125542014976,106193616896,-197543903232,20364877824,-146621448192,-190509694976,-134944079872,-194693857280,34692538368,14007314432,-181443674112,21974118400,-210264506368,207624601600,-4754900992,61150027776,29115826176,-184798003200,-95776104448,-11768282112,-52756815872,-182867607552
-80460972032,-62120583168,-106918150144,60968148992,158948327424,-175838969856,-11942296576,-121265635328,48987938816,-76413411328,101494956032,17427503104,-54954975232,188338503680,-150201483264,165610815488,84916576256,194363277312,-197803212800,-186140114944,120293957632,-8525520896,67864408064,202160668672,-93284810752,-9730770944,200556003328,31403124736,216440061952,-142719598592,173212549120,-182532292608,-170304995328,-210617794560,2353370112,168554168320,-140867321856,164711694336,5724042752,101562163200,86199418880,120593022976,147056328704,-182556327936,-36431867904,142053720064,-55206567936,38293823488,10134637568,-26293039104,-41807159296,-179047727104,171838488576,-17170129920,-161461616640,-30887915520,-171765153792,121280094208,-160164888576,60827152384,-94815109120,136287617024,-210551013376,62701805568
-193622196224,117093367808,73256804352,-45888942080,-54412664832,-72361730048,-182451863552,125413638144,185955500032,41870548992,144222715904,12846871552,45450850304,77385859072,-82822692864,-30688346112,-168831696896,-133360214016,24217786368,-114063572992,-66071506944,-157822582784,-93799251968,-77645144064,-27087450112,6535754240,-157383606272,-71507673088,-168494252032,-176058580992,-119828193280,63490048000,89630171136,175658532864,115173384192,-182005088256,150069100544,-85625102336,65979318272,215058087936,142399127552,-49101664256,-37481533440,203232952320,-166586826752,-168625635328,-113880694784,-159910821888,89470672896,-11473744896,-105331679232,-3603950080,-164335403008,6890848256,96907452416,59491532800,-171819876352,125221715968,155502821376,917524096,154959462400,70347382784,-173209616384,-882685184
86920486912,182790684672,-135940800512,133979783168,198819921920,-85891457024,77118980096,-59757203456,-19023403008,113366114304,-188984262656,-50978643968,-181537325056,187452063744,156713877504,213808021504,-189046276096,-108310216704,69366202368,82016149504,-89085485056,16182645760,8584515072,-117246001152,-190622334976,138138075136,-197659787264,21076707328,161367867392,92505317376,-139984437248,13027995648,-141465141248,-121978961920,-77949288448,130661810176,-154375421952,117340102656,-166633603072,212018774016,152790630400,-173205012480,157854449664,112801447936,-187228585984,52285804544,-176550445056,152579080192,-128443834368,-113986191360,-35284520960,37954465792,-85840928768,149360508928,103753736192,17319723008,144635920384,26960357376,-32611995648,83156566016,-52562161664,84823203840,-108036005888,101186887680
86860546048,125972307968,188795076608,118796124160,42388246528,-192247054336,-168145813504,21993472000,-32944680960,191104090112,86963937280,-129671815168,-183387521024,153775636480,5850777600,27229710336,207829008384,136957902848,-204850757632,8718624768,157730963456,29399738368,44806078464,180142850048,-143646162944,-52499505152,112758169600,207765897216,-198546866176,-192808419328,-131217891328,-37825884160,-52731990016,65691426816,74950475776,-35247816704,-15804796928,-151636508672,-74498949120,205248741376,135115374592,-68721696768,73911681024,38694727680,-161741012992,168872394752,188532080640,-50650968064,-113160347648,154928119808,-45520273408,34969137152,125593108480,100250091520,173813186560,205127581696,-44572815360,-125134438400,103176011776,86875365376,-181726969856,30733004800,11709332480,68947533824
6361544192,10090455040,-170619240448,80760905728,133326528512,122552410112,-133708734464,119401832448,179759710208,-42955743232,-210413027328,-105923543040,83414212608,-200463073280,-101869895680,-143670280192,31464189952,-102528770048,-112197492736,4639327744,15896678400,173729316864,-72540733440,-19407706112,-174795096064,211845922816,-60020609024,85685747712,109333192704,-26034266112,-17966716928,216296931328,-156809117696,135577296896,113820155904,111147417600,64215912448,143720366080,-142205091840,-102815408128,20202594304,-87682490368,-153581846528,-212259897344,-107274215424,-204390940672,-214725672960,-62411706368,-89712304128,-73947717632,118916407296,-22073270272,108961292288,56314515456,-39478005760,207863070720,-81036730368,-163904339968,98838167552,89515376640,-138748116992,-202736631808,144189734912,122954211328
-197582159872,-100953251840,203971248128,25558798336,203163369472,18229663744,-4358559744,48504127488,-10985329664,-122488496128,-141650378752,61812322304,-59217256448,168106983424,82627780608,54969389056,-50740883456,-80206692352,-72663138304,162524299264,24224757760,-214467788800,76269699072,-14970943488,-125355925504,-19511105536,-124394323968,-178659295232,-33629816832,-93516890112,-28762593280,-83001655296,-57836457984,-19179401216,89468674048,-124160688128,-156006055936,-112133283840,-36166324224,-190773690368,2239749120,66709745664,195819356160,45158551552,-103201775616,-162104279040,-471904864,199238696960,147031457792,10879307776,17968416768,-11054962688,-207250948096,122357317632,33348188160,34766065664,-974923392,214546284544,-195441410048,101419876352,34188939264,-48083484672,-174390968320,160576962560
-80924508160,-24875460608,-57036771328,153592758272,186680033280,-31876831232,79893782528,24432375808,-169293103104,-115138535424,10281816064,-5640416768,-56424615936,-196982030336,108819709952,-37214142464,-2071112192,-57897361408,151934631936,-30648604672,146364710912,-120420007936,-181438332928,28196440064,66179497984,-44554334208,-154538328064,-57107849216,77221257216,105127845888,175835758592,150214836224,-11775151104,149691105280,-194141208576,-103969292288,-85604827136,10284647424,-47820431360,-157848223744,-119322943488,-160790495232,-601261824,81460740096,126825644032,-98427731968,3502056192,57965981696,203406426112,180977991680,106194239488,-195146448896,38247866368,12872160256,164080369664,-80619487232,-11819853824,55972384768,192670384128,73878601728,13340339200,73563054080,-60542377984,89404588032
64908730368,-64563453952,-182968451072,60164882432,143608201216,-111110545408,-132922982400,-143373369344,-172933906432,-68987158528,-202803150848,4817307136,-35518050304,181772091392,-14528260096,-91635572736,-184483233792,-121497714688,5262062080,198401556480,-170478075904,214160392192,-96948731904,-74735935488,-167423311872,-132688527360,13285323776,-146900107264,-192213303296,-70836322304,-93079011328,-103855734784,-206948433920,191332564992,204510625792,130341314560,76903890944,119633395712,-30828029952,22151677952,-204259459072,73916751872,-123250647040,-134047834112,190776623104,-2230569728,-47968997376,93273645056,184521555968,-133858279424,74872160256,33679384576,-181487140864,121379962880,-111946883072,-181199650816,110130855936,-7026597888,-54412500992,199564754944,-124578865152,145471897600,-53576695808,-125643866112
21467981824,105530007552,-6496786944,-186543964160,-25151729664,-104296513536,5565107200,-210730057728,71716470784,194944712704,169241608192,-214368813056,148710244352,-182235676672,-183060561920,184978161664,-151454351360,-100432412672,-36600856576,-149032960000,207293415424,-144590553088,-44146180096,-40348450816,97092493312,-100406493184,203728551936,177286430720,-80236781568,-8677020672,-57394749440,-116777041920,177429708800,-3420278528,127136423936,-46558605312,11986895872,-80709664768,-210562056192,111918555136,66501337088,31358523392,-53776502784,137183404032,-38062706688,123388862464,-24680599552,192932446208,211598245888,-85682962432,-65493585920,93487005696,-79875350528,-37657604096,176207511552,15994860544,105682173952,-122726662144,97291132928,-209568366592,191001116672,-56589230080,-150711353344,-88907866112
138515251200,-199531184128,-178438553600,176731635712,-213981544448,135385473024,39090352128,-17718986752,90634182656,-43213467648,-163008413696,-18696247296,-117496610816,-24781062144,12068554752,-193210679296,-216230051840,12506022912,204249677824,178770427904,-81145290752,-162247753728,98987884544,132317356032,205773078528,46405332992,20344913920,-45362741248,25312112640,-106362511360,-71093338112,98845376512,-32857995264,158110040064,186671988736,-121880379392,-182280847360,-183813668864,-87364091904,-110386020352,-180017807360,115003506688,84289150976,59314475008,-103271047168,116016283648,193351647232,-166949945344,-165906776064,-22969796608,27725205504,140673007616,184586420224,39967969280,115654893568,190302306304,-161583726592,145122721792,121557901312,132442161152,181566849024,-57756708864,-113468612608,-21086990336
122203873280,41143222272,-14066472960,94554112000,29644607488,193324253184,-110317322240,180451622912,72274788352,-122229571584,94765973504,-142500446208,-135883235328,-89187139584,57733160960,-83210928128,76344950784,172382715904,-49556430848,-61556699136,28364615680,55919927296,180299956224,65695866880,196876632064,1959249408,-2960413440,-145160929280,114273615872,145331748864,46980632576,-14959170560,-103543799808,76664791040,-173106937856,-97960574976,-117856452608,-48349007872,-124526673920,8178740736,167835975680,47012585472,-194210971648,-127172001792,-101962039296,-207686025216,-50533994496,206756741120,103462141952,-25350463488,53280546816,12291237888,117753249792,194961899520,29315381248,-84080599040,60553388032,72670560256,172005965824,-123279663104,140701499392,34773958656,-57599930368,216068751360
210173460480,-34181623808,109955055616,29251993600,-45725462528,-187530788864,-201435987968,136603795456,132071063552,-155979022336,-193409925120,-1276701568,89555492864,-58402721792,-497296448,11786400768,165674041344,-180346486784,174445002752,-72787271680,146726338560,-175422504960,-5980282368,39101079552,-159982764032,45764849664,13437286400,165791236096,-127096266752,169171288064,41408311296,61527207936,-141250969600,-151809671168,47770779648,172622839808,-106055589888,-32464252928,105539731456,-191441076224,-145787666432,-166824329216,-154602209280,62222737408,-98708127744,-135748354048,-206294220800,-158503829504,93565624320,-106717863936,-128003538944,15419617280,213810642944,-136724176896,167239499776,-55222972416,-79075868672,55025324032,203884183552,-127226298368,96680828928,157000237056,-61011550208,-182041788416
-48434331648,-1674011392,186567573504,22702100480,56618762240,71429414912,96829849600,-53155065856,-32386615296,-174264238080,-83032064000,-2492636416,-149361377280,16150803456,139752980480,202089791488,3743991552,30627801088,-29880508416,-11464356864,70803267584,73474424832,61340676096,179181600768,169903964160,-58276405248,-133984641024,121223610368,67394863104,-128261316608,92254658560,187096039424,44377014272,53119283200,-173253279744,-187090518016,46786981888,26349873152,-202823827456,-46661529600,102590455808,186617217024,65054310400,75853864960,176335405056,31247392768,-174119813120,80911859712,-186430930944,-38143025152,160480215040,-206827896832,55530176512,-158669438976,8973776896,-79561146368,40793047040,-146180849664,-190694834176,-126195982336,-159782371328,158601592832,-23575648256,125273817088
150250520576,63069245440,-172217286656,-97121402880,-185313656832,82760556544,-45436293120,-66708279296,121865551872,-11751040000,166766788608,94517633024,-95636430848,-200693415936,-129522786304,150344597504,13635352576,211953025024,-169533898752,63501852672,-19604996096,207334211584,-145400463360,-123494449152,-209177100288,164225794048,-63450648576,-38827556864,-44762148864,149672263680,-127771344896,143285944320,186236878848,-70382788608,-3739654912,60185030656,69228781568,-94141587456,149252767744,-136593629184,-186257014784,-208267657216,-187777089536,89597591552,141067665408,7568404480,5654305280,3455132160,-73111330816,-128141107200,155984658432,54472224768,156898410496,58186907648,-192300515328,6357982720,62558633984,-129658494976,14115513344,-32648321024,83638804480,-53751681024,45086994432,-9942412288
-78098464768,151347560448,184840142848,16044006400,-129786880000,50345226240,36910370816,-198698565632,-29139369984,-5639701504,135621394432,56932048896,-149762244608,183074340864,112639909888,-193562345472,-163301801984,-66797117440,83779493888,-212288716800,-175893413888,152021450752,-142398652416,-83002949632,-188509880320,-89824321536,-94675689472,-170557784064,34721656832,171548344320,107585798144,90673258496,-148245626880,-99701948416,45465419776,2455413248,-87413694464,92728565760,138593353728,-50346213376,-199882719232,-111545802752,189981163520,-122022830080,-188035973120,136277614592,-26353942528,-43055370240,11730864128,49443381248,-201184034816,125931896832,51131498496,-79664021504,-158563336192,-10454834176,-20611731456,-4234268928,61549109248,216458100736,-35758432256,186003587072,-188730195968,-215880876032
-58714136576,-123182252032,-101515747328,-69000126464,-54835154944,85622480896,-182399942656,-33606529024,68905672704,-37756604416,-43487158272,175389655040,128152420352,-4692539392,69111717888,-96385056768,-35305418752,97107632128,64600363008,38440628224,155690123264,-72913321984,91850121216,-123677179904,173651410944,121098387456,81560444928,145575854080,-26375518208,2123713536,77382336512,-96492830720,175956459520,186083049472,-186590134272,73128624128,208117514240,-203050467328,-160954712064,18885478400,-198858178560,129158569984,-84506304512,195257892864,202353410048,-29838860288,1777708544,66526928896,77341786112,-20932227072,-100269400064,-175124316160,-189567041536,207515582464,-6597950976,8871674880,210554142720,75061755904,12958316544,-86368059392,-187703115776,143603449856,-196288413696,97557258240
-6828695552,-49792233472,215829856256,-77074440192,-206611431424,24950474752,-165725143040,157271932928,-211601948672,-169954148352,-167192461312,-168755412992,-74635845632,-146900828160,11847675904,-148415725568,54970339328,-99892518912,-172525502464,-5251317760,199111327744,-70990610432,-51480588288,-53363650560,-127518416896,73585647616,76924575744,-66120867840,-207991816192,20608946176,163286073344,10046377984,-120490311680,183406821376,-159026266112,151535976448,-139823071232,-78970773504,-97698816000,27283652608,-183121477632,-77024518144,-150410215424,32500383744,-29336139776,-72228175872,-140738494464,159893536768,174863663104,168738471936,155063107584,123603304448,-169810591744,183211589632,145752932352,40781332480,141742915584,-93191946240,-109262176256,150892380160,121852657664,-200291123200,-132771700736,-199700856832
-167633862656,-185071796224,193668939776,-89469886464,1610621824,91147616256,-172618727424,85045886976,-57457881088,75112751104,-166279495680,-2516016384,52320854016,-128091750400,-164059643904,-84176863232,-99815096320,94602043392,-172839550976,-197260869632,-182039166976,-183766597632,99265830912,-94588665856,11689827328,212064944128,-151423533056,-113821024256,-8234755072,-85418426368,77013753856,-120229380096,-71878500352,-181592866816,62314938368,171203903488,-210831163392,-159508611072,5821197824,-48648507392,184919031808,201647128576,-149051277312,16855759872,-100165804032,199800815616,-90142900224,-10234013696,-211389071360,26777579520,-38986637312,-3199204864,145310662656,191097815040,205602848768,215109648384,-185409142784,-205289144320,84510072832,192059326464,40487718912,118117646336,-173564182528,190004232192
179114688512,-169997303808,87541653504,-63591415808,-242561088,-117914730496,81010917376,17944367104,-209652727808,193217937408,78908669952,-93952761856,-105455108096,-157893558272,192915292160,52956119040,96341123072,155978743808,-28482347008,76001533952,49163415552,163248340992,137275138048,-204133695488,178582962176,120851382272,-2231746816,201825452032,-111533211648,97867923456,-70692298752,173455376384,-169793110016,-98028552192,-154803290112,83832430592,-157663821824,-60497207296,-18169417728,-44279054336,19936190464,162374959104,69111209984,168353267712,65301676032,-113542488064,-28404101120,-175445180416,14770253824,-208569188352,-150798696448,-136359600128,82819293184,-92859162624,109489750016,-3046721280,107159568384,151689805824,-141516242944,-4408538624,-94223769600,-149778382848,-3207355648,158772887552
-213490810880,143957508096,155378958336,112807821312,-25081677824,47958147072,-39076720640,-35676049408,-97983504384,128524795904,83307814912,151359700992,184067293184,753119552,139448745984,53939834880,-8617296896,176851599360,-210734858240,-154364198912,-120233050112,182316908544,-63795478528,-158008328192,-57300135936,18538088448,-22408902656,28466970624,-57877331968,-75789754368,108606857216,12387306496,214109536256,27749210112,-155845754880,169368322048,183095754752,69039620096,48380952576,-65837826048,-72067547136,-67256688640,175140126720,110043750400,17878026240,-190509023232,-8994267136,-18230900736,-98663579648,-16602827776,-79983632384,143136161792,68252512256,-34587918336,-82841280512,124500189184,116725514240,-23781715968,161678770176,198769508352,170626482176,-90577903616,23700416512,-41813884928
-213604777984,98352324608,-199137722368,42408214528,-173255131136,54084730880,-212709736448,57172312064,203643715584,21053224960,32738922496,208079962112,-112893992960,-173515702272,151649157120,-142066286592,61552418816,-78125604864,108256886784,-205187301376,174363738112,158725996544,110399438848,-135940382720,36512624640,98888228864,-169570516992,134721437696,-131315261440,114114830336,187193163776,-15290931200,46261624832,-54893342720,133398388736,-8881077248,-140710838272,19215435776,-154250313728,-216268128256,-113143308288,-97015013376,105277374464,33167050752,103257522176,-100765712384,16282425344,-212922335232,-205660028928,-40369106944,207783395328,-134437502976,199408992256,-119423918080,-155470020608,-79739174912,-55786754048,16878680064,-180762574848,88005197824,-59098959872,-57358663680,-27086569472,110539325440
99046957056,-48052461568,124262375424,-177886920704,87722164224,11074320384,66705514496,-105829507072,156693397504,-186220003328,144895606784,11796578304,23706972160,-95185641472,39350255616,-208249520128,48555474944,127160172544,-201268019200,-213842083840,-67632672768,-176882876416,-208867950592,70815432704,57478893568,-61785223168,190515658752,136229265408,78687682560,47205912576,25640159232,18668933120,-3628611584,-133239472128,175889514496,43551997952,72965513216,-23376285696,129902084096,161214038016,-94677090304,146236555264,-64351875072,-137774268416,202896539648,90920968192,155541454848,-162230730752,123475861504,170765156352,196245569536,55851114496,37450416128,-74815799296,-106456211456,-107734040576,127221653504,5674079232,52212486144,11570528256,152850399232,-209634148352,-88667799552,-211537395712
-146279612416,159225675776,18657267712,-188669902848,168524906496,-214697410560,37196505088,118578716672,-140506251264,114354708480,80847839232,209573789696,-195992076288,139786158080,-197081595904,-174406696960,-99012780032,90957561856,206402617344,-154953416704,133701378048,209341562880,-61448560640,107152654336,-193874034688,-83355918336,-127094833152,62277873664,-189528571904,-160002375680,-180474281984,56005046272,81433452544,73278316544,108656779264,-121372385280,-191639748608,-209476485120,-54114668544,-96240066560,-19656361984,62581940224,27793809408,-50763751424,24110569472,121984999424,-51798212608,156684353536,3741457920,-100492083200,-138855645184,-161918631936,-105464242176,-48095195136,165391368192,-110001872896,-182771236864,-67657142272,-56443559936,-181814116352,176080617472,206627127296,45645045760,178789466112
47006294016,103654727680,-144382476288,1725569408,-173035700224,196378689536,-133972672512,-19308449792,-199000588288,68372119552,-116876615680,741556224,59278536704,107942330368,63923376128,205507297280,-66223009792,68836286464,-42611748864,-50337480704,38382424064,208723034112,-52301959168,-173696991232,102616834048,-104497111040,87008133120,21395564544,136991293440,-164253581312,25628639232,-33837883392,3777593344,-34257711104,170783981568,-206592999424,-197712035840,81730076672,94635122688,54623379456,-49448865792,-81718460416,133461573632,213940256768,-86811361280,-196250370048,-89797066752,-134097952768,207396438016,-41488109568,124955279360,171443011584,-67868008448,-186640121856,120591597568,-107766456320,-86986555392,-186926776320,-111812419584,-97095811072,-70958030848,-68869005312,-186412236800,-190931386368
61666390016,56939556864,-46635360256,-7643759616,-138705895424,80357154816,69171184,-99417989120,84887871488,8178636288,-31715719168,201270247424,-195094839296,-74716119040,-207818784768,-100401954816,-2631083008,-128797523968,143061762048,209543331840,-58136612864,-190694211584,30724747264,27634814976,53433761792,-158664065024,5857169408,-197048762368,184734760960,165891424256,-24657217536,-78469758976,194747908096,94706515968,156256813056,-75281645568,-188364685312,-129584947200,166015893504,-120931155968,10364353536,156109275136,-170033905664,-43525156864,-2500221184,-28808890368,-44482527232,-68681625600,-156634923008,47549235200,-136557051904,-105511788544,-103874732032,-206165393408,184120983552,-48145219584,-9893269504,57322274816,-98823700480,-86535561216,-139935760384,179487145984,-113431969792,-18973380608
-196376281088,151051534336,32091052032,95715237888,-56253136896,173143506944,-67480559616,-115543285760,-102374006784,-55621373952,-62891466752,149009383424,151681318912,-112899661824,118137970688,151781212160,-27272448000,-159529074688,175117959168,170219159552,14896096256,-101148205056,199792689152,-185177849856,-200872001536,124992380928,-100689215488,67545341952,39267254272,-106261913600,211672530944,-23558049792,-13372034048,93137043456,-101820243968,62904049664,155060928512,-59472826368,-84155858944,-11911063552,180971651072,37494431744,-29097857024,-24736198656,122767138816,-135112556544,-81532944384,34063112192,134115360768,60176506880,-165064130560,-200281538560,-54898352128,-114757083136,-148585168896,-167478820864,-163311058944,-184768577536,184116805632,20936519680,-165303779328,157486153728,112630169600,-65613344768
116877099008,-138975543296,-190247682048,-165454299136,-195178151936,-107491950592,35308822528,-159530336256,95099109376,-122720059392,-50649567232,-176148332544,30617790464,166549110784,182652190720,23342325760,-172329336832,50653859840,-172415188992,133288673280,81728266240,-108327043072,97966981120,9413062656,181197520896,28812929024,43141681152,-143224619008,62156988416,-61732769792,137248145408,-93772455936,-98703843328,117815205888,153444384768,-107469086720,54277046272,-80563027968,-41131421696,72332460032,-127037267968,-24624750592,-51306889216,-65474023424,174943748096,135441342464,48883990528,58276405248,136913403904,100545241088,47491715072,-20465999872,-166433669120,77818077184,163775004672,157585063936,-160773881856,185902841856,110728454144,-204092882944,140710100992,13355271168,-209521754112,123097964544
97329274880,33625528320,-108890669056,-74129883136,140008554496,141187121152,-120999084032,-212123107328,62382919680,79702327296,157775953920,56695623680,184062640128,-84244905984,-197535055872,-78440448000,-25007247360,-189896998912,201598337024,-40169238528,-2229630720,140486131712,-128884924416,-2874612736,-181122301952,-141294600192,127197700096,-144594960384,-12275188736,197425004544,-43117608960,-118613286912,1154512256,-18163382272,-61380308992,-141961740288,-90611040256,56691396608,168655405056,9491309568,-126389714944,-189855596544,199764312064,200030044160,97548771328,207101886464,75612086272,-206587002880,112721838080,41067917312,-44400914432,161219706880,-93987815424,-23011713024,156478816256,139078090752,69441093632,-61633617920,86713688064,-150540615680,128981655552,155414380544,71940915200,164858068992
-24880842752,-203839733760,87511670784,-2796828672,-80894156800,99782500352,173087309824,54739193856,164024811520,114617532416,-65593532416,159173066752,104133976064,146810388480,-203826724864,-48727588864,178675367936,-170837114880,-55868788736,-187596963840,35320180736,74063192064,-113603239936,-116253106176,138630971392,-158477025280,21366237184,54216728576,-12213855232,89361506304,166095814656,-210986663936,-209370988544,-115854450688,175819882496,-43715375104,114786107392,-138215342080,-98164260864,-81633705984,-110413799424,129439981568,-120488771584,-55708708864,-41037365248,-59024318464,212381401088,-186472022016,180453851136,-54271471616,-15553056768,33618315264,78804197376,152858099712,194237906944,-133319229440,-5820050944,-215493738496,-149477244928,-181274902528,-185692667904,-75778580480,17282859008,80399908864
205443547136,205633748992,114360582144,208537894912,-112489816064,-31629414400,78639579136,-7779732480,45648498688,87198597120,-12051002368,-204236537856,-125425246208,189462773760,-403299936,-121675644928,-82282184704,215862050816,193576501248,-58173313024,127404351488,-131962298368,-185520095232,-164998496256,134806978560,74266099712,-35221237760,26450262016,-131240312832,-195415064576,54415953920,208668098560,-48376827904,103581868032,-175040331776,148034224128,60553027584,127654952960,214244933632,-73538314240,-173855424512,18380283904,-50005360640,-46349598720,-129439612928,-140292145152,-39175364608,-135727038464,176919822336,196033658880,-156351414272,-114668716032,-21654949888,59427246080,-9526417408,-202882547712,-46547755008,-27004600320,-110450237440,-12116818944,-158375624704,86080241664,-170850451456,120393940992
-108160925696,-172181454848,47080534016,28830676992,-34624876544,-183473635328,-211325550592,-171390648320,-151728455680,-153089671168,-118777839616,-101147492352,175006171136,-102320275456,39993417728,-59505967104,-79957008384,166954860544,64241778688,-154514751488,-54194573312,-58644860928,510364768,130496012288,92969820160,-93564796928,-120350375936,-60142907392,-14000251904,22638082048,-11152059392,-66671951872,-30472427520,-17581625344,214419996672,-91759976448,206000340992,-98848481280,69738496000,-209703518208,27238025216,116167745536,-13346955264,-22694916096,31852156928,-64091561984,65262751744,-39176704000,-28853803008,155796996096,-21760045056,44248535040,-33585324032,61693440000,-178623954944,-146678448128,54442754048,161387282432,-110145372160,42048233472,-12898385920,-68887756800,41144594432,28619618304
171525062656,-12004182016,147298926592,148375732224,-198316425216,116558479360,175594717184,-117274132480,29030291456,110819000320,64221929472,-182521839616,206161100800,65939763200,49751863296,-119291469824,52692398080,-138989797376,126509203456,160998260736,173500071936,-141207240704,-22225858560,-48297181184,-148112474112,114963513344,-130462203904,159620005888,25148375040,-178576359424,49965580288,-135011614720,142823112704,126920859648,65995943936,-125144096768,-159644975104,-81268760576,-160143917056,-32407791616,-140363841536,121566461952,57378603008,213151989760,83797319680,144519856128,57781829632,-197663342592,119907532800,-23420794880,42779312128,177822040064,135683727360,115863838720,115280846848,-87286562816,-122243194880,52338409472,-152714919936,-53137154048,126875746304,3707960320,-186030931968,134643875840
205715668992,-172812713984,-179356516352,123907047424,-79665160192,69893758976,63545421824,-174234517504,196038098944,-9854764032,100683735040,-81702248448,-7845535744,-147612565504,81392533504,150575710208,57597206528,-66983837696,-15646696448,-141992067072,-78741225472,-183527342080,-37279752192,-84611465216,-204254445568,-16302615552,-50784813056,-27717933056,78941593600,-51593900032,-207111913472,36937043968,-14321685504,-197641879552,174778777600,28152301568,-20302370816,-40518492160,-66606804992,-69995954176,179203014656,142699970560,3437578496,200283897856,-146030084096,-172816318464,-118995435520,-128363872256,-13747408896,174157545472,-5900576256,-150005579776,210127765504,-150545022976,-213618933760,205942374400,-132386299904,-138259054592,-25678604288,-204166529024,-61639192576,166902628352,-88224694272,159908282368
-38082838528,52407787520,188522840064,123070996480,-20571723776,-3887906560,-179658915840,51827564544,175994699776,-47637078016,84054007808,16984657920,-113135616000,-8958757888,17029464064,-105588957184,-177150951424,110037278720,-173455523840,-111821455360,-134237822976,-18567249920,-53789511680,205254410240,168666497024,-151063986176,75778154496,188162015232,-152535269376,-54313807872,-51834748928,148177272832,197373493248,-84556218368,-124906381312,26740164608,-37298696192,-137445851136,210729992192,-132206411776,-156115533824,99373178880,-208531292160,-29183760384,-198756220928,-53895340032,-147526139904,133715558400,-197190516736,-602394368,-161636433920,107582849024,198763446272,-174031323136,-70766436352,-163000336384,93731684352,44720603136,-148707311616,175832514560,157868605440,83342655488,-49668546560,-15637606400
-9612827648,-181137276928,25501757440,22358253568,76384141312,12340530176,-195338420224,214842966016,-32108797952,-210854477824,182723624960,200689582080,56175308800,111230926848,170099933184,42583658496,-6635800064,-150384148480,-96919158784,77028646912,184574705664,-93837598720,149877440512,118712229888,168860434432,-117649874944,159393890304,86453690368,-42881208320,-49205420032,117867249664,-84922466304,-2655237632,-71566835712,189645963264,-200302280704,188432924672,-44153364480,-74572562432,9083777024,-28751595520,-5768909824,-126316167168,-214579707904,84139925504,-183154868224,153451659264,40937172992,-130771451904,-64078491648,-44092297216,94855233536,-131374489600,-47450886144,-106999603200,-93579968512,-212647133184,-81436196864,-127613239296,204639895552,-186010894336,-151447289856,-104484462592,-114653888512
77929422848,-187277792,-136779087872,-37376389120,-204752896000,-166663372800,-182958817280,-163188670464,-3290414848,78277206016,42904272896,-151621664768,-120675164160,-21523623936,3201827840,-135364976640,-184809193472,-14926865408,51968741376,-125210222592,-43729203200,89401057280,172396707840,169781280768,-96394862592,-106045988864,-181165146112,86934732800,65451220992,36168380416,-63398572032,-111763128320,-81521893376,-142339457024,-13455822848,-142242152448,39206846464,126650343424,-84106567680,-171614732288,-10467692544,-106513235968,-6488219136,-2241089792,-185604587520,29718788096,79385477120,-120361164800,-25477140480,-7981553664,-7269576192,-35721478144,70121750528,-162936324096,40708411392,-113378533376,-90605109248,22581979136,-37346185216,-41003720704,121682149376,-147784957952,186391003136,-200752381952
189403611136,171074174976,-146783764480,177188667392,-147390611456,207169159168,134655729664,74979164160,-189366435840,-159805669376,119514390528,-117132443648,151920066560,-199606976512,-57427943424,32170129408,-130199109632,-146486280192,189963894784,216282038272,121822838784,145416323072,-35340161024,-161732558848,-176906534912,-12153207808,-19425212416,-205402193920,57751076864,-65974468608,71467679744,1061081856,-199437762560,171313528832,144021405696,-49849626624,-206647656448,208113025024,155084455936,-7803573760,-182128721920,172005588992,-124305022976,-51392212992,99816988672,-56757972992,65491779584,-36362735616,187674591232,195107192832,-52510543872,105124904960,18989445120,95074811904,7622390272,136468979712,-43330338816,73453109248,-94039072768,36106452992,71240228864,78398685184,-107720671232,151402758144
-204551667712,-28801261568,-138714464256,42855751680,22045655040,-31610472448,-120107819008,84499341312,-214825943040,144079503360,-138791518208,-68656967680,-98656968704,211683262464,-136866275328,-134467485696,-99740246016,137975103488,-165786877952,164110991360,149394653184,4305094656,40168153088,-151717855232,162280964096,114275418112,124280913920,55630045184,-119631421440,-32069056512,191482363904,117776859136,11500328960,-199142293504,197944688640,-212390952960,152400691200,34914414592,81841094656,-202031202304,-54396809216,-13600514048,97754726400,-116720779264,-87463157760,17242030080,51243765760,80998801408,-183705583616,72291098624,-78673813504,-15660986368,-15380382720,69987442688,152237228032,-210739249152,109887643648,146666225664,-19532009472,-126098522112,-134119931904,182158508032,189338877952,18234611712
45714989056,-3368511744,-197867552768,-162850897920,47780679680,-77201006592,115220414464,-111098937344,159466881024,152328617984,-203484708864,-114378301440,42196738048,191085166592,-67545182208,-84397850624,-200269135872,-96126345216,62445891584,107879153664,137175900160,118401302528,-73500336128,19365744640,71014817792,181892104192,-11608779776,151970873344,105169248256,132245159936,-142566588416,-38873284608,120558452736,207709306880,26532501504,-24723499008,69051760640,157074489344,-179547455488,-47474176000,-211342999552,189157163008,137092481024,16502275072,207190867968,127698550784,75009294336,115504373760,-182777987072,-48389730304,-114543943680,-131398115328,29014542336,-22638039040,-193098366976,-51705643008,-203828985856,-19017218048,-169411723264,102395576320,173536247808,107625086976,26995673088,-22370799616
215534534656,-40621309952,62852993024,-167821656064,-58120146944,72244330496,-172037849088,17974509568,-144840245248,-111491039232,-36461907968,-76712083456,-155676377088,-42739617792,32070815744,-138890133504,-164161191936,98773803008,-56310280192,147741016064,-25944190976,67830272000,-125496532992,-195422978048,14026984448,-21771296768,-139536269312,179421036544,34408374272,-93955506176,-151982227456,-131142377472,13167635456,-159480872960,-79710011392,208623271936,49859866624,-141543325696,-52016914432,188672851968,-41591758848,-149005746176,150545760256,143360376832,-54309007360,-16778124288,96928047104,22241443840,132561125376,161156694016,125479829504,83409715200,-151854874624,-123849080832,150756327424,-182308782080,-94765146112,147733823488,-36478414848,-101199577088,-115706355712,126381801472,119202930688,-148702494720
9861527552,37789392896,21025298432,-198880182272,-33136758784,-166614859776,183931158528,68291088384,128884621312,215228350464,197314543616,201959636992,187786231808,-165900648448,-33759848448,165175377920,11316716544,-158319034368,157717577728,116695752704,-212027129856,123700666368,93875126272,-106259177472,-207599517696,108013912064,110258774016,-122756341760,114380677120,6644263424,-205859667968,162762833920,-24027717632,-36130353152,87721238528,80868859904,-131216261120,-158032232448,-202991353856,152237703168,57840545792,-50734747648,-18213242880,58352336896,143659581440,-135308976128,-50834731008,-168306163712,159350587392,141495484416,-89418022912,-48130764800,17961797632,-157051174912,-194712584192,32813148160,88467881984,-103536738304,-75156635648,13780653056,-201830252544,-165720702976,159855738880,105825263616
-66079408128,54389579776,-204761350144,-171768659968,-124972662784,-111073648640,-189996711936,182588882944,104918114304,-197153193984,-472620128,-12067570688,-128199680000,80238034944,29400139776,79160164352,50893471744,193572995072,-136003772416,-35017240576,-41243017216,56957644800,111314845696,-27374966784,41430814720,-184981913600,183482384384,104535916544,208051617792,159430688768,8912250880,-205774618624,-12516916224,-136772575232,31908884480,-107883421696,-145974853632,-72322433024,-196581851136,-152462753792,103900028928,39581196288,150684319744,-10934010880,21926461440,171641307136,46087487488,3297120256,89654280192,-110748286976,97673256960,-132753375232,32345427968,94087913472,167940751360,-206654439424,51161993216,-213554003968,188191801344,-96862126080,42617630720,-54864687104,207266463744,27348547584
-34901139456,-37780197376,-178945212416,-16741110784,-118307291136,-195227860992,-187372257280,-46701490176,-123183087616,78184267776,179965198336,139695489024,44625567744,199852228608,69992284160,-215364370432,128233947136,-13252794368,-8226588160,7574126592,108001787904,119796613120,30763714560,56698187776,108171657216,-204745785344,-15818938368,202301931520,-79919783936,23902400512,120938881024,47801688064,104639275008,171961679872,-215613849600,18568843264,-151234887680,-200772370432,33153832960,139912740864,-187264942080,133517262848,122779000832,29804169216,13154104320,39026036736,126203609088,-60016648192,192154959872,103638171648,-48702087168,103619321856,177592025088,-128495861760,101870936064,154566836224,92822716416,-144693116928,-62944473088,133148098560,179984318464,-173405667328,20725233664,122288267264
-169370124288,-44622942208,193046233088,124199682048,123473690624,95828492288,203843747840,-30188263424,108935315456,-93491036160,159009849344,-123643158528,-51223425024,73478086656,-121367789568,-82330411008,-196709122048,110198456320,178931908608,-95852494848,211584729088,200225030144,-161444265984,-15674726400,-186399604736,-200768634880,-214708404224,-53063544832,66487451648,-7102012416,-129184276480,116060209152,-117862227968,-212940816384,-90871513088,57368739840,-164757700608,59694993408,-48256618496,141194330112,55381078016,13097063424,-202517250048,-132297687040,-165478629376,104972115968,-42815700992,117466464256,-33937203200,-21174579200,-187605663744,17719195648,113355481088,-56894406656,76121849856,-11317864448,127412748288,-52217872384,187113193472,78445174784,173695614976,31954049024,-206276395008,-83172884480
-197166317568,215400005632,46819786752,-141202243584,127535349760,-60552445952,41327247360,-185719848960,-106070048768,148798029824,-142049361920,184607735808,8418768896,66932453376,-54613872640,-169978331136,-186591969280,201656762368,-62566367232,-40656666624,2424389376,-72825315328,-18659796992,-120659058688,154301054976,-50279780352,-202396712960,-83540508672,195752673280,119579688960,-136687788032,-91334443008,197711364096,12079089664,-140530827264,140114165760,9202345984,59660775424,-101534793728,-6855844864,96255795200,-68601831424,56644575232,18705696768,-189425696768,93645668352,187601797120,44829204480,-215923720192,11588142080,131009265664,161834385408,-71908294656,182889234432,81664106496,37331267584,113555095552,17267167232,-24781570048,114021908480,-209876680704,-166773866496,-26832447488,-207547891712
-112037216256,-79320948736,71666147328,154476789760,164181000192,113325850624,-198749159424,179630997504,36225691648,66965147648,-54197100544,134264446976,-88006647808,-193619968000,142422163456,152292147200,52969025536,165010227200,-197699502080,-159315132416,8926287872,166088130560,-60397539328,-195098918912,119216398336,-9836033024,196642406400,-190027055104,8297160192,140124536832,74670178304,203024678912,123543339008,-113399136256,33071355904,106852638720,-186495090688,190170578944,-155786149888,136272764928,9160802304,63713447936,139828396032,201296969728,58616356864,193463042048,32199501824,-5465433088,13436974080,-92390105088,-72893251584,208499671040,103097040896,194807939072,123881742336,105491709952,19270047744,-155319549952,-54420291584,29277593600,-32217726976,-53881135104,-46036942848,80708837376
-175541665792,82983886848,-125726195712,50753220608,112392413184,131768426496,-70653943808,-47382487040,-149144666112,-207479291904,140915703808,-178865307648,-211869761536,-109982572544,92630073344,-103964147712,-91321835520,-116585275392,63462273024,105521389568,-113008533504,131598688256,-167324205056,16737715200,-147088834560,-41512263680,145129259008,-145237917696,169049980928,-211673251840,-70642941952,23084281856,-53991854080,5697921024,24687423488,-60892819456,201757917184,38470819840,-34139916288,-182235381760,12892291072,148915978240,61279195136,-164779835392,-42791170048,127421931520,-215514333184,-68719828992,-100775731200,7541448192,6445735936,107030732800,48276082688,-62017650688,-90746707968,187246919680,-103362052096,167878950912,-110890090496,-34919976960,150397616128,-158420172800,-187217756160,190675599360
-182467559424,163955015680,-143095169024,-68389265408,-186698252288,-157229760512,-134895566848,163441246208,108566953984,-132227063808,193143586816,-154838056960,-59730055168,107672494080,40605466624,-68203536384,158309302272,-182428205056,55582654464,-117894799360,35525902336,-63264206848,60028866560,85492596736,15679464448,143585968128,-12271358976,-22116421632,-124933529600,86579757056,197333696512,-209697325056,100569645056,194904326144,-8397251072,194740715520,206869954560,92855771136,-27905867776,199211728896,29749243904,199402979328,-214054010880,155434926080,138016768000,73214459904,64825933824,-148249788416,-160775749632,65103339520,96062169088,149349433344,163923836928,-32256024576,197285609472,-205740146688,-49737617408,-153137037312,-110904803328,13208611840,-189855842304,-98145009664,-70958817280,124297994240
-133246689280,193965031424,-146946048000,177138827264,155004846080,71771398144,140119359488,-195849240576,140038422528,-171528634368,-127274786816,126538940416,141062733824,-112167460864,-79587729408,112769589248,160927612928,125360676864,-65080123392,-106647969792,-62011969536,10222657536,19215837184,186438467584,116390420480,32995311616,177832460288,-56768815104,-49994993664,54204747776,36160188416,151232856064,105247268864,148323139584,-186593263616,-79007580160,-140251578368,-70316720128,13943880704,-53458628608,-110402076672,-55594221568,176630874112,12912318464,-16281811968,-215943790592,-214930767872,-154105987072,135214940160,11650904064,170973626368,-107622948864,208436985856,110111604736,150695804928,-29473855488,105485860864,-65754578944,150409084928,-34852102144,117450579968,160265388032,-203865440256,-111605063680
-128159375360,-15321119744,-64576978944,46005649408,147159285760,86235512832,-9888320512,24567707648,-156397043712,-194389671936,-72003321856,68507926528,-212048052224,112618135552,-126152564736,64053673984,-109141221376,41861308416,27363567616,37044330496,62633975808,-141921026048,-179842678784,152318017536,-145936220160,-108550651904,-16587808768,152150147072,176277733376,-91135401984,75762278400,102998188032,207725772800,-211432636416,23464560640,140891258880,-100595007488,-21958680576,26251792384,38329171968,28049213440,26059403264,60323250176,98745458688,-199167655936,184355979264,152139628544,209597480960,-121872982016,-555113024,-92006162432,-197051301888,137331007488,-207686434816,-214626058240,45364277248,97948860416,-191944048640,158701584384,-109306306560,-129943330816,-35792809984,-56774598656,67555287040
20770146304,79356895232,-135297843200,148473774080,116654800896,-57419689984,-206130429952,-63836663808,86192504832,-43436675072,-98792980480,-60167213056,175875538944,-17017440256,125949050880,91769372672,204838879232,163743645696,63873216512,7020816384,45054898176,-63095005184,-148193820672,17853931520,-170428284928,-122004717568,-81451433984,33513709568,-104319279104,-6686851584,152148803584,-35703513088,-129960632320,-117290500096,122899333120,129133740032,-186462666752,154935132160,53987930112,6735264768,-13373330432,-151704256512,-88233680896,173177618432,125952499712,-167054753792,-202332602368,48284958720,-147640582144,-126880555008,191215157248,17553195008,-84518133760,-207845343232,-155483439104,-37912444928,116844249088,205409927168,-131883687936,116608180224,135765663744,-74188161024,-33282160640,-58312015872
-34480750592,55004790784,201438347264,215114907648,145160683520,-82129657856,179722715136,130994397184,107531091968,-100342636544,98814197760,211154763776,61879472128,107429576704,132930019328,155072086016,176983932928,-74768408576,188772990976,30932457472,-78443945984,-212471955456,17240731648,35645382656,177863901184,143261532160,124728541184,63741997056,191394316288,-178518540288,-189236166656,-88101724160,45511917568,-160917569536,56733859840,-9810313216,-175314419712,-178144559104,67193905152,33457143808,199710670848,130942558208,-149691154432,200338046976,170957111296,198333661184,196018601984,135042768896,-207908159488,56877211648,48515899392,210232967168,-171088019456,-105873530880,157156950016,184830623744,-107994513408,-146220187648,-137581756416,213151399936,93783719936,-81744478208,-191798083584,44212862976
93367418880,108237488128,156193193984,-96763936768,-197280907264,79137251328,-185102614528,-97213235200,-34605207552,-37454274560,-141320142848,81082859520,193513259008,19152402432,167543078912,-98888802304,155235057664,26900738048,83042402304,-12927441920,120238940160,198940835840,-66439655424,-20650180608,-54499475456,193439137792,124940197888,-104158281728,-112103858176,202488053760,93336748032,-177440342016,209329930240,-210420088832,-195391438848,185755320320,-29805094912,89497878528,97703682048,-15236571136,202830184448,135835312128,-176791109632,-131201228800,164659658752,-92468453376,-54352207872,-113542168576,41311817728,-77778526208,93763993600,183482826752,-166259310592,-134462734336,194062516224,177349935104,45948608512,206070333440,1422569216,-199122321408,-163768041472,147682869248,95950323712,198297698304
156111503360,198929203200,14424188928,33433718784,133426331648,87478329344,3745436672,-28481005568,-21285980160,-95979175936,-134893568000,-207711305728,69490360320,-120248492032,107518828544,110986371072,75586666496,156085944320,40533348352,-137500327936,-12296095744,89898541056,289380576,-141159383040,-26388733952,94211170304,177077223424,-46570479616,118744449024,108586262528,159537217536,35742896128,70678306816,174926692352,-156199927808,82169102336,-192869056512,12738525184,215466065920,35451097088,163983638528,87236452352,-41321992192,-108673458176,-47711043584,-198556778496,-32716408832,-194679029760,70068379648,62360211456,63091322880,118515326976,-65105260544,-117284093952,-210266456064,141130530816,30237153280,70801580032,-144681271296,-90458718208,36416094208,186911784960,124921749504,70913261568
-157293887488,185198460928,-18020139008,-61616062464,-74959462400,165586911232,-69114871808,210234146816,-36634148864,-155452407808,75892375552,-24902105088,-7978305024,-30965598208,-11397912576,116586610688,-138555359232,-11036844032,-50148814848,-62061387776,-155463401472,147140608000,151775051776,193494630400,-95806717952,152752685056,-105049128960,-216488640512,-125834764288,-175807676416,-14254420992,180600340480,163451568128,-176096673792,172092932096,-11383875584,65193639936,205689421824,104300339200,-185271336960,-188925198336,-162579628032,135954227200,-125631062016,174997061632,-181229928448,-204793610240,-97157324800,-149438808064,-174252113920,27879909376,-29563203584,161998766080,17014129664,147065864192,170520608768,89574170624,211717160960,22540419072,-204397723648,-109131522048,-7203921920,-56132825088,106142982144
46176354304,-13899177984,114993012736,-104128389120,-166527401984,179401719808,72077230080,-118982729728,-63579906048,-207658565632,119560912896,-184265703424,73700057088,179038109696,211189317632,-66806820864,-4651084288,-104390721536,25396512768,-94596964352,83958374400,9545251840,189273112576,113758724096,178185469952,69024759808,-179455721472,60668993536,-72505745408,2204805632,185484197888,155626848256,102647799808,108998467584,-88841592832,102172893184,94874566656,141364461568,-202337140736,-143840755712,-54670184448,170797236224,-199276429312,135131971584,80361553920,141767098368,-210233229312,170480353280,-40204808192,110037434368,6097257472,69741953024,-78590705664,-187453767680,-109556498432,196733796352,-62121304064,206868545536,-38522380288,-127433031680,167047790592,78735040512,210076762112,-109256957952
3847941888,137831809024,72195899392,-111836626944,-59177664512,180760248320,-204702138368,-175064956928,166075334656,181795667968,-154698579968,-159424970752,10154365952,-25577338880,-89415811072,-132523556864,154148831232,90670448640,-25380001792,-70776455168,-174245347328,39692623872,-69645467648,-201236791296,-32320188416,29317036032,-86398967808,-109888561152,198523011072,-87380410368,49413816320,143465676800,106363076608,141826539520,138110861312,-127272181760,39704817664,-181911666688,-125999718400,-27320205312,-72992038912,-85779759104,115501391872,59153780736,76461096960,-165684625408,35409018880,-4624560640,150489858048,202942857216,-199735066624,28013555712,215980818432,128350666752,37167472640,-27849764864,-142535147520,112839032832,-150217048064,184476565504,-198006980608,-104628109312,94125015040,10803207168
67406217216,103492960256,-114222252032,25779679232,120866758656,63263641600,22746742784,-86791340032,209011572736,-160634519552,152192516096,-72260435968,4054367488,72746024960,150510993408,126101569536,945046592,42649137152,113228963840,-28028413952,-73662521344,87138467840,38442897408,-163408674816,-151181967360,175874818048,-104804229120,90984456192,144514908160,12070312960,63788187648,37870485504,-13929634816,-173519372288,-156827189248,-178109136896,-33912735744,-171810947072,-177494720512,-59678474240,85594284032,-93100580864,171183783936,-11419192320,-94986797056,141867450368,204828540928,-88683216896,78824833024,-14985919488,-61907542016,-23278788608,194304753664,-188926935040,-127781011456,189315973120,69977620480,69909340160,-115136069632,213376630784,44582055936,-120709136384,-138452434944,71818838016
-74034536448,-205902069760,-37493809152,-40703803392,128616882176,4250004992,79224635392,173029097472,169361555456,78452981760,-146867847168,210193661952,-13618991104,-188502933504,-32385230848,-137745448960,-176275013632,-187847622656,-99094446080,-46662463488,110822211584,192104742912,-54618624000,-125014433792,-96640786432,74282786816,93855244288,-167693074432,-37244858368,-115191824384,-183663001600,-133613436928,-172390449152,27254700032,-204407324672,182838263808,121807380480,-119653253120,-211446530048,203676565504,79892439040,126995398656,190260445184,65720958976,-132149067776,-39560855552,-81953128448,-37990031360,-149903015936,133586247680,-159830425600,-41040150528,210567462912,137864642560,115893944320,170574544896,32972859392,169795469312,122082861056,176721199104,73914302464,-90409312256,213245100032,-211593134080
159257280512,85767192576,175724707840,-105515032576,49941049344,-74794573824,-161201717248,-66722902016,-159786467328,-96206610432,-19299776512,98875531264,-68581281792,1298382848,191540428800,198007603200,-59556139008,-174555774976,-137330180096,-200246558720,80942170112,20102664192,-66839752704,165790121984,-9239048192,-131546046464,-26875451392,135524081664,162522955776,164225925120,-35248070656,182730752000,8402362880,-153008668672,145453236224,-183668375552,212995915776,168946991104,-75679752192,-214097166336,87416496128,27407689728,191705841664,-161189380096,-135094861824,-70264643584,-25061756928,132313890816,158247550976,107672551424,-100875919360,-119936393216,-106481549312,187843575808,55081025536,-33846464512,167250804736,103450288128,161355890688,-136286289920,9773880320,-162886991872,63321722880,46308057088
194200125440,-149713780736,-209941938176,168952479744,202196647936,164989845504,-177247584256,125053329408,80627130368,188037611520,-126319058944,-8435398144,200109375488,-138226745344,-166599475200,-88204460032,-65956712448,-167278166016,-44705374208,125281648640,-149758066688,94728028160,-155764146176,-59538587648,8367046144,36796555264,-45372858368,-21747707904,-80993263616,64353067008,-100007944192,-43732152320,205329252352,-190280220672,-76497813504,-46438739968,-201989439488,65287843840,92775186432,41483980800,-20895315968,-138620665856,102107750400,-201226223616,-168434679808,68955234304,150799319040,34935934976,-118478929920,-106043105280,66763358208,155058667520,94802092032,-137846636544,-159002279936,124765143040,68474904576,64795684864,146194464768,-216010096640,141531938816,-179978633216,-68841963520,-41162493952
