73702154240,10074786816,148605698048,40667840512,70408544256,386825977856,193735720960,71759732736,-260218273792,-194226470912,-118502227968,428406767616,129094074368,-111183429632,65056083968,-336418799616,-148297416704,-15962249216,-29907544064,-460271910912,317349953536,-38148587520,-20298061824,-180874362880,6437807104,-61578706944,32772433920,-300162187264,-44269920256,259721822208,-185100894208,-188136062976,-39420624896,187954692096,-152821186560,-133297987584,196463099904,205153517568,-35650154496,-114673541120,-802566963200,-133637955584,-280281448448,-20897222656,-140891422720,204659032064,-129225261056,1669481344,145611210752,32785270784,-106523082752,36078112768,-5929879552,93710581760,-239154249728,-344425922560,142796685312,199360592,-64637513728,65634304000,318265262080,234257301504,711276036096,222867521536
-130784436224,-61108801536,252199256064,-280682692608,-105581862912,-390888357888,323740696576,144581935104,-39396765696,-308090535936,33597388800,70983000064,-137775661056,126659362816,-261598576640,211434831872,129646010368,150376136704,-24135786496,449053130752,-49057914880,263078821888,-32815390720,-113314775040,-172332761088,80428048384,152560353280,-83976560640,21692712960,130093940736,375504470016,-158352326656,-125609492480,173517324288,-45507227648,39337627648,51784151040,210214141952,103254482944,45071806464,-108798287872,25490913280,-235370512384,251668627456,-166424002560,-321934426112,-144103751680,77478584320,-270159544320,-29250029568,-240189767680,47822471168,-150973169664,-110882488320,158478467072,-147559874560,-306663424000,-39460728832,196795056128,-89083748352,288280641536,-109721632768,-174100971520,-40215887872
66146750464,163727130624,101110005760,94949646336,-49084350464,308368015360,-124469796864,165353635840,-22533234688,-21946015744,2196350976,-441503023104,105457958912,-186125221888,119251312640,-62362427392,79300829184,109713645568,-156652093440,-111385485312,293799395328,-254277287936,654053474304,123740348416,-136854626304,-156434825216,-191221497856,-8674011136,-7282738176,61591220224,-855805919232,54774579200,-98166857728,15693306880,-11305740288,-303012380672,-57065574400,-109344989184,72294678528,-247923376128,-15838652416,-82776809472,376142594048,-89770983424,-19109928960,861385064448,-46538895360,749898496,137787080704,-137716809728,99666681856,-253869637632,-23476084736,-15678358528,-365160792064,-23535220736,-64084295680,59140268032,-117131862016,-119009329152,-146349424640,-74190913536,-130759917568,90857660416
77049380864,-94463811584,-127360131072,251122270208,7361031168,-106006020096,104348057600,286145314816,29926957056,15229458432,-109087432704,-65082109952,-496437312,252331540480,-188105605120,109261840384,-137439346688,105737191424,245789032448,-119487799296,265521053696,273632739328,446722899968,-327340883968,-673464000,-10910162944,332129927168,-10473843712,151135830016,57022009344,64517693440,-122386604032,206736736256,34742583296,-39533821952,331295522816,-130741207040,136624685056,138743955456,130073255936,-290411511808,-116482326528,91153113088,187924447232,29898465280,566600663040,49446260736,23532480512,7317434368,216972132352,690132480,-135273660416,-89286680576,52534337536,58741415936,-125945864192,-8609710080,-221240786944,-57155125248,-107630657536,19377827840,26121123840,-154739752960,34067367936
-1005368573952,54203428864,-18671622144,1347943399424,-317844586496,-325001871360,513021509632,-232525234176,34313340928,67220631552,277156462592,-794430996480,-421845204992,-657396858880,-719283355648,524516458496,131765346304,-43242696704,-474052624384,742725976064,-885097562112,69174099968,1935741943808,-83865731072,359479869440,-184264245248,-363277975552,25907656704,166008913920,-1060604215296,-54495752192,-100888387584,-258996453376,31648911360,152989532160,70697107456,-36759777280,1050388070400,-340644200448,-335322021888,371741360128,599469522944,-136475967488,-1382992314368,136209055744,565587279872,59274010624,-771047948288,-154672381952,246048997376,-477281255424,1655300947968,-341978578944,-208124346368,336772268032,-333859127296,263366918144,56283394048,121360351232,599869358080,-309115879424,-53676965888,-234162421760,93122469888
-50984439808,-512540704768,-1143096999936,-297114173440,211530252288,-719201173504,141133987840,321175060480,-116364124160,-101358116864,-164145758208,981454159872,144662249472,304666476544,101127905280,-134530736128,-325738921984,1012451835904,165435457536,-334091812864,641294532608,-4841283780608,-178142740480,-334749040640,-226875555840,-368153034752,418571485184,-579610345472,-388611211264,-902969884672,-904193638400,-493813137408,-78556397568,202914676736,120908316672,53719711744,100119166976,580366172160,23923845120,-368251109376,578884141056,-566826106880,-390009552896,261607768064,-17638526976,1048762122240,-279951212544,498110005248,-489384673280,-181131526144,-192202162176,-9334070272,-455194542080,-172173131776,-93330530304,-328588460032,1409988558848,-255604473856,-131311689728,-922669940736,-347837595648,352957169664,259368534016,574911479808
-416000573440,-464683171840,-1909605924864,-381253124096,-672084852736,-99549872128,1892276633600,620210356224,1363812286464,172748619776,188593537024,1344583106560,-49830580224,136196767744,689220485120,209502158848,-806117310464,-36764913664,2137915785216,846928150528,724766621696,303349432320,-3400095760384,97818533888,-770281504768,329727574016,394448535552,959092162560,407550590976,230528942080,366924529664,-456381235200,642581135360,-582619299840,47463383040,842881368064,-882744164352,-300104417280,99373326336,292081926144,1049328877568,-332496207872,1267102253056,1389953679360,-251927527424,-409054609408,337268834304,265094463488,-233813295104,-28392355840,499172343808,522064101376,-1527833296896,-775365394432,-440995610624,-984024875008,-626986254336,-1295225978880,-115070812160,149660237824,3230505107456,-628920287232,-45585559552,-578604171264
444104998912,-154096680960,270212104192,-296991326208,-182538256384,520414560256,-44144578560,-267746525184,583639040000,-414077124608,375791058944,-266358947840,-1157061017600,2360863883264,535775346688,184152735744,667764588544,-170441277440,-704561938432,-2853184995328,1285686689792,-214954246144,-378693124096,943316795392,280048599040,555175968768,91380416512,770062548992,-462201618432,110583652352,-2602196795392,40442970112,-193352810496,128165388288,-260229496832,181426044928,-515360686080,472741773312,-216332517376,-263379369984,-886609346560,38887284736,371301646336,94371889152,-94707982336,442641940480,-1161588637696,546005319680,956327264256,-255847399424,-297086320640,250855391232,297221914624,-304901652480,-32877285376,-479012585472,48236253184,405524676608,-181097283584,-53520265216,289881980928,299014684672,-371999637504,-505400655872
-287249530880,308148502528,-475781136384,-968028520448,-568760401920,-1184308133888,345041600512,-48199409664,45508120576,-273208672256,181637021696,137104556032,-34227920896,-855226122240,930451357696,-383584370688,-736752500736,122939219968,-325900828672,-61270675456,860034629632,245137129472,997261639680,-1278230134784,-86970703872,351850070016,-268248875008,-96302997504,62969413632,-260358291456,616812249088,60989231104,-901125177344,-538913341440,134907068416,-83699949568,-229751767040,-216023531520,110475845632,353385283584,-161277657088,-349508632576,49391431680,-459949473792,-196299505664,185284427776,-142501904384,347510833152,-776629846016,793993740288,193058881536,-299557584896,460752912384,257727135744,-776577286144,-503118888960,1094902939648,557181173760,-51597467648,356932943872,-51784806400,-550597361664,213212299264,-146331664384
-535737761792,32961398784,-1336990498816,-547086073856,-148737998848,529046765568,45724229632,408495521792,105968205824,125287211008,74827087872,598639116288,-553605922816,283569160192,-209240752128,281062440960,191128485888,-104722718720,-18452436992,-2193635278848,5684444160,603275788288,-51957600256,-68757823488,-163915841536,438447734784,151115005952,-115379372032,149972074496,-249654460416,-382227447808,89881419776,366819475456,40376262656,281732055040,-235116216320,234307420160,866042904576,763291369472,-370655592448,-634147373056,-68113661952,-494786674688,-307271565312,-332146704384,-599009787904,319449399296,899630628864,893086662656,41079910400,-331818893312,196353589248,580736122880,-153724780544,-75341692928,-187131461632,295244726272,68407934976,-418929016832,-117635653632,-366282670080,616493154304,-3329423872,-108960456704
344971149312,486127828992,107262803968,-156512206848,599223762944,375962992640,-1698576728064,233691381760,-736263864320,749095747584,-68273680384,-39073837056,509750837248,626011406336,760303845376,313131597824,-708097736704,-42103775232,-553978626048,97231126528,554936696832,559714861056,-1928041463808,47596535808,500489420800,-1264487497728,478290477056,-542841339904,83683319808,463295152128,40487522304,-61900267520,536084447232,659565248512,-313670565888,7962551296,444993667072,-217421742080,-112033480704,-33716856832,-241038589952,-629379039232,253296115712,268440256512,-49828036608,-501926789120,-8403235840,364192989184,-47000018944,201269854208,-169879240704,-56245497856,731037040640,771836936192,-265217867776,400466608128,189507174400,198414991360,420995563520,-307428818944,-3237181652992,-109133660160,396348424192,270064648192
66417754112,151470342144,-1591573479424,-280030609408,267915149312,-773187960832,-879789932544,-229643796480,-330012327936,936232222720,-308663123968,1452649218048,-144584785920,242225987584,18651981824,119069933568,-1149599744000,323363667968,172730695680,399176368128,-1488833216512,1279803129856,459565105152,-1655645274112,187426160640,607987171328,-1276991635456,-284168585216,528848519168,247046340608,173313261568,251121844224,-451308617728,-406983704576,-168249016320,-496840179712,109232324608,90580877312,23325890560,-34125148160,-234034331648,522574659584,558976073728,1359784968192,524218302464,503229710336,-279482433536,-268783075328,16990900224,-642729246720,431423979520,-1239103438848,442307149824,-149313437696,-160595640320,-80687144960,623096037376,273179492352,151515611136,270133411840,383248039936,250735853568,-929607974912,-183651500032
51750436864,-518354042880,-83635306496,1674027466752,135459250176,-344761008128,-225004552192,69859631104,-354435334144,705547272192,-348272132096,-290797617152,-19447478272,544714162176,-1421449494528,305740480512,1237673574400,602227998720,582578077696,-380747415552,97799520256,-184281874432,485974409216,15243158528,246573940736,-151185309696,-166486687744,-272292347904,672972144640,81979899904,-238817230848,-335228076032,594215895040,-223646334976,-731138228224,271052259328,528073490432,51411947520,-609871265792,-703142428672,1593135202304,-5317391360,609276461056,962042724352,1375772999680,-798870405120,94082138112,-37139320832,-333852573696,-260124327936,307324190720,788049625088,-263415250944,-340619558912,-439603003392,942938849280,-639589810176,44671410176,-1132104908800,-458768351232,34636992512,-95134081024,1352454635520,-278270083072
610404204544,-36642422784,1491409174528,123777564672,204436455424,425660645376,-2571915231232,-1096397684736,-390333693952,-226915205120,-144013459456,148089552896,905217376256,-374175170560,105653141504,-901163188224,-242197069824,56970452992,-214875537408,-667150778368,606647877632,217436995584,29376964608,129545019392,192426016768,-82567323648,-70041477120,508737847296,-808444624896,384588840960,2505799368704,149713141760,181429665792,554194042880,-366977220608,-458487332864,265218457600,663817748480,-23481407488,1456161947648,-935816593408,50651942912,287366250496,213495185408,186809729024,681665757184,1884663971840,44001034240,-1403066515456,-1873138304,-188945481728,-166456836096,-890921353216,-195171926016,3401418801152,-345920438272,472637767680,-1037829406720,25480126464,26734639104,-215324721152,390424592384,-99143524352,-780778733568
1378033467392,-265164374016,1380564860928,-64117522432,-198059802624,-1051692040192,-19035959296,929100398592,-470026682368,12460597248,-279890296832,1096279916544,746293428224,-622568800256,238574485504,359205371904,-344242225152,710384812032,578039840768,728874221568,-318585667584,968778186752,132214751232,-933946851328,189114105856,-821452341248,177443225600,-357381701632,10666181632,-279776526336,475055095808,-241095065600,-122220126208,226499657728,58741592064,43408576512,121914540032,416283721728,-117221457920,-243727187968,1241414500352,428175097856,755353255936,591242657792,-163278487552,738827304960,-400874635264,661909143552,723032080384,553868591104,245986951168,-204258623488,-454138953728,237463699456,1152531431424,-906872946688,710016499712,-479705792512,-231299301376,529199005696,56994713600,-464539353088,67201024000,693163130880
-91782545408,-267898716160,44629475328,1323589304320,7852271104,-331228839936,15367876608,69840887808,445949968384,595216236544,439472291840,230687014912,53206831104,403722469376,-81694498816,361389588480,205935738880,254588239872,19341307904,-54085459968,4324398592,727451959296,-59641487360,466781077504,104839225344,948191363072,154705494016,692677312512,-186245922816,-42003726336,146198659072,655274344448,158904958976,-211569393664,245285912576,921945374720,-661867593728,-299419205632,-122200137728,343455399936,69861826560,-76933988352,938065526784,-269362905088,-119180173312,69108350976,190430887936,63540228096,-166210797568,202128637952,37954166784,-1042805424128,-6319709184,23765186560,302576336896,197572263936,89323315200,-260684267520,97024901120,-189068230656,-1189385732096,-331434950656,-154667859968,-170598678528
65094385664,108884770816,87257554944,204063522816,673015791616,649203613696,553301377024,134670557184,-12563637248,216532025344,-325698256896,105673736192,-197814747136,747933138944,-655509553152,-107955847168,-740124196864,-452338319360,-328917221376,-1583629598720,-21576925184,-177988976640,614732201984,-815320793088,405339602944,-113932894208,-288059260928,330193108992,-309595832320,305150492672,299356487680,83015729152,530105008128,-304023896064,-69023023104,-480896909312,-326342639616,358043516928,-133109342208,77739433984,-310590668800,-250711015424,-207136210944,685508788224,120294342656,-235402887168,-12661501952,245582495744,237793460224,124839092224,-330302488576,-334626684928,331915329536,470638002176,-2194671927296,-239021785088,145424285696,151130046464,549613043712,-342242852864,-85072371712,385240662016,183241146368,-209336844288
280790958080,636359213056,812783566848,-1184373800960,56092835840,557150371840,-1939138543616,383673925632,-117113593856,-881470668800,687092269056,-2175275761664,-507095810048,-330892738560,-792634654720,22889754624,1167603007488,1667325231104,-1346234613760,751453863936,1192965963776,-596779532288,-1881779077120,-346449838080,246565666816,2115584786432,-831953371136,409930629120,46778621952,-1028551475200,-614268469248,-438280585216,54483075072,169376317440,-161284702208,-1162459873280,-714602250240,1266104795136,-597700771840,747905613824,12902131712,-9188469760,-3685085872128,379431747584,537543540736,189602562048,106465091584,-64565178368,-1243792932864,557850296320,451247013888,-1297173446656,-844718211072,390664617984,-1679698690048,892852633600,-1204945551360,271984984064,417538768896,-1132574015488,621058916352,305904189440,241231429632,69581897728
-1175121297408,-23484973056,-2354866290688,724272676864,-202102177792,1025115619328,275410845696,636011020288,693963390976,-156354822144,545737605120,441595953152,-468113850368,-311554867200,-1865456156672,903603159040,26115977216,-711930544128,921348341760,-2916129177600,-277131952128,-851099123712,278563717120,-773690556416,-395820662784,140383764480,-493116260352,-178864340992,683086774272,441628262400,-1597027516416,-542723014656,890316128256,858060288,523171627008,515840868352,32315254784,-530803359744,132047814656,-1398368370688,-770983854080,339929235456,-154241875968,909332447232,-14226233344,-873534980096,-663843438592,540702605312,1173762998272,-135019724800,-567339712512,642221735936,233414574080,-666086866944,-814509064192,-218200031232,-559648931840,-700790603776,-628602699776,-58324365312,-119005691904,50075983872,429329547264,335389917184
303661154304,-57909932032,1156514316288,251155824640,535429939200,-910537719808,-1342015012864,216182734848,-336531947520,73507782656,-273640030208,-257971568640,604188639232,-588050464768,178290016256,-720230350848,21766948864,-353659322368,-658461097984,-914092589056,234002661376,-1274128367616,-254457118720,-26564216832,241497014272,-289045807104,65409957888,-175817195520,-573622910976,480480428032,306237505536,51495047168,619365072896,-9257907200,-207234318336,-52969103360,31691409408,-355400318976,-528372334592,267929190400,-11979541504,111586459648,8367315456,39018475520,-136245616640,-1818119766016,570545799168,365081067520,-1298624413696,491167514624,-600362450944,-249229787136,-6955107328,439789387776,1319523319808,389325717504,-53698555904,29481121792,324006576128,192175439872,-65833345024,-466754764800,129712783360,148427489280
795195342848,2353746149376,-2382202667008,-340173029376,-47620009984,865520779264,1202783256576,-183210147840,-405424242688,-841738420224,-767785107456,764365045760,1257088090112,2823141720064,138382688256,-1026181103616,-412434694144,-85722841088,-228459888640,-3178874535936,484381687808,825429983232,-1590263414784,-1158919356416,-586512072704,-384677216256,1943030464512,313596051456,25663498240,-729051103232,-5806170832896,184464949248,-802013380608,1019685634048,-152046354432,1920432996352,-1045741043712,-1033680977920,-1082136068096,-901244452864,-4253495066624,811971444736,-26936455168,678613352448,328907751424,-3261330358272,23081748480,-314390446080,-2600388263936,-109434634240,264397438976,282236452864,-1390904606720,1062394527744,-399550578688,3822910439424,377088311296,-487461715968,-741953372160,883877871616,-283428159488,201684582400,1349549424640,-748273664000
182237102080,-49913057280,796102295552,1362284773376,357213798400,-77311565824,-11485151232,-1207919181824,-285367697408,699800420352,542847303680,-725946138624,-801068810240,-818069766144,-293166972928,-893186539520,334411661312,180364918784,138074652672,286630215680,-450888007680,431394619392,412540960768,-1053276110848,163774513152,-1575599734784,-858687012864,-608576012288,367567503360,1113222545408,190617485312,779798773760,196672094208,965332828160,317365649408,-293660819456,339773784064,652223381504,-259954655232,340606386176,242709544960,331834949632,187420147712,2289044480,-322886893568,386108555264,151151476736,219822260224,-430656815104,1272136990720,-113791459328,-588551815168,219164590080,443513110528,-631294525440,125322174464,319023579136,398411300864,210671747072,17886423040,1648521510912,-202838556672,26963146752,425890643968
243931676672,254137417728,709427986432,175698132992,163964321792,2206110056448,-110258782208,357679988736,23028080640,275551289344,-230776258560,49834119168,106168221696,-159333515264,386675703808,940677136384,730320470016,-14969067520,-101075705856,-1564478144512,-138518249472,767445893120,-198184747008,477887791104,-57383325696,239061843968,-1279641780224,80001835008,213836840960,325864488960,-325485887488,-356488347648,-225468448768,-204833914880,-79001829376,-162423930880,55803998208,-289131134976,-127436857344,422002720768,424116551680,-171805589504,-79659016192,420555128832,-54596960256,233991700480,537525256192,24261453824,578060156928,-296241889280,688373366784,404514013184,31440277504,437472100352,-62904741888,283243184128,-1530195214336,-3044443904,-304055386112,-267848400896,675003170816,-290219098112,13224798208,-73072164864
459738677248,-293508153344,352966803456,932023238656,94018461696,482569912320,347612413952,-340808925184,256987430912,65876123648,-58541289472,166497746944,14034525184,928009158656,-452990992384,-462921728000,17887823872,421555830784,979770015744,3843984195584,-125018030080,543758450688,-185325223936,1070689484800,542611701760,-394990583808,-35498151936,-1073413881856,301002620928,-84911751168,2236476030976,-47427825664,172263145472,603488190464,-405586214912,172785287168,-571224883200,-778132979712,-580425351168,812025184256,457432662016,-287404195840,60595257344,256236716032,56513204224,3023886352384,595810975744,-947280543744,313353043968,-84867899392,411627192320,216050876416,-327536377856,272618520576,886333112320,196052549632,-893731012608,-1436323282944,51879972864,-49336221696,144717643776,137653501952,-252520857600,-236982239232
-231606386688,-256251314176,2891995152384,94658215936,254043815936,167592640512,-268523520000,-346931593216,-253513940992,266637770752,240682336256,-255131697152,-1081979371520,477479927808,-234864721920,2246326091776,592786554880,230944669696,1512491843584,903385317376,665337593856,-1652546076672,160990167040,-350988664832,-550416941056,406801645568,-38676983808,767280349184,488285995008,153478709248,-705595506688,-275552960512,656397107200,42150055936,153665306624,1563020886016,-673129889792,447853232128,230751649792,70653378560,-391322140672,158596841472,283671953408,-324401954816,522749706240,-1938889768960,-1081884540928,363870388224,1800345092096,88564940800,-336668393472,368357572608,818713067520,-37823660032,-854512566272,-419255353344,2002984239104,-442545733632,102166814720,-330471374848,288839696384,99643670528,-321112932352,-1055250251776
59226394624,585192767488,664190910464,266945839104,123419271168,-651937579008,-62052880384,-175581888512,-440903041024,77451878400,-771577675776,292815077376,663041081344,-809325494272,-168355119104,-181783691264,419751559168,-348636643328,-804096376832,2204336128000,-45319688192,1919322816512,-595963281408,544394510336,-151549149184,-316067184640,-532245446656,-326342410240,84986945536,188701507584,1376179716096,126421925888,-1169570922496,-83068542976,-44021489664,1431873781760,187295629312,-372555513856,-516294737920,542644600832,967844233216,-219231535104,-133412511744,689233133568,-126939570176,410314113024,722342445056,-548371660800,-387618963456,-198710198272,1067756748800,-398108196864,-865448951808,326259179520,1303367647232,490032463872,-497067261952,-560672800768,98446057472,214866509824,694448160768,193167425536,-186356072448,455871201280
-565024653312,137911812096,-170125852672,568208850944,203752849408,-246900654080,253256368128,-266970972160,-393362669568,-1269325103104,191818022912,960849117184,-194345402368,-1356685901824,240394420224,-267982061568,120018354176,-545151352832,336548003840,889424969728,869705318400,-2187321802752,555268898816,-1436934209536,36187824128,593372512256,-349570498560,-371210354688,-42013822976,1077309341696,-733804232704,962439479296,-326907002880,-232653144064,-77654368256,-1098400530432,719238529024,601190170624,-79012855808,-1611530880,-815395307520,35369005056,754907676672,-98186117120,-79683854336,413791715328,-107086077952,263574880256,-790432776192,-1066524344320,478114578432,162526953472,93178871808,63592767488,-1197535133696,-59581919232,-11932436480,322476539904,43209101312,633283149824,192067960832,222400331776,-588433326080,59593035776
68842422272,-584165687296,-841852387328,122149732352,486155321344,640389283840,1479111999488,678976421888,5622655488,196922851328,1249241595904,-1912576278528,952533843968,-537096519680,-633442205696,-586327457792,-1185976025088,187519746048,1557656109056,1062466355200,261535055872,-691478396928,-497479942144,842594582528,29815595008,-293333991424,560293675008,-107056775168,437571354624,240092364800,-444969648128,-355670360064,857896517632,398068711424,-695138320384,454745325568,-108908339200,163996696576,-440556486656,660497760256,-63860035584,105884180480,255904940032,343734353920,-545418674176,-144912203776,104154955776,620447006720,690299469824,1145823690752,-491523702784,533173239808,-527105327104,968849227776,-223199281152,-356631511040,747228037120,-568200921088,10059516928,-729763610624,1708251152384,63591079936,418114011136,51304218624
-46822014976,362152656896,145133404160,1591250780160,-557384728576,-39999959040,871008632832,-7003784704,-332957057024,-305894883328,-254664851456,-162875539456,-170989961216,-102040133632,5078435840,-110827929600,-483663577088,320694353920,-959508054016,-141486522368,-836823810048,444505456640,2213144690688,342224273408,-298663903232,-758838067200,-246286041088,480331202560,61460246528,-143166898176,-458119774208,-574726799360,-454022529024,1930745479168,-283904212992,-679065878528,131640049664,-145776656384,30182010880,-153553584128,-193240170496,-397536559104,-2010381942784,-169719382016,-126909177856,693753806848,-862140104704,85175861248,273589927936,-442023510016,88282374144,-729007783936,117926166528,-57711767552,1096761606144,184575606784,942184267776,267983093760,818163744768,-1034863378432,675421880320,200119107584,655482028032,-202259808256
383430304,536515084288,223965642752,473396379648,-328093007872,293808472064,-173725155328,-139161026560,104862916608,-1308506718208,49303515136,831405752320,299179999232,-368775692288,13427852288,892137504768,-320432668672,158675238912,-519981629440,1766929596416,-459580538880,1593463013376,-141068746752,1260253478912,813314736128,650601037824,-282233929728,327197425664,127850381312,-466483314688,-692011663360,-621641269248,-686411087872,875548639232,-539411316736,211117572096,96725065728,-438721773568,-276513357824,-425808625664,422910197760,133930852352,-389031460864,85714239488,550238814208,-552552628224,99173507072,992518144000,-42170920960,253993271296,-368999006208,-695241670656,-501111095296,-481191198720,496032186368,-110390558720,-547997876224,-1130073292800,-141165395968,-370545983488,153695158272,-809582657536,-87259013120,47156936704
63551848448,-167561166848,-126483382272,-557095124992,99968417792,-1174003253248,1061312004096,-291123068928,76797501440,307664027648,-278573711360,751966486528,-246520905728,-943251324928,-664948703232,295803125760,-422971506688,-888161632256,303524773888,-1144365645824,-1701493473280,582938591232,1020253044736,-111933874176,338946260992,82367791104,-220403220480,-19697027072,-165963841536,437713567744,1388237029376,643167027200,1001648291840,47029800960,260536565760,-556626214912,107897831424,231990460416,-130217312256,1979268202496,-254431723520,227754082304,382300684288,-160120979456,194729246720,752405774336,29745647616,413322838016,-635234287616,291827417088,-656883712000,380777234432,260818026496,299404558336,507354316800,18136408064,828192325632,-317706928128,41852661760,969641361408,-210646564864,187755659264,-795411939328,-39247626240
-178551799808,240102834176,607378866176,-816391913472,-164570267648,-165948276736,522562043904,-294414352384,-89612427264,107395473408,128716496896,699872444416,12134780928,-383057068032,-1011066011648,-158062739456,325028249600,393002221568,225042022400,-1212840804352,130083741696,-542095605760,-296969502720,-399448375296,-118771073024,1107297304576,-37914779648,-333022003200,76050276352,26593355776,-206700134400,108548276224,-337544871936,-557885751296,-304381722624,-708065296384,292038410240,122140958720,-453392203776,-94753824768,350126997504,129803649024,-22613542912,148051427328,265741434880,-155963670528,52959940608,-376473059328,-334196932608,-569115607040,405078507520,-346589003776,-384000393216,-708840652800,278145531904,154956972032,264499937280,-187563966464,-905024962560,-160440991744,-442617856000,-141629440000,-1162020519936,-197417828352
236052987904,448404946944,206534098944,-1220998201344,137094561792,-75054014464,-1449200844800,-519718174720,-908203655168,-433930829824,621792722944,1195854528512,-243227820032,-1224329134080,-639095013376,-543294717952,-156731047936,161911996416,-1278537105408,-537559793664,-396330926080,-719482322944,375613521920,822847733760,76640108544,-2910591744,-267517083648,-7472825856,-631915610112,35852271616,-863751307264,-1339367882752,-871070302208,64754540544,121583386624,-1052497739776,29955436544,-3603603968,364019122176,-135484497920,403216105472,-137193644032,-314940751872,151626088448,-133596160000,581907906560,-266028498944,331527815168,538666696704,-224328433664,17326616576,1115163983872,1049299910656,314708819968,-839843381248,206605008896,1057881849856,566481125376,-185099878400,143735980032,470534291456,762331856896,189918674944,390734217216
13302870016,-74692108288,-788434911232,94469120000,164433100800,-400777969664,911296233472,-129113817088,654984216576,182267691008,-410804846592,-440040488960,-447260164096,107723915264,52606488576,66923073536,-359194361856,835935600640,109042319360,-121059835904,-354611920896,-316567781376,-584486223872,546893070336,215982047232,519240286208,-367052554240,875116560384,543437389824,-315949547520,110222090240,-199794294784,-442242334720,-245806710784,-145760681984,479941328896,-268223774720,408694980608,-131294855168,387038248960,-770006319104,467425689600,209077370880,1111485317120,529402363904,43072303104,-125526179840,-257204371456,117953290240,352595378176,405848358912,-1237084798976,172091113472,-87717019648,162451554304,-97689804800,-578386460672,28729208832,-513437302784,-404384153600,-9151287296,-9547189248,-640256966656,-408465506304
219100708864,-110884626432,-20526895104,-74747969536,-135619919872,22468618240,-1371971780608,-90547437568,227111583744,439438671872,-577228570624,279460675584,101211758592,452026761216,63851839488,223514968064,-192031457280,368298393600,348011692032,117404327936,-3475527680,969899638784,-744181399552,986613481472,-240356261888,91806654464,34026131456,398683537408,377918488576,738165063680,600295669760,197621874688,46357487616,-260655153152,257176666112,547878961152,-278929637376,-934270926848,-60252803072,92539977728,244196802560,77322141696,-322071855104,574337646592,138177888256,21654142976,20051548160,-123979431936,-150232743936,138620583936,643482779648,-19662974976,-436247003136,159143673856,387444604928,245913403392,-756032995328,-279986569216,316804726784,-432907812864,-370857115648,134810861568,125098991616,62405935104
-389494865920,258565816320,-321140817920,-155678507008,96282828800,-746101538816,-629419999232,-113564450816,109442138112,-218871218176,224654884864,-868649664512,-480116047872,-1177518473216,-346590543872,-707214049280,-340826357760,17608855552,-791430299648,645641863168,204821594112,-1711581691904,-1234649350144,1423960178688,-7062822400,179838320640,-652568494080,-50024931328,307685556224,-539970043904,-603090976768,-271582969856,-238219542528,-121283018752,-51819507712,899763863552,200968830976,-119124877312,-110790516736,-471659708416,230476840960,-17888940032,-206575730688,875066490880,-129133404160,-214807019520,-200702427136,-114770558976,-242329894912,-2394550697984,-94059175936,-575487344640,239491792896,-59342618624,999723630592,-105501032448,649278259200,-212333297664,-5996176896,-87134396416,345023152128,263218102272,-182370336768,-17742479360
-176098164736,336902455296,620199804928,-97558233088,338937053184,573207085056,-773920915456,-364973522944,-283354169344,-798422663168,292002758656,883451625472,-463126757376,-1655128195072,-487622148096,47080431616,858648543232,401550376960,-540595519488,762496745472,-419822403584,-479777325056,-159277678592,-714490183680,-58823766016,1287352090624,-596419870720,236201082880,-421791399936,-270999879680,86231736320,-1102585397248,-867364896768,257778974720,-808221933568,270212415488,149631664128,155898003456,-204504399872,721801707520,536664866816,27873316864,-114865078272,-390566084608,294776274944,-250596687872,205401407488,188491694080,635498266624,1078021128192,379717451776,-1660328738816,293767839744,-102259703808,101156347904,-287619284992,222311251968,414670880768,353339998208,-696647614464,604706570240,164324917248,43974258688,-250836418560
113811922944,2564962385920,628909801472,-163302932480,-311742857216,-3654029148160,-1088799768576,-363092672512,-1004541771776,1900291162112,-135741071360,915877265408,-1182688215040,-664102109184,87729463296,917180973056,404366786560,-302885371904,-952302043136,1851504197632,882140512256,684158025728,2028226609152,-560445718528,-1222483247104,-596627357696,-707887562752,-72447967232,126830247936,3497901162496,858812383232,112237756416,406009708544,1981316988928,-1344337346560,-1289359589376,-149432238080,-2981435136,906042933248,-723424444416,627822297088,354379431936,918949462016,388645584896,-136866930688,106356817920,272328294400,-374108323840,338721538048,-3744560054272,111148122112,362661216256,538769424384,-113944698880,5045568929792,-1423295512576,660172242944,-605467574272,668998631424,-559638052864,48994336768,-976468246528,26516142080,294586253312
716254019584,-180291829760,-534894575616,1113817088000,-477250912256,-636216541184,754055905280,69269520384,-4528531968,472597528576,-753766498304,9193988096,576914128896,334965571584,77296599040,411181645824,243497877504,-352480395264,786354143232,925570826240,-116360486912,-234064838656,195412901888,233435119616,1227430166528,-25153249280,223550914560,501948612608,-46377406464,174880129024,2378148352,-962891743232,615090749440,466460803072,-748826722304,-550368378880,-167503396864,-875118657536,-494083637248,-225155989504,-292214177792,7821557760,-526280261632,279686283264,150929014784,630728359936,600155291648,-401959026688,354525380608,-113180114944,2050810240,189841670144,504201609216,-1316565155840,1188409507840,1326712619008,-316527181824,1092590698496,245299707904,662121742336,587870699520,-131008069632,-1930143596544,414639947776
-177700651008,221659594752,1531967832064,-62277423104,192413286400,1293400670208,-65366642688,71195820032,-70252994560,100176920576,615278051328,174627651584,153175375872,-1316090150912,-463902998528,-400817979392,712271265792,-225432993792,-133144829952,1121247690752,-1403081588736,1328709632000,-567624859648,-536841125888,537800704000,-197185355776,-7034092032,-169088811008,72543485952,338263769088,95592759296,147900268544,407086530560,-143787999232,-47907180544,-323879239680,135265026048,-1032678932480,-280454234112,1593957154816,673353891840,-152833490944,183704289280,-591549759488,124062425088,355134439424,284662923264,359610744832,786464440320,65739468800,-427547099136,-143800205312,392678014976,355435249664,2082163523584,435225985024,-1003760189440,762090291200,49112723456,-589731594240,220226224128,171590631424,-728894537728,44116410368
-279464443904,38139416576,-436493156352,136969084928,312432623616,-457490235392,474693042176,156970844160,-122188611584,-99456507904,225641431040,403508330496,-230238273536,708906516480,-80176357376,46655406080,214199304192,32388591616,3119924992,216259526656,-144553771008,297761046528,-64318607360,434794725376,165779849216,376606621696,181058158592,170269081600,152596283392,15361008640,-345650855936,-189269360640,396171345920,590748254208,-330770677760,121589268480,-441861832704,396998934528,-84250165248,59543150592,-262313672704,-315225505792,-67625816064,239989096448,331710300160,-87698219008,279203250176,320296189952,518492323840,-37746552832,69994209280,-28147179520,849016979456,439887167488,320040665088,-467272859648,-564100202496,24419067904,9962628096,-85295513600,23828219904,-463943467008,2571441012736,133876490240
48076574720,12407747584,-311932780544,661293301760,-152613502976,-305050746880,-1928239382528,-445330554880,567037329408,-254280777728,-446643830784,348601974784,-502167437312,737790132224,321431142400,373945270272,210887081984,-107168382976,-51742617600,-143675129856,292670636032,-7101455872,413171023872,-430984527872,-192933724160,1209207881728,-76529836032,747720081408,456965488640,174039662592,40327114752,455488241664,-384258015232,206531608576,117213331456,141288439808,-580357193728,186057457664,-46342475776,80136888320,85049057280,-429063897088,886496428032,328740274176,422010847232,230668419072,15965127680,-556649545728,-577381859328,330191273984,771953917952,595978878976,-79225044992,-203027529728,29725650944,296559771648,37749239808,-2399051776,196008902656,-232765669376,-418156380160,-570235813888,119790698496,-396992872448
253265920000,-176519708672,-1008464232448,974891974656,338220613632,1280855113728,-334771552256,-308410712064,17498343424,143544467456,-16042940416,-518613663744,52232843264,-49064194048,-1490941378560,-55476686848,631533600768,-1770003365888,-683169808384,1023608553472,-811842404352,66263670784,520636530688,-225716027392,324988272640,-166498861056,495153536,-270568833024,386851504128,207892627456,391521665024,902180962304,17706268672,115972579328,175665070080,-22394263552,338543312896,-1024077135872,-543640846336,238721286144,-393401565184,117406474240,550748815360,962517991424,212579549184,647033126912,-324991123456,-15604936704,-79470723072,175994372096,305997807616,-60624723968,-226112077824,178016288768,-602244513792,455751368704,-432247635968,156720152576,87087022080,1261312016384,591725592576,-38299033600,-792351080448,88314363904
359576469504,591486844928,1134652162048,237532184576,-49385082880,1678611972096,399547072512,-548007542784,-296063631360,-110418395136,-338574573568,-708000940032,66557796352,-1265270128640,-503863640064,-100701118464,-1061495488,220352036864,-544483016704,2305729495040,130145140736,1282297167872,-41105063936,-296503148544,56561205248,-506886029312,-27553343488,425624797184,121230049280,59153334272,1346104197120,487688372224,-560818028544,-197391597568,30844006400,-1080815648768,-344580849664,-657643339776,-208688005120,788966866944,-441438528,-206490353664,346764115968,-292741545984,278479962112,738080522240,97567719424,-148749828096,425756917760,-99438092288,434823299072,-29736255488,166971211776,292793745408,-135633281024,77937008640,1164119769088,253549215744,12065441792,-191577391104,-166271516672,210306449408,230403309568,43360489472
191039078400,-8996921344,130886336512,221542137856,-144118841344,288915652608,-1765951799296,258532458496,-118069501952,1201693261824,300292308992,375218864128,770278686720,-838435274752,-134035701760,-804579442688,-250458996736,173259997184,750488780800,275776176128,2692072865792,1947130920960,-485729796096,2362229129216,-303898329088,622294990848,-1335922524160,-447061491712,539154055168,-744005173248,2398930862080,-71206215680,76285476864,950403334144,-972937822208,9346534400,143820767232,845137182720,-303466610688,-631523311616,3327300993024,1438377836544,394539597824,279691624448,260564090880,457994141696,-227065577472,1269759213568,-1351675936768,-981941682176,-887561715712,-331788222464,-1046790864896,-307338608640,-1665559035904,-76707676160,-134085443584,-409409323008,774051004416,-200273608704,1211328495616,1069668237312,-308606238720,-399527149568
1612408291328,-83344932864,2891008442368,-194862678016,-245735342080,442250657792,-294957907968,-602100334592,-426927751168,386665644032,-553794797568,856408195072,-27159832576,47926050816,-69869494272,1004759482368,529878876160,-365879689216,890728546304,-3221324038144,122415161344,130455674880,-735205130240,-489024552960,46768263168,-62510338048,153932906496,-371122569216,-1009448189952,380735422464,585028665344,262605537280,-93086826496,46034817024,-246122528768,62458613760,-189408411648,-1398553706496,-39667138560,457113501696,-412020965376,-559641788416,-104321777664,1531510784000,334434402304,-2478843101184,288544489472,381807001600,77004693504,-131596443648,-35805720576,322451046400,1363074875392,-317597351936,704428965888,2667988647936,3367661993984,865627668480,949337718784,-238739324928,-43131731968,-934336462848,1666447966208,605743349760
405968093184,-128603389952,-3980515606528,-720118153216,277466087424,207218737152,276731494400,464290971648,-2193665024,-129186398208,-37191081984,-1544981970944,475830026240,-502555181056,640861339648,471239294976,100671160320,393873260544,538190020608,-2579162726400,912935485440,-161089847296,314283130880,1320547778560,144733618176,-564548206592,647069302784,-723597393920,-646519521280,431496429568,524506234880,-473361907712,342965714944,1423659648,-383606849536,175201206272,313865830400,296053571584,-579964502016,1480565456896,-404455489536,82187976704,445671571456,-900925751296,-311380115456,-203332468736,-149151268864,459765972992,253194092544,6292298240,-530349326336,-859710554112,-396698419200,306005508096,89471066112,-414620712960,1384130674688,-296990703616,63552118784,-114086977536,237652983808,97309556736,70219579392,78276009984
439127703552,111448170496,777149743104,215036051456,-192603488256,-287662637056,-1163352866816,-799258378240,-135392927744,-127421112320,-258185330688,709422481408,734220255232,-801963507712,-119482179584,-924348055552,-65109377024,72977604608,-623559311360,3883096080384,-1408437846016,1265303158784,-53595099136,471011786752,1102637301760,-162842656768,-143690760192,-213154365440,-350299521024,-841109733376,761990545408,-653143048192,142049591296,174665564160,-248058363904,-193041842176,-488239890432,919961272320,-428489179136,763910094848,61970386944,66377625600,-92202852352,-337374511104,-43402764288,1560666046464,-292975181824,-726245769216,-2415847800832,170794024960,64479277056,29999161344,481029226496,166188711936,151645241344,146000838656,472147918848,-189815046144,630321643520,-22914224128,-897803091968,-79468027904,-1775947218944,-268270501888
-84150427648,412051275776,711984218112,282283868160,66394968064,-330559520768,-666287472640,-170363420672,445521166336,-619360026624,-164892262400,6351357952,-214852141056,-8748416000,-84382867456,-689530601472,643366649856,-415275941888,-172381929472,-1090591391744,382267523072,-1401765625856,-200364376064,390331367424,124617670656,464094265344,-1371511717888,-181877882880,180044644352,159933874176,1763832102912,-127830089728,-822902587392,-555007803392,-36103434240,22788792320,239821651968,-305736417280,-450817064960,1395454377984,-605446275072,331307679744,50773954560,104519778304,-780534349824,801445904384,-317802872832,-557915897856,-37771522048,-735552405504,775404584960,-216776343552,-659397476352,83618766848,-2043726004224,-77257080832,-581654544384,-457249030144,-522547724288,278595305472,558755414016,261482332160,-594114314240,-401145135104
-608172376064,729514049536,-122492207104,815297396736,420949229568,108409421824,85534023680,-752791912448,-523572314112,541564272640,432357998592,-130975948800,-203747721216,-493516652544,16107803648,-248312872960,241352523776,-862255448064,-1027958505472,-1171220070400,253291642880,-151444979712,426761486336,-516754866176,450673082368,-161362149376,-551912669184,-813962821632,-285755604992,336321380352,-1226820681728,619674533888,95864496128,-586871930880,419125657600,-607606865920,730516291584,-398230028288,-48156420,-239140585472,-175394586624,322711617536,782536081408,-447010471936,-233833529344,255234605056,-18985775104,310485647360,453587861504,-222266982400,-152780800000,310317449216,280940249088,67700424704,759486676992,-149454815232,164354441216,599064969216,278642032640,962659614720,2253729824768,-190239768576,-259141484544,-223621840896
148290322432,501762064384,645726732288,-500317159424,6234293248,661161967616,433128898560,-268603047936,-745537863680,-503792304128,-31339683840,28418201600,14345604096,-244002226176,-176613556224,131530784768,-239393112064,159963856896,-177095147520,-811868553216,277223768064,-138708926464,126738071552,-123641339904,64300978176,142956036096,54649270272,-522827923456,91642856,-378242400256,432763666432,-839407304704,-997995053056,557384138752,154835189760,-993044398080,151405608960,-201590292480,121254125568,501058142208,-413034381312,-527541174272,-73488867328,217140150272,31558821888,-91605352448,-353481326592,329996730368,-529534877696,-980941996032,804170104832,-126625128448,-186724515840,567237083136,135993245696,-449647575040,294536871936,176132259840,855466967040,-551374094336,-487650754560,300129189888,604461400064,255963021312
-338927288320,-703878922240,-37082087424,492086460416,-371171983360,419687268352,1094738313216,-146700648448,17361997824,-589000212480,-1004688048128,1123267903488,-14129366016,-793394413568,289119961088,-145169973248,-540061302784,567864459264,327691894784,767634571264,-1900188925952,-55596392448,689511006208,-125494067200,310247260160,1153206976512,153601687552,99246825472,361112961024,302403125248,-137793699840,357059657728,-98619424768,459407654912,496936779776,801696907264,25544785920,-60468731904,790330736640,252307111936,288822460416,-474262503424,480651345920,791082893312,-96971948032,-125060268032,-200508997632,-255899697152,-403409731584,843940823040,198926188544,198571524096,202556555264,387883794432,-1654784786432,-561312759808,51819261952,692368113664,227538354176,188168650752,-622382284800,749313654784,1910938533888,-35769307136
-131586514944,-135589715968,-1313408286720,-624953786368,145591992320,484912332800,-303884075008,-1067085856768,-614871007232,56306040832,323163848704,-51765727232,-505038602240,1040825319424,-73015320576,-291743498240,-72923668480,118703775744,420793745408,-3669650046976,1916304490496,-3976933933056,242273665024,-376424005632,-171934449664,360041316352,363984617472,395065950208,561833836544,-223853281280,-195866574848,-5131089920,244770701312,-74279673856,182872604672,118177243136,38583816192,358375587840,189055991808,-818763399168,-560479666176,141044842496,201658073088,406378905600,208869326848,1940711145472,-28826519552,-83244359680,1149561995264,263088783360,-130876203008,-183415816192,201160310784,-261116706816,-2486369255424,186272481280,615069974528,339646447616,198603325440,-322717188096,-101966389248,-13890710528,660783759360,454616547328
-411317633024,255991939072,-290123087872,472667455488,92849266688,2276148117504,-1963715723264,-672717537280,206173683712,-55087034368,661827616768,1920900136960,-161809432576,304167813120,-433087381504,1383360626688,-790745186304,-47230025728,100459601920,2979237724160,-40364982272,860841902080,567963025408,-200606662656,1064805662720,1172455686144,333061488640,36074221568,447467388928,74948542464,-604582510592,-792871108608,-386570977280,206375321600,-226575990784,375499816960,535033446400,123177304064,-430553104384,154907148288,423300988928,-142112342016,112720019456,-721736695808,141175537664,695430283264,249639387136,-252227813376,1470840176640,-449710784512,274514919424,599707615232,271072477184,65032851456,-1033511763968,354205958144,-1080608358400,600056791040,39635628032,108816621568,521407234048,332422643712,-622652030976,-187612495872
329622650880,299674763264,1301870018560,236412583936,115012853760,-18460643328,77361053696,72920334336,-110795833344,135339442176,217861701632,59420319744,117246083072,160784203776,452840128512,-243402326016,-1567434342400,259476373504,-294248382464,-108868673536,-7416462336,-278431858688,551404437504,-21412335616,-100887535616,-351567478784,-442438483968,8914937856,-740079304704,-218450837504,-444046049280,234164551680,-104019492864,143751233536,-531903414272,-563663405056,-263269318656,-246919512064,-349866688512,-210853216256,-325057150976,159418712064,367815884800,66359959552,-257831419904,157026680832,-462316961792,-16019309568,26193195008,-96945201152,-324779933696,262712852480,-260156964864,119018717184,-507667316736,143783100416,-87073292288,-280412717056,-411498905600,640701956096,-2704744192,365022511104,117707538432,-77219061760
-2024766177280,275151912960,1335187341312,-306528780288,-851101483008,-4463525363712,-2624701071360,1180803792896,-327586938880,604540960768,-469485682688,-144685842432,-420455383040,-1628184248320,-690208833536,-1109028634624,317527621632,-176470605824,-470696001536,1707047649280,-357390417920,-244603813888,-1375735382016,1959700856832,230607437824,688785522688,-7173448704,886415163392,-61515988992,-2035414597632,-1081859702784,304920199168,688602284032,966396149760,426463723520,350346248192,-558762229760,-2270524866560,-1200936583168,-310749954048,449843462144,-441883197440,-802149040128,311853514752,443468677120,-7485342613504,-1958997131264,297660841984,-5577315450880,731839463424,191480053760,-246079717376,137417089024,750643707904,-22456178688,797627121664,-1976025481216,-207698771968,1289315942400,716108136448,171370463232,-159994036224,-440074698752,-1344652181504
-341397798912,31757223936,-1869119619072,-135471677440,-124969820160,1137809817600,-127185534976,266263281664,-67156254720,215734386688,562911969280,-318922588160,-475438841856,115159367680,-932936089600,38493810688,355858448384,-403519897600,-328440971264,1593836568576,981420277760,258146156544,-264227635200,241762910208,-186449575936,194306490368,136123645952,73990316032,-30841958400,-117125169152,-700347842560,325526519808,374375186432,-732390227968,93623566336,-379535327232,-96067616768,270821408768,-263155367936,-459875254272,272164732928,184944246784,-697316474880,64122904576,-44343779328,-161328611328,143388590080,498248515584,-204604866560,359983153152,-689146429440,1049952911360,-234764926976,-12952456192,22452033536,-571666333696,1287977697280,476078473216,180147126272,-17448495104,733317693440,535518511104,263333625856,-316926427136
-122078273536,382219714560,-133769560064,-62420799488,-270655389696,1966273462272,174220066816,-30093617152,341211971584,426339205120,-110479466496,-942972665856,-125884153856,242051760128,-235540774912,269796065280,-780903251968,-217138642944,307357286400,-2034873532416,1272654069760,-2029766180864,2051978297344,762633781248,176776495104,-800543670272,34191400960,196561502208,-282745962496,-601662816256,-500415987712,-254728323072,-82480152576,-494085439488,650113318912,-1211620917248,-64946573312,485754142720,27010832384,704755204096,-727514873856,11211889664,404733394944,-16534744064,-239140290560,1414088622080,-1032921481216,-192480280576,555792531456,-599779442688,-10978971648,183526555648,243164266496,54947655680,-718106656768,-623766732800,-405120516096,-245080637440,990798020608,328332378112,1130881744896,584801583104,129363263488,-305698242560
307628048384,239614164992,226218639360,131631185920,159326289920,-106595770368,-440580374528,-12321189888,-187208286208,75280982016,-358429622272,379907276800,1081318113280,-1631223939072,-384238551040,517093031936,393449504768,52944748544,245862219776,-210822316032,99653804032,-522575544320,-17307502592,89646063616,-275433062400,-184259919872,-148129103872,-483105013760,100951646208,-15078742016,960094601216,22811760640,-462795407360,-144000679936,-163266379776,-767939772416,387556638720,-276698169344,-310944628736,-22154756096,382065541120,-249761103872,-56574152704,422506135552,186599538688,-454714163200,-15309722624,411178336256,-2375306969088,-287629508608,-145997037568,201458728960,-319427084288,191930662912,1374188863488,269432422400,326659899392,-701801365504,131840835584,171778981888,98534752256,-505934708736,49865326592,485290311680
154595672064,6165950464,-91621761024,-141821427712,191427379200,492215631872,-82610462720,273909628928,-930911944704,-601143967744,549962842112,846001864704,714740924416,-955267612672,-167278755840,-376640667648,70305873920,-115691773952,295494320128,361794961408,-168481095680,99954483200,-755313344512,-100711309312,-213369241600,2921538304,195480272896,-943895674880,-350064541696,-803912744960,86626639872,395221630976,237592297472,728230985728,-104459730944,53511974912,50351861760,102528598016,211210387456,-31180249088,756335902720,-264861024256,-1231477800960,119152353280,-347483668480,-255722536960,122271432704,779166810112,151089872896,-692694286336,-511225331712,621132054528,-585525755904,851555909632,266086465536,-91161690112,305849696256,-185641828352,587329437696,37096394752,-170871013376,146078449664,152626102272,676698980352
-146624544768,113811234816,-1986823979008,94035419136,126579736576,689990860800,405980217344,458831167488,-160000000000,-34320920576,165542002688,-608166084608,-24164618240,495586148352,-845964902400,242211848192,206869381120,299847319552,-410780041216,-1332269023232,530613764096,588629344256,423090782208,506312654848,-777881911296,752702455808,178581192704,-188560637952,180270694400,-251118576,140873940992,-892750725120,-166333906944,222506188800,164221009920,-192559808512,298129817600,871991148544,-124450160640,654443151360,-100887789568,-254090297344,-230448676864,216269488128,-93822115840,491663884288,86276587520,-78387814400,-118742278144,-466158321664,-21210834944,-625655873536,-817324687360,55155675136,-969659711488,-338991316992,-23218671616,-282370899968,76346220544,-551160053760,-16701130752,1154493317120,387769434112,97072316416
275242221568,-310963961856,-768346423296,-142860730368,-126251163648,-756265536,111369224192,242566201344,242537463808,1016165433344,308960854016,-123906785280,-381663608832,-346260635648,-242502909952,-391254016000,-857823117312,-267646337024,374033448960,743039893504,1407273664512,-806772015104,1241349095424,460657885184,-361527967744,268670943232,1293311410176,358951518208,-499824164864,-489240920064,438937780224,65084174336,-176043524096,493793312768,96562003968,105663078400,-34917883904,555222630400,451555098624,-470299344896,1718196502528,-65571819520,728986746880,-164522983424,-107315208192,530132303872,-510840504320,82379382784,-1294279507968,-385767669760,-343614586880,-330324508672,285505880064,-1249484928,592664199168,719039430656,450132541440,-173656637440,242082594816,88534548480,-1656071258112,362899243008,303339339776,-1034936256
786715967488,349489430528,-1061175361536,94189084672,-49723695104,-92813819904,109125255168,141171081216,-652922688,2717105152,-83525926912,-125812170752,166362415104,-508582658048,-136803057664,195800236032,-197905612800,432404332544,700054568960,-67182952448,255858753536,158311890944,65530052608,-659148111872,-345963986944,-893472342016,-428697157632,154400505856,64527839232,633969180672,174527053824,-231141605376,-319349489664,22144864256,124840747008,213114077184,58361794560,-431779446784,151212802048,660718682112,410386333696,-68578127872,-92470411264,763544141824,78530191360,-205045596160,363205394432,111012511744,170821287936,285909745664,480091570176,-275066585088,-582215139328,-174955380736,-159437946880,488693235712,-671605063680,-427836604416,-336056745984,-79070461952,428974112768,-16248596480,-547425550336,35847884800
-435157893120,264315682816,-237507051520,-305353326592,-180705624064,48728346624,31838369792,112364240896,721220665344,-115695108096,-154949271552,-526822375424,492549505024,927515607040,433479385088,412726755328,27944122368,556989480960,883602030592,153489096704,264333934592,634202947584,519135625216,144281583616,91515445248,1102616330240,61094944768,507660533760,34551742464,-177611702272,485392220160,1150935891968,-233193930752,-26131318784,-1163082203136,165265686528,-168831827968,1514321346560,-33026101248,307527647232,34642604032,-492149276672,-174692106240,189422731264,349895819264,-473535053824,-9306585088,218143883264,269852295168,-572210479104,163580313600,-198697943040,223999836160,-675147743232,4592086016,-547655155712,-374216491008,66149117952,-198357237760,-306013044736,373015478272,-213158526976,519383449600,-593428611072
-546690433024,306773786624,-308211253248,-500691304448,-188999090176,-595997425664,-464061497344,-586154967040,-178145329152,371333627904,89187336192,205353615360,-560274538496,14097039360,-205791674368,-1639347257344,-458859184128,342392799232,657705926656,4532230160384,109651099648,-2894171136,476858875904,-172636504064,-10411293696,162421964800,-249501286400,-37477818368,-436254867456,169959145472,-768033685504,-540365258752,-129365499904,-162366078976,616169734144,47325626368,608643973120,14798792704,-1280976896,-449557626880,380418949120,164866785280,405580709888,-1001426911232,47844274176,1163843338240,207907340288,749764673536,-1199872409600,284063760384,220731310080,114439397376,641658912768,-16282647552,655000797184,12708007936,2768891281408,1296476667904,-56779558912,-152103518208,-127650725888,-383754567680,-18694203392,671738036224
-641649213440,67337895936,-656870998016,210155044864,-615175618560,206822440960,-66777985024,15152672768,751508717568,-521767944192,247518724096,143109980160,-449784512512,951389847552,427122491392,919619436544,374026174464,-6914614272,484050075648,-465308155904,-80906002432,1168954228736,878325792768,528708501504,-412606038016,790644981760,-515589341184,256476790784,-91111014400,-314617495552,187857747968,274277957632,-100079337472,200468119552,-30661142528,-250382499840,-339087360000,139613700096,647594311680,391254999040,-499573161984,69950152704,784084238336,-741943148544,122913505280,732192505856,-5014552576,-513790214144,10274959360,-56797392896,376618549248,-34614992896,-47780286464,-1054823612416,-257416658944,-1039304425472,-656581984256,-145489526784,150008233984,561004675072,-108738215936,-468199768064,-288274251776,-518953041920
-891910553600,68916559872,-2202803896320,1442903752704,4213323008,131433046016,533897248768,36842254336,214029991936,604663971840,62854443008,740539695104,-488540372992,-156389179392,281692307456,-276547665920,-58232422400,84231987200,-1053144645632,2004383170560,449279557632,516427186176,-113222680576,339946405888,651524767744,365105020928,-569437913088,-326554353664,206091386880,978154684416,-1211411857408,-1894654672896,67517046784,-679412039680,149888974848,20839534592,-338053595136,-707751182336,421095473152,-613931679744,-662594322432,-409615859712,158013390848,96872415232,-1029315821568,939528617984,502155313152,-1146929020928,-49507414016,-115211984896,221719494656,710204391424,1189157404672,477183082496,-262883704832,465078091776,-2730493214720,-576934707200,-1005614530560,-425421635584,-694943416320,577825013760,52934897664,429434929152
-1415867924480,-55137615872,-754322767872,-451922919424,77532274688,-405663055872,1103584296960,188501229568,230474842112,14262530048,-411764817920,-1301126447104,-21638651904,193292828672,759782113280,-441408094208,-101697011712,-155737309184,-18590738432,-448348979200,-246218014720,158001725440,438563536896,347339128832,441577603072,-1659064942592,252037611520,118768795648,280599298048,-577572700160,353043775488,-6213031424,469124546560,-169444212736,1074935300096,299314511872,-99319365632,679093993472,-85420597248,454605373440,-573987028992,-494782545920,-335275950080,464187359232,745558900736,260095311872,-418889072640,-185246416896,-276278050816,-194869149696,-31322169344,245420261376,-306827493376,545714929664,77290569728,-647604600832,445238575104,-618961305600,593562632192,436153679872,-952718393344,1026279669760,-716725092352,-275353927680
