-338637291520,324087250944,-38795223040,-234641719296,37360672768,-88567693312,-410785447936,-419074375680,177261854720,72976982016,349698916352,-285590487040,16605780992,10358168576,-35392950272,40184934400,-75561500672,-924259713024,-137648586752,-1246554112,357288214528,-97345167360,325417369600,78460272640,-32730327040,168020721664,10073611264,66467491840,-179325616128,-143299526656,-96238043136,-117664899072,-26096232448,-252673916928,-7345905152,-188824616960,-92720291840,96321830912,114724831232,35261734912,-100958347264,-169003909120,487695286272,205816496128,-103026794496,265999351808,336724852736,-57079590912,345234243584,44527218688,-56409337856,4863055872,12369335296,49374371840,216246190080,154929872896,356030316544,100404133888,-32281354240,-133480906752,-75419197440,79415394304,204971016192,-276422623232,-43249790976,-4934141440,70205390848,-192164741120,-35191615488,-71251820544,119246045184,143929409536,-14019209216,-187329658880,84199915520,52181319680,71112114176,-66387968000,-69510832128,-43008204800,-74446831616,-27502583808,4441590784,-128488939520,-120128384,-31663472640,25033445376,114171559936,14714722304,-86367272960,13432494080,91973410816,-34990997504,14780836864,116362821632,92199567360,39364247552,82929180672,-93789208576,-40256098304,-106963607552,122412097536,-42465673216,6825546752,-150210772992,-107847024640,65144356864,-143900901376,-108495355904,75692580864,18865262592,15389175808,64187858944,101316894720,-206001946624,-112132677632,-259835805696,169198829568,-63485267968,115154714624,124628910080,48857411584,74728488960,64349102080,-194609135616,66474434560,-22645798912,309337391104
26290354176,5834279424,-56907517952,-118650159104,-14798005248,229579669504,265208528896,-48379428864,-66350366720,-89445130240,-50955546624,88782741504,-45744742400,8472222208,222078255104,170439671808,629513584640,53226102784,-44181540864,404322516992,109657948160,141056442368,-286333435904,-321094483968,-550408028160,-221046046720,-72870838272,-210384683008,-248221253632,-128918978560,166288670720,-248971624448,-141968556032,323230597120,266864459776,-226579169280,-306873663488,-114735112192,-106053787648,-249068781568,-210390646784,-131646939136,-205886095360,523981619200,79285780480,-222424236032,-331020959744,-105800499200,233618145280,50889416704,-168602435584,425978167296,96065683456,39573938176,-640977600512,-150429941760,-109513326592,392528592896,-170277568512,229793546240,-91864358912,-28752957440,-135163731968,-85690687488,166837616640,161207681024,-224881901568,-21768353792,414109827072,-31127425024,100609728512,49043304448,173103497216,-118593101824,-76276834304,-8962842624,165879676928,-219520008192,-225981284352,-55599575040,-331010473984,17660190720,189482860544,6360296960,-38275190784,-49838780416,-179836436480,-10044871680,-110281629696,-242893127680,76487712768,-13996499968,-78612307968,197352800256,130983763968,-130155167744,21846460416,-369207705600,48335785984,-41208090624,344888344576,-5663602688,78205812736,-9990378496,-260250697728,-335067086848,-121603293184,116671692800,-118754091008,-132883456000,1482502784,133662474240,92353888256,-44566978560,335524757504,-381374791680,492039143424,-189274243072,-61390000128,-25497094144,146038652928,-53239447552,50274414592,110656282624,-127878578176,23223470080,-238332182528,214207119360
16144246784,82143535104,-361340764160,12764866560,90969325568,-146421383168,214956965888,-72320851968,276882587648,358130974720,-1674691712,968962867200,-271001436160,-64062099456,-290923675648,359580073984,-21686298624,108310503424,-172604489728,-49536069632,-203277910016,-168028684288,225528758272,453941886976,2046057512960,98325569536,305032658944,-156917317632,-229452120064,303152037888,-136179761152,103526678528,103263510528,39258374144,-11978242048,50369597440,-54212927488,-158425923584,63431663616,-299393122304,211678707712,-253243686912,-343621697536,-50947506176,-125690494976,-79208275968,-47776284672,-30152376320,102278356992,-193070186496,3416344064,-309809971200,-247870963712,108694396928,260102782976,58683416576,43572666368,-94925463552,-311135469568,44549603328,2754441216,60753383424,84379844608,-138060120064,-70483050496,116839849984,-11170569216,-108639485952,-244603846656,9294902272,53391622144,180386938880,21409267712,168725790720,47736246272,-36096139264,-145124835328,193169637376,-51323437056,62725206016,-73902014464,-141280837632,-285883793408,-5811365376,-32296019968,-82652790784,-20134586368,-8737912832,-45642260480,-30898227200,172242157568,-101662457856,-180549500928,163407577088,-100401577984,-356527800320,40099368960,-100069703680,3956562688,100804739072,2662204416,-39408377856,97535827968,-22602981376,93153968128,-61708304384,3432945408,-401958076416,-102532268032,-145940004864,-76370362368,-109837631488,-151394729984,129160953856,-147373621248,23935717376,-417215807488,-54848065536,-124565815296,15448338432,85255503872,-127392972800,-13824238592,-17821349888,57099616256,-12873940992,70566182912,-50687152128
-288365182976,407541022720,67995561984,-252224028672,26463500288,-252325658624,-109971259392,-457309257728,-20363186176,-268043272192,371461488640,-121367552000,139009966080,685091979264,-233196060672,-139460542464,-436027555840,34863149056,-60159414272,-267638620160,-98765217792,-127250636800,-124809199616,-109619052544,434130812928,132806295552,-14643780608,32617764864,-218643365888,-272223256576,-145031282688,-525079609344,120579883008,-294199787520,-53963284480,12456602624,209039966208,216201641984,331682775040,-141693632512,-212323680256,-303922216960,133774557184,-262034276352,38701645824,-115270877184,-55327928320,34177347584,-17610846208,18590179328,132300980224,-459928797184,203989745664,5795303424,526361559040,54939983872,70793699328,213068677120,-10758486016,-60169449472,-61586083840,-74231988224,41884884992,-236993806336,-189906075648,135545774080,-206272528384,-32635842560,36231593984,23316905984,-230986039296,70209609728,-264494907392,16175742976,-101086175232,-4109702144,15481527296,39992455168,169838493696,17315522560,-67519238144,123345256448,-188773056512,-65350021120,57802080256,83778224128,-18576050176,207680733184,-237722468352,76648873984,175267250176,19803238400,45259030528,18983198720,-189153280000,-12700394496,111885615104,-51678253056,-306115215360,63424757760,89732661248,99166904320,71778459648,106102988800,16648298496,265700098048,256645398528,100647288832,-74551508992,-71645970432,-26939856896,-170748100608,215942840320,311043751936,-178257346560,-7571910144,-61468012544,-67495165952,21183100928,109407657984,-85970223104,-209301700608,8477601792,-121751158784,305854480384,20641918976,221310156800,83433119744
24207792128,-454102908928,407461265408,223077941248,892726542336,519381909504,-21931993088,-255996674048,145278976000,293511102464,-357285429248,-485144133632,-66056921088,706606399488,298658365440,5271384064,591682076672,505012289536,917820473344,952005296128,132814200832,1009854644224,102053142528,284798189568,-829018079232,-437648588800,-1899682856960,157299589120,490570350592,-403600834560,435603800064,117841780736,-1195367333888,-284142960640,1102126645248,-272786849792,-554501931008,-145832132608,110374363136,720460972032,-252340076544,-98796355584,-359216906240,41900695552,635275378688,338957500416,285695344640,-94687379456,425680338944,-232828551168,1627334901760,-743430553600,312565170176,-100668440576,-353545256960,-2989525760,65758220288,681220833280,516859494400,309647769600,-507703427072,254463279104,-641571618816,393633726464,1446686752768,422092898304,313286262784,348742254592,-2763567398912,204637274112,-212852719616,-258202517504,-194674409472,49593925632,413517414400,212944568320,589021511680,355994763264,66380115968,96867868672,-222354980864,497640734720,770425749504,187043397632,-81127407616,143665102848,-176143745024,820301529088,137154707456,117472681984,-183894441984,-14287156224,342683254784,149083668480,56384352256,-61703835648,760598822912,83348832256,-508914401280,-225221197824,231018479616,-239570796544,177798316032,149231091712,84262469632,-387259498496,579135864832,-224628129792,-138036248576,292764942336,386279636992,112661979136,-529637048320,1259294556160,-302182760448,-129453318144,-31822194688,-196959911936,244751958016,121701818368,418051522560,49694908416,333616381952,348348481536,-120966897664,67469271040,337074061312,895819328
266793156608,316243804160,405549973504,-682975297536,-136448606208,923364288,-96085483520,-25024614400,-470765305856,868894048256,-139122933760,410506592256,69019885568,207931899904,341004484608,-190644387840,571579695104,108153200640,123301036032,-218631258112,666942111744,1102818574336,-168567128064,4368051208192,-284806578176,-141342277632,20674054144,180144734208,48728129536,139367055360,-173416366080,408357109760,145075322880,-1238274801664,491003936768,-155705901056,-631495655424,-110833025024,-11212653568,-235941314560,-323991699456,-126032486400,62957309952,-200517910528,597000519680,-2359114496,130695004160,843315478528,-219292909568,40654422016,396089131008,-367497838592,134660734976,585202597888,1536996671488,-82022375424,30680969216,451809509376,143706652672,304530948096,416400932864,-341909504000,424337670144,503181836288,-9564774400,34050312192,4166946390016,740709629952,-470709174272,27487449088,-158626578432,1030793789440,132487856128,143482011648,-68922892288,-120073347072,251090796544,365462585344,353312014336,-145293770752,73799475200,177155686400,76060647424,775843741696,-274248892416,205604782080,744302379008,329533358080,-94532616192,954933837824,-2099980800,-424338030592,445168910336,126285463552,3244350720,-52709302272,-182856826880,-236587646976,269684359168,-213734670336,-78897840128,198363348992,345194397696,-132555128832,198800441344,114601648128,-54502391808,-1131421824,-35644428288,-120513560576,181667119104,-37125955584,-111384027136,-305164255232,487763705856,-681657434112,-1290332930048,-474327842816,-18898614272,74442096640,230571606016,-155923693568,-381068574720,-234563338240,-164630462464,154807418880,83259850752,183458381824
327424704512,-657394237440,-959088033792,-592518643712,-118617219072,-1144239423488,990507958272,-401067180032,644541382656,316812722176,-508780052480,-488257683456,-1502687264768,1610201956352,1303474733056,155995963392,918655139840,46028906496,536500797440,215667539968,-1880297308160,634307215360,-376337465344,-39702417408,-1530852409344,346350878720,-1546351935488,154139099136,-1219788013568,-772177920000,194068381696,146705350656,-515047358464,-91717713920,-1781741780992,1058985869312,1431182770176,-989160931328,2073867452416,-446073995264,1426758172672,1498347077632,466567823360,-726689841152,117216952320,-1146651017216,-659447480320,-64333025280,-403809566720,-1398359588864,-2483178700800,767798935552,188685402112,195932717056,741900943360,133136916480,583044104192,-374675898368,-1252778967040,-635254407168,-1182945902592,-802131804160,436550074368,48558829568,321133314048,354936881152,744519499776,146165972992,-108257329152,-689032265728,-170357669888,592207544320,-289223376896,-25907730432,-216262279168,13765590016,101947588608,166254297088,-1048487919616,665453068288,66985877504,249038700544,998552829952,240108863488,-1474427617280,384811696128,72924028928,-438660104192,-144474849280,-146264915968,474433323008,-698187448320,-142307016704,75610734592,69754396672,76441018368,-645216600064,39470419968,-1574023856128,154343587840,-325063802880,-175092973568,317369843712,-781352763392,198687981568,835274473472,68559192064,936762081280,-415098667008,-375212965888,-373460926464,338362138624,1747912097792,192671268864,199284031488,1504701448192,121112027136,-1369795461120,194394931200,58665467904,-647180058624,903167148032,-1169058430976,-2587612413952,-1161014280192,307423379456,964943872000,-801166458880
637259939840,-1106900418560,672977321984,441678757888,-944597499904,461389627392,648581677056,49578622976,-287852920832,339092897792,-263167115264,902543835136,168106524672,173506592768,213248360448,-28828930048,187351646208,517822021632,388441210880,178575015936,23141494784,665503399936,304669687808,319467651072,894659723264,1155353411584,-62847152128,263639465984,55275614208,-719325429760,631407312896,976964943872,-438232678400,786122735616,479276269568,-379574026240,1815163961344,760986599424,713004023808,248464162816,188228239360,186225655808,436570488832,291920642048,517830803456,875290361856,-1136274309120,156223832064,424914386944,294181568512,-302544650240,808809725952,201459564544,1276189474816,2283945328640,-972927008768,-690361466880,669518397440,474022445056,-109282697216,-424661549056,-29772384256,-625471520768,-161040416768,1560173608960,48041373696,147459407872,296461598720,-1692357230592,165463883776,-415535792128,151886004224,-159345246208,12102387712,-804895195136,258225242112,324113137664,26037389312,500873756672,130872631296,-25641461760,848140566528,-1548127305728,675195912192,176856530944,170675404800,96435486720,512130482176,131093168128,-34201864192,132406329344,163234594816,304685121536,-34471026688,-52070203392,88405073920,319327895552,-227209723904,-1175846649856,32224661504,-198935920640,299638980608,24225757184,181244805120,-507609186304,36533346304,682989518848,1017921404928,-331278352384,573698670592,585891250176,-60953325568,-1623303520256,-690011766784,-183837310976,-871648657408,-1895566802944,-428299124736,513566605312,819405914112,-15556911104,-9513230336,585382035456,934630653952,493022445568,281790316544,1771688689664,-239355215872
251925037056,6030464000,31178446848,217015009280,187121516544,322775318528,179489816576,446446305280,244833288192,120966299648,52548583424,-817387143168,-13760086016,1163836522496,231724843008,60438781952,-70397689856,332020350976,663968808960,251269971968,140948324352,572111388672,-272558587904,-15214601216,-273756569600,280769921024,-80021643264,-237218496512,404344700928,236073025536,288364363776,-137737879552,-131444908032,-844969345024,-43264770048,34778972160,76470165504,1264668114944,140718358528,-395160158208,-113425924096,303234809856,-603591606272,-38330191872,534153003008,-127225782272,623157575680,161766375424,-279123099648,96904929280,500165738496,-38765441024,381534240768,403945750528,547698802688,633002131456,-151334879232,275824672768,99579125760,325009768448,-246706814976,398705426432,-9938399232,898980773888,-51323215872,712256716800,111005908992,158578098176,676550410240,134914351104,-365565968384,176370352128,194184790016,148275986432,-295002341376,284998631424,366407614464,10902927360,317405462528,-1958212864,-170830872576,198632341504,105371041792,510084382720,213610889216,-14726462464,7213753856,627344867328,212818460672,-82295635968,223925010432,-78680915968,63117955072,194994159616,50920194048,-45855793152,-137786540032,-308979433472,238224310272,-106144104448,252358475776,-188277243904,302305902592,-164632510464,213654421504,-135328595968,-25170726912,-391369687040,162077687808,827293040640,148617674752,-43828858880,10408331264,334642675712,-1050858618880,60920893440,-2173070868480,-460485656576,-160809369600,-173216333824,136540577792,-196037656576,-402284773376,-90879229952,-816498343936,-182328229888,172975947776,228970168320
571692154880,17280018432,271519268864,556091441152,176878174208,162166095872,35869884416,296442855424,159069028352,323806068736,-41783414784,71199137792,177840799744,-238298349568,168309063680,253864460288,62873690112,-43099676672,675549675520,412763521024,499863420928,569951387648,-825750978560,123876179968,30559285248,-206065811456,127658622976,467533299712,214970384384,103189643264,215624138752,241792958464,-3477715456,35683745792,152262803456,-1781661824,-179184025600,82516713472,37902770176,35479433216,-47826792448,-133366816768,647140343808,177925767168,432409280512,851740065792,278465347584,252540944384,187913846784,-18636173312,-121063112704,-65165856768,331792023552,461927415808,-50142232576,-410250870784,133441363968,482609561600,-33365968896,222223876096,182494740480,-14696276992,-175852535808,120461819904,55636000768,617085796352,-392764555264,-63072182272,-18306942976,302004928512,-62937833472,90581237760,295019282432,72596193280,-303884271616,144709779456,462602174464,274767740928,374199189504,49496002560,-115336601600,-120118067200,60093644800,521494429696,28708079616,294763593728,-185416351744,138476863488,289075888128,-73902915584,136472592384,115133816832,143533752320,134108405760,-76632932352,146660900864,148743847936,-123732410368,26868441088,-52006121472,162198175744,-123958468608,280665489408,115643326464,349350461440,45465583616,229413683200,-98050056192,37283635200,62803292160,-34560565248,93296975872,-154920992768,92869132288,-251110670336,52597747712,-341677408256,-95491907584,-62655144,-198891192320,91826839552,-75322777600,-104632705024,-113630699520,70387171328,-114819350528,221012983808,297389129728
-229023481856,-322131558400,46181482496,452786225152,-502999252992,19843364864,-85151940608,-211442188288,-186023559168,-1725926342656,49826033664,676525113344,-547570417664,-369254924288,-336085909504,252191113216,-521645490176,333545013248,468175585280,1098702323712,429567180800,-14956103680,-48843460608,-5304194957312,-2058422190080,-197438160896,-601213763584,-387197927424,113235804160,1067910627328,247874830336,-81766383616,129322311680,-26132242432,99026886656,111222104064,996664803328,-169464528896,-87166918656,-149088059392,332279152640,265017671680,-176529375232,-1020907225088,-25131014144,-100292878336,-112186327040,-566945710080,-339395248128,-105941704704,-346696810496,136105746432,349023600640,26404118528,-268782436352,41271619584,62358253568,690151751680,-109418864640,-97210769408,-3036985688064,-149391671296,-91045257216,-213829533696,137230082048,-28498714624,-638096506880,-332325257216,1939179569152,-104383094784,-464768466944,748086820864,245049720832,150255009792,-232948629504,207916007424,656796155904,400486629376,-22380963840,-230394413056,-129800413184,-234350526464,-168091959296,-60915867648,-268129714176,28405479424,-20787548160,-457917628416,335555428352,434401509376,51825053696,410742128640,-257239203840,-17161108480,-763862253568,790772252672,-48141524992,453059149824,2090724096,83610771456,156974235648,-537639354368,-85120016384,-173589725184,-18215360512,-203364794368,-131783573504,-133865562112,-52142047232,9125555200,-385701937152,737472610304,370627870720,3690085632,251858026496,-277140504576,267502944256,182353166336,-205062438912,-763184021504,-185384419328,83625238528,-159943196672,-684937248768,685528842240,-136760557568,-1553294336,-947872006144
-292892114944,-233440395264,187938308096,-861667983360,-707450961920,1044512571392,-358079561728,191913476096,-1451279122432,-502238543872,-146584403968,262574882816,647433158656,62132416512,-430158970880,-889929662464,15798196224,181972205568,13691811840,567838375936,410565017600,457531686912,-115851042816,183753818112,514097971200,-1092328292352,-1681132355584,83479330816,486239338496,-205281050624,440712921088,-97450418176,-1590496460800,-248552931328,-341021458432,-1894618365952,108691447808,-47287443456,28338958336,58166353920,1478237093888,-1909274574848,-514596306944,-917793669120,92039700480,225605779456,538591100928,848890167296,876737855488,-334482178048,-106338959360,-240040329216,876729335808,183112859648,-298860675072,-467994050560,34105851904,994641248256,232452603904,-436887355392,-2023296335872,-364011225088,-1794786983936,357752438784,4580577280,-207604842496,500787609600,518989709312,-466237423616,355047047168,-95611076608,-521228648448,106209886208,-695637573632,788763705344,-380117188608,377178030080,-329616818176,-156608970752,-179929563136,457036660736,357566054400,1065265332224,470889496576,212767391744,3826978816,-514848653312,-235955617792,-95852724224,32006928384,-425552412672,427886280704,-12599864320,-332691636224,435498844160,1323588386816,600391876608,-144054665216,-275526615040,-446510104576,662777626624,-583458160640,493421461504,30487977984,-217523732480,143580839936,-84716961792,346807369728,276062109696,1052792913920,1303484039168,-108145860608,-38606192640,-299061116928,73365168128,185013420032,-520638988288,485396185088,16204354560,-180822474752,-260895047680,-214637035520,34915684352,33419257856,55266172928,319398510592,-304249110528,292531437568
208497754112,-22949879808,379667120128,-1683898630144,-1470231478272,-466287198208,-648249933824,-243775586304,1088417431552,-800061521920,185481560064,-28360540160,701871620096,490377117696,-702267457536,-460746752000,221337092096,265677307904,-902138167296,-1360754900992,-209943429120,-1823504072704,359817707520,-695860199424,-919489413120,-159782305792,-73114910720,580316758016,-337326571520,246958538752,-177262690304,-61044740096,-339008651264,739405725696,-810290249728,-205766606848,1590586376192,755038683136,-683049091072,-306143625216,-132691722240,-37212880896,334576091136,-58751528960,-1178175143936,337979015168,247264329728,576487948288,-241809326080,-241248796672,-269368066048,-125650886656,286512742400,-49541672960,-1558013018112,111377457152,36320550912,-16479485952,-184977489920,-523124342784,-257108901888,-107581980672,-348545908736,57930559488,-316410724352,-811714084864,145061347328,607618400256,163159785472,477270147072,114311544832,57186111488,-325381619712,-518077579264,13159519232,-913534550016,-1118783143936,-909490847744,-164704141312,-216184635392,-136370077696,-263558823936,287702188032,-68963024896,-397371277312,303303196672,-272508665856,283409481728,-109755400192,332115509248,-450080079872,74517602304,349120200704,11108271104,244133838848,182150955008,-742852788224,320737443840,72642592768,165980160000,147118227456,462362312704,80656736256,136143355904,-828842442752,432219783168,-117335138304,-288380977152,127621660672,267213684736,328237023232,372660207616,92446138368,-379260993536,-57127559168,-489474097152,124366053376,-192308658176,-24087556096,892440870912,-53909676032,140129566720,-491494572032,-87753236480,66799312896,445489053696,-425063284736,353877917696
-220486615040,587939905536,-485651808256,229388238848,-10754130944,74539802624,293351391232,91543109632,-120000987136,341442625536,507088338944,-183743660032,-62843133952,-279494033408,156187213824,-398733967360,-68328759296,1423513485312,236179210240,276908507136,-257226326016,590548369408,-572228763648,355951214592,409594560512,157511368704,31633522688,353006485504,2520137472,302723235840,38535303168,-9741910016,46146564096,-715499372544,-274622234624,-231994490880,90667638784,-9207842816,-159928958976,-10207446016,287961972736,56809521152,-517350522880,-313967247360,315267186688,-29645234176,-284262367232,-77316571136,-725776400384,-665134366720,278280503296,86867951616,-206618509312,1267849756672,365827227648,216446959616,385810104320,155309096960,77731930112,-394240819200,-237880541184,9775184896,52930379776,-478377508864,-145859411968,-477381328896,-11794060288,829579657216,-1245387292672,-166913671168,-636069019648,209094688768,-1377332363264,101302272000,134310797312,-136618205184,-197030772736,110468374528,-305605738496,19181350912,422612893696,-446068523008,-45488181248,-99543810048,-21297936384,-371745423360,274987581440,491839062016,-1051287879680,-295091175424,-671272927232,-361787981824,-64968429568,-653352894464,59607707648,556994658304,-89346424832,194570780672,-49633050624,1118703714304,-395501436928,-40641613824,-101413666816,108500443136,-1480540946432,-1511696498688,20061657088,1686861250560,-245699248128,-293464834048,-155481669632,-115173457920,98638585856,-320667648000,-582501793792,211425116160,499428229120,-247243980800,-303891808256,204330778624,-136146993152,272406904832,433914118144,227065659392,-413687676928,304942579712,53105000448,-1525462990848
406065577984,-105952387072,-383246696448,556913393664,317665968128,-291555016704,-270908669952,17214638080,-523155734528,462267351040,382957715456,858447806464,398641856512,722994528256,21462036480,-75067990016,-726389489664,-253480763392,-380161556480,-525103857664,-89323298816,-295570767872,212173045760,40909963264,-1407681822720,-801701298176,-504614584320,-190887723008,29797883904,334438268928,136487870464,-110618902528,658812108800,68039798784,-718311653376,969120808960,-385993375744,247193157632,-704766476288,865458048,332658606080,425061154816,282737672192,-815521136640,-240498769920,-28494804992,67521769472,-973058146304,-199237320704,238752104448,6395360256,555229315072,-64225402880,746235363328,-341805891584,583118094336,-165656035328,-174431010816,70425853952,-265247571968,-812731793408,542553866240,-383464079360,610158379008,-175135539200,-559229632512,95758442496,-105995624448,1024451477504,217798606848,-322755231744,-1472588939264,-1577490972672,-115065266176,863305465856,-206596046848,-275642777600,-796653518848,313342263296,-344477827072,-325520293888,312345493504,810191749120,-137260957696,438515040256,257055965184,-640321257472,65902071808,160962871296,-206371618816,198574161920,196410097664,-345109594112,-21921443840,489562603520,987483078656,540425420800,-194866495488,-64277856256,-9557332992,477271851008,294288392192,-193045282816,-93234724864,-321823932416,832035487744,-317184704512,-165146132480,-428751650816,-121515663360,-63204687872,206293778432,-446825758720,11671590912,-166037651456,-543149621248,-250729398272,-43071913984,-44640305152,-164263051264,182784065536,-66586025984,739979624448,424377679872,68013367296,-32462553088,-346196803584,764931735552
42087985152,-130410504192,-254789828608,1377712209920,126522843136,-316057714688,290154840064,93455777792,193891876864,-402704596992,-84603338752,-129854291968,-234612965376,-449167785984,-1621730656256,-271743008768,632316362752,625682087936,270855553024,290790735872,880346464256,-10954046464,-139484053504,-1047640408064,-178653396992,1991200997376,-203684446208,-108264685568,-360177336320,-100854611968,-69959663616,133906923520,-254755848192,526891941888,165095161856,-355375546368,720312795136,53094354944,666846494720,-204901548032,-337080975360,-323283419136,-227025125376,326418857984,31315030016,-331018141696,-16763585536,-254765563904,41050771456,-245678522368,790651994112,367437021184,-110413127680,-53169344512,-1110197141504,-101905743872,97075503104,-471057006592,155849293824,-101388681216,315848392704,71777984512,-1073103634432,-724949729280,246226812928,188008808448,-466409455616,-217237798912,302607106048,-366327398400,377585958912,1101180829696,798955012096,369671012352,-182007169024,-48902111232,227238428672,560644292608,236562087936,-124575498240,-276539736064,-319875809280,-76750290944,133441314816,-162629156864,89776488448,-26668906496,-338785239040,-316133441536,240443850752,-26133444608,250219184128,-203484577792,-191754338304,-691489931264,-192497369088,-122358005760,18084907008,-92925116416,258065121280,-254760599552,-297603301376,-60339687424,-741768384,50595143680,50496425984,14438740992,103995310080,-143776448512,-349408395264,-397287620608,481961279488,655964831744,160241827840,231272398848,-366866563072,181113847808,1033602203648,-34607546368,-255289065472,-150173335552,335521644544,34344968192,-791169007616,334539030528,-311490510848,253629022208,1408725286912
229844975616,-484968366080,-47308718080,806761988096,-349408395264,1059959734272,353028603904,980778418176,-80869810176,-1101787824128,-101430706176,115521724416,146613633024,-274762432512,792835981312,-1161388228608,493378961408,-204789497856,236269109248,528731013120,-153960038400,570174078976,721784537088,-638962434048,544438976512,37255098368,-1057599848448,-654047576064,-88964775936,-303317057536,123606073344,39776284672,92275646464,-198272581632,-304656613376,-537911361536,432811147264,177584816128,149020606464,247445094400,-258174074880,31153903616,-158155227136,337490214912,1068538527744,-440247877632,-180291747840,574145822720,-507245985792,-49759150080,1094069256192,1054507401216,526040793088,154849804288,430010466304,272197976064,299996282880,267015815168,449991507968,285848240128,258671362048,-228124409856,376972869632,-123946303488,74988371968,330870128640,-334339538944,288199999488,6207489536,19670151168,-403876675584,230667714560,108647989248,38260350976,35043635200,61984600064,75594792960,133735489536,6814002688,-40894550016,-44490706944,-551933706240,1553052991488,-149791506432,272254746624,337051779072,10344962048,145415766016,201280684032,331092164608,298270851072,-219562999808,-136003969024,744455471104,378251771904,762962182144,73919995904,16667994112,85862293504,114624339968,-323228663808,142357741568,96588013568,262021906432,395852480512,-6018037760,-384409436160,1379497279488,308833386496,336483647488,9234410496,-1157807341568,732616392704,139741282304,-648172011520,-161269235712,-126215741440,-902524895232,-50943291392,102268051456,252330459136,302831140864,-658439995392,54271643648,41790066688,191087738880,178234032128,-56096047104
-278770548736,183323230208,306177409024,-196940070912,-49067732992,665006374912,396579110912,516007428096,-209665130496,-106676371456,-612693770240,499707510784,-207893037056,-65346830336,441663422464,-866620604416,-304933928960,315407433728,-7161404416,468927479808,1628274950144,300729073664,-1528927485952,-147676643328,1101138624512,-1032607825920,-1409522991104,-125494673408,-227935649792,-748742639616,-27600521216,-367786000384,-876986826752,-265018032128,-414648795136,-931039412224,284966977536,-544130891776,471916838912,-176820109312,-608087441408,-2042445824000,-64996712448,-150551674880,962489155584,418951692288,806579470336,-1008427532288,371496255488,-588919668736,1203629981696,-24843952128,740843126784,327397146624,-195021570048,-541227778048,184822595584,-178037882880,255432818688,46555947008,-906069213184,217533743104,197305647104,1133469761536,-14460321792,1688368316416,-2392156798976,507232911360,-376427610112,122048978944,-500458356736,148123385856,-502931947520,456035893248,1870276853760,-252392407040,-344082710528,-83158532096,-437918400512,320801439744,21411926016,168659501056,1759530844160,-854243016704,-210883362816,-258998272000,473580929024,-156029009920,-272036003840,119129341952,-428124045312,225256144896,-167107624960,-781723893760,369319673856,817402150912,2779378876416,-296958525440,-112412893184,216332320768,559419686912,-382575411200,-72140980224,177016176640,-723797082112,72718368768,210425561088,158612586496,-162907586560,-992529678336,81876951040,344570888192,13527291904,56368005120,847750037504,-227173515264,207027322880,536921014272,-104998854656,-452687757312,368099033088,662582722560,18645927936,178903318528,-225007812608,317834231808,-169332195328,-668769452032
474289537024,-248215863296,121608003584,-394002366464,-1386646339584,173281755136,-586760388608,-133971656704,-671574196224,-493885128704,155643707392,400946757632,303941746688,409110249472,283086258176,-733513252864,26143479808,-156367699968,311287578624,-471374331904,-229804949504,19109810176,74478206976,-250140573696,-722904940544,-379539193856,-161915305984,10758136832,-100869767168,19266469888,249276530688,53691006976,195509714944,25382443008,-22951284736,133437161472,608633094144,326234308608,-502088826880,-92147695616,-168794472448,78880358400,849034149888,-425315598336,193652555776,963108208640,-250615136256,185341935616,14548242432,329678258176,-401895620608,-155813740544,132944691200,504062541824,-106852261888,-70193143808,-15961360384,200703754240,138012800,450753953792,-393813426176,-236396396544,57538293760,-76495380480,101587017728,487428128768,977444143104,175430123520,545671544832,373752397824,-329959407616,470964338688,497253842944,-572223258624,-861582131200,37187342336,34693545984,-90621116416,135368237056,9185203200,-188659367936,-2212551983104,141955907584,1005496893440,3516258816,1250474721280,97891958784,-104155856896,1340814917632,264133050368,252742582272,619069571072,402820104192,418444476416,-59090739200,78511161344,-376515756032,-178802229248,388382064640,95297363968,-199809810432,85258125312,136251170816,-58170028032,247874355200,71234404352,-315167342592,-573434101760,498444992512,984808423424,-38853787648,-333132660736,24559806464,-321885634560,-421092786176,-125145792512,886968221696,-234411966464,194398142464,-41484181504,-765924081664,56559681536,-563602128896,-139595186176,744409792512,-352655605760,-188503015424,901207883776
364768428032,-7220395520,184722522112,384879296512,218100989952,131992395776,-219860910080,266953048064,-718125006848,-114958548992,-21110890496,-195051208704,-326635257856,-284192866304,-132639514624,-87837696000,106079952896,-218358579200,-131214213120,88136458240,-265353707520,91965562880,-708154556416,238891401216,-30530043904,323679027200,35593342976,-735033163776,-160706707456,338413420544,45076832256,939181539328,-131034931200,-479136677888,-375184392192,-340114112512,102210412544,-577691254784,152068145152,226989293568,233875324928,-96052641792,174744879104,355277701120,-71018921984,692130152448,-97647009792,-350760828928,167275937792,-423143538688,58213339136,-154897039360,220202795008,205306740736,207070265344,-231512260608,-8958788608,33601359872,407575887872,-641107886080,-228038443008,63933423616,39999242240,-325496668160,135307059200,150780280832,-510874419200,183727079424,-118517637120,-502647455744,-423168606208,43559362560,-452434231296,167343030272,-40131604480,290837463040,72635940864,-293174640640,-468710621184,-197283627008,-213678637056,-40189272064,113925767168,-1080655347712,-454619004928,-839174586368,68168593408,-274950553600,273806688256,-136058372096,10875844608,2687028480,-836711546880,-222917591040,345181159424,795236302848,548684660736,501355708416,19412164608,349460660224,-335834480640,-400467296256,-441801998336,-222052155392,-385790476288,226566144000,-395994464256,175128084480,-36155453440,-881903730688,-166986088448,154138624000,-3066430208,90184441856,-471358013440,-248281104384,180448854016,122894516224,-263608188928,-75542962176,-91180244992,727190208512,-222556913664,126685061120,-684618350592,289938178048,-344984289280,-159297142784
680508981248,135419871232,272144154624,692929888256,607753207808,-91030478848,-866345025536,-330094673920,469062615040,-429687832576,621615513600,-420466982912,-517204836352,269286555648,-309162082304,-277443313664,349919248384,-687092793344,-687213314048,359974502400,-70012878848,40326926336,478396940288,2014926340096,-224929251328,-1407220580352,634218545152,469338488832,-68064849920,289591033856,-827115700224,-936814641152,-1255929413632,1574548406272,122772865024,-186113671168,-42679087104,-140171051008,752752001024,593312022528,-653009092608,-415160205312,-108477849600,170632871936,230203310080,-313019432960,273470586880,28347049984,666254704640,95696551936,80763043840,-196969414656,594905268224,-786890948608,-520259796992,871088979968,-570970603520,-1528461184,902629097472,-230940835840,1411713597440,313900072960,248912642048,119010000896,-587652399104,-89256960000,482088026112,-291029090304,-1525519613952,-392253767680,70918553600,808910454784,-1551199502336,-240850960384,1162210312192,-7799156736,-893825712128,551342047232,39076331520,179009355776,396977438720,-814288142336,302126301184,-596507426816,-579956703232,556598624256,847769894912,-99537281024,807098843136,-16890454016,-642073034752,219030618112,557836861440,-745960636416,367174909952,-478273863680,-332409274368,176674308096,586387226624,-10196040704,-1328535044096,-214330523648,202858299392,-262709149696,-1577082945536,-792389419008,-479110004736,882877726720,-336197943296,-33733199872,399385591808,1182024073216,557086277632,298382819328,-105822560256,644243849216,-848771809280,17069672448,-507675181056,132419657728,138471964672,-344955289600,-225187938304,1712959782912,218297368576,234845896704,-340908802048,-149042921472
408786894848,29017237504,-142097252352,232685551616,550974062592,684261310464,127912108032,-85121122304,348915990528,191065030656,-593358290944,90287603712,-49824288768,304807837696,188108849152,-40635019264,617235611648,185836470272,458521411584,43888033792,207749545984,-45152555008,22482757632,132135723008,145758404608,-255810338816,-145295785984,-1366317203456,386219212800,-287407177728,563432128512,295928430592,-194946416640,314053132288,295773077504,125827153920,-175467921408,-399276343296,-223439618048,20485519360,474049675264,-581821661184,-243519488000,138298032128,233648947200,676775067648,-357700632576,685988839424,1153748566016,-25638096896,-699295399936,442036813824,-113718616064,-67328262144,204980092928,-888470896640,24913920000,379250016256,10502679552,-405321613312,564970717184,561471356928,427383980032,353791311872,-144939909120,250990903296,-9713644544,-686684438528,-1220604723200,-300031803392,-354451095552,-392627322880,68093960192,-447182864384,493130678272,158120984576,-658113298432,6230421504,-649689956352,597420146688,71600381952,-80847388672,-477258416128,-585966813184,-36797415424,-695034970112,-702572593152,-264522039296,474322075648,-284412674048,78435246080,-233570254848,-252419850240,91191132160,-486359990272,169562324992,490187325440,891560263680,-409074892800,198523961344,200591835136,85096120320,-785492934656,-539965456384,-351955091456,339631013888,426330849280,584479473664,-78499315712,-28138135552,-514769223680,177556242432,-263806976000,115969679360,342444376064,299525111808,-774514147328,577431076864,-88920121344,48521519104,137876406272,360214528000,-190452236288,54409728000,-328002764800,-130057773056,-233632235520,-324428726272
146783436800,152389615616,295416201216,-260101308416,108396142592,-80458964992,61970034688,-100402462720,-173212975104,-3097520242688,-198164594688,-666600341504,51190009856,-122479108096,-300477644800,-7443316736,-172333793280,80394887168,-211709034496,-202978541568,-96500768768,-341313454080,-418450636800,1894218203136,-3056798269440,-73278324736,620862767104,-299886444544,-31845881856,116105797632,-175078817792,-536032870400,-292999856128,174370553856,124665987072,-27276048384,-739417849856,-60324941824,-116920958976,-188315795456,183676485632,-189013032960,-198008225792,234836918272,-414412800000,190731370496,-19696148480,294426836992,-355609575424,-315948630016,-737755136000,-225124728832,226686140416,-426115268608,367513272320,-497627463680,-56506859520,48335974400,-185126338560,144949313536,14104406016,-508311240704,-39199477760,255604408320,-204242731008,-409600360448,-241712496640,-1137077649408,1107806126080,-230572802048,447558909952,474376994816,-264170717184,-345596657664,121348898816,116383629312,-46684508160,37931896832,-35508654080,83941408768,35295182848,-1083363950592,-676314152960,144005103616,273013948416,-340427505664,-505510002688,-189332602880,-299998052352,-156542287872,-231403651072,266052468736,-647549485056,-335596814336,132172283904,505025265664,-549048516608,323496312832,13542620160,359121354752,-539699904512,54394802176,-130081193984,-251008712704,399350824960,313423659008,-141640105984,194418278400,57381752832,-118488227840,-432472850432,791963566080,-1038948499456,-40732024832,-950774005760,365264797696,100869300224,375436967936,-597216985088,-120252915712,7370679296,-88877867008,-346167246848,57279164416,70092185600,44293890048,-98936406016,-57843752960
-629116895232,442574635008,-244176076800,-74790633472,-157334765568,-220985753600,-732442460160,-235297308672,-1656311382016,-182455451648,71954391040,77857275904,-255285362688,-49915219968,-204936036352,-203348328448,-358693371904,-315420114944,-499410665472,-93250445312,-518275366912,-633305366528,945419059200,134666960896,48012926976,268629917696,-122619822080,-1503591923712,-18196996096,62402121728,-188494299136,-7946722816,218307198976,-376277434368,-82883371008,-11245059072,192004636672,-5359868416,204700401664,-423811940352,47050316,76519809024,108849168384,207159640064,-476297822208,26343331840,409808797696,-141659717632,-638655201280,-79134932992,-156779413504,54682390528,-126903713792,-57761968128,433057890304,-156110880768,143059877888,-148905246720,22451888128,-92667830272,-44579549184,1015555293184,74865008640,-511632048128,-116467441664,-518553927680,-114589310976,-85182349312,-326733692928,-23296376832,-10329290752,-206789345280,-67043753984,-107039227904,159441666048,17243174912,-249240879104,-123267416064,-60634361856,-85717155840,224578273280,-266784997376,-249335775232,-637949575168,-28878465024,-8425861120,244644724736,-213213184000,-137395757056,-178326355968,-211628408832,-94861205504,-82607833088,-136285011968,593047744,1339193216,-155129430016,-213829746688,-141406633984,178265407488,-13322998784,148743258112,-198817398784,33282807808,-86962012160,70148923392,-218582417408,448258998272,-188308439040,-324309942272,-134784942080,-24577810432,7313348608,-247912087552,42480275456,-57497718784,136969199616,241004658688,-106386644992,76201787392,174349598720,-38893178880,127795126272,-51637350400,-410657259520,201721151488,-246877667328,58260045824
349121314816,-70986498048,335077933056,284471984128,-437630599168,435773145088,105178963968,-267598184448,-541820911616,-146550800384,-106454253568,517192581120,454670483456,-240444866560,214241689600,-411792310272,83776323584,117591629824,293853429760,97244725248,264957411328,300476268544,236596166656,-210174246912,553100181504,-242082004992,-463296692224,727178215424,149902508032,-351329288192,456204648448,-144924049408,117218181120,286850416640,231608877056,-196255924224,589389758464,589326974976,234514022400,92140191744,-297816686592,95625289728,477049585664,-65009917952,500155383808,-21433241600,528133816320,126716657664,349508075520,273858428928,361859809280,285518004224,301751795712,-378163527680,-252260417536,143073378304,-23126343680,208403087360,32309225472,-15359127552,236006719488,-440596496384,-430691155968,108455157760,279956979712,369346379776,830805835776,330806919168,-547275145216,67293745152,-55324626944,590492270592,373142421504,-51351068672,33763379200,234396549120,450899410944,-112486080512,231893401600,34781028352,-12316261376,-125888782336,42025607168,561960124416,69372084224,753322754048,159588188160,316449521664,620133744640,137165635584,72808357888,110395547648,670278811648,202082877440,-217882509312,53854228480,-189058056192,-385171816448,-221128523776,-259748560896,225733902336,-66054311936,253018374144,238988263424,593547362304,145441095680,175916990464,-660760494080,217703006208,648480423936,241761206272,177395875840,238006681600,167487406080,-409819316224,-65076068352,-2474068934656,38270263296,466205868032,135570128896,-348333637632,-104016166912,-786022727680,-128706347008,-73780051968,-30639925248,194895003648,546213822464
-275068321792,290160902144,-323740860416,-337509056512,982875635712,-404823408640,216691032064,-24051374080,433715478528,843045863424,159218778112,-208924819456,-534953492480,-341556690944,-590680358912,854434119680,-20674564096,-61486186496,-432934223872,-277327380480,-124062203904,-641485832192,-43995480064,476431941632,265921249280,121534504960,692030996480,-641189478400,-174139244544,28581244928,-298544463872,-283791392768,-273492606976,-17330264064,-194842198016,88284987392,-905680650240,-357459197952,-50411335680,-218969423872,361618407424,-16354834432,-489032220672,8111236608,-545099907072,-211989610496,127503548416,230032703488,-342413410304,-261340446720,-310932013056,-271613689856,-873236267008,801992998912,311884808192,-191494848512,245536178176,-472133107712,-291925327872,-223177261056,62372810752,46974025728,205131202560,-11323442176,-20127485952,-683658903552,-388608294912,-705140228096,459692965888,120289869824,210865831936,-456101167104,-182446669824,-80273588224,211520503808,-158968922112,-243035308032,69888442368,-212976041984,73555738624,11831497728,906200547328,-626887426048,-240895967232,-54938550272,-499501400064,88105246720,-81228562432,-639871811584,-302500380672,-348554395648,-33768732672,-396806389760,-359401586688,-9653464064,-555455873024,-55017775104,180529233920,132448051200,291441082368,-124606144512,153449660416,-148498513920,29474390016,-333371441152,-270511620096,148914716672,-23466422272,-205808877568,-487554842624,-188102672384,300995870720,-100084269056,-86184132608,342742073344,296039612416,748455788544,426635264000,-402681856000,22047043584,267279663104,-56581980160,544663437312,42650923008,-37338505216,-31856201728,-307047694336,-225505902592
-56108036096,-56233963520,292663951360,1098557292544,685744062464,-229221924864,-636849750016,197181325312,-136190894080,645437915136,222323752960,811619647488,388271669248,783500050432,-164884627456,144490364928,122002472960,-707642195968,43991441408,-370092572672,-1764518658048,-521543155712,-97900462080,673281343488,779500912640,-163677519872,1352206254080,436690255872,-61847805952,442183909376,192724762624,12957603840,847176663040,137196527616,-281893896192,687726919680,851455049728,394332012544,-106192330752,374418505728,740121968640,-699969634304,-939172233216,4997289472,-181965029376,466853036032,-38701961216,563994886144,596558675968,419438362624,-164590190592,-424157118464,320884703232,740775952384,-832225083392,-24836608000,-624464887808,844553846784,102411780096,-299843485696,-882821365760,180604239872,31156592640,209072062464,8901136384,-300080627712,748434358272,212345978880,-837410095104,-165323735040,209502273536,-1255672643584,1248341000192,-115759628288,452217765888,416924663808,-763862646784,377007439872,449072660480,107152375808,553130262528,93366730752,-767825412096,639249219584,55829479424,106164576256,311583473664,1024790364160,245324038144,299299602432,-93533454336,8297740800,347455029248,-6365427712,-405179367424,-80092938240,692490600448,438724788224,-1013089370112,-595677020160,729641123840,240685744128,7237408768,-260895899648,-625767743488,-136832098304,1106794905600,-1106020532224,168269463552,55901343744,1239709253632,-258295840768,-670071259136,-204017844224,62107840512,-202190356480,-366249541632,432334274560,149626617856,1104673505280,-131607388160,-154480148480,-561241522176,-540981690368,818404655104,-264304361472,612433330176,-314653605888
-1007313813504,720969203712,-953372639232,-456514830336,-127871156224,965969641472,-1269947301888,-237124665344,-525625982976,753711775744,489214967808,2633308831744,64407220224,308203782144,418285387776,373020196864,-469997584384,-424850423808,-689659314176,-171266850816,-272896163840,-338798051328,284329869312,218164183040,1354590060544,1594243022848,-821016592384,-364690538496,-97261772800,172935266304,-338600624128,-1140296122368,1231043166208,-141443825664,61978107904,-946223513600,-1020589244416,578902425600,678127009792,139063738368,-562822316032,-84500938752,439199006720,795319140352,1199643688960,-98816327680,889373458432,627184500736,128987168768,580973494272,304732045312,1193806659584,982878978048,-462334525440,1460719452160,641544683520,66433851392,597843836928,197722112000,-328691023872,-813644251136,1214028972032,292524654592,-643099394048,-312017616896,-290828943360,1088484868096,928736673792,-1276968435712,-70652436480,-345476825088,475734212608,-1291623464960,-605948411904,-241928634368,392597307392,-471968808960,-143226175488,423547502592,61532102656,182098690048,467055149056,-829875814400,-268052791296,225966178304,260320067584,-74280624128,-244313489408,-246661513216,715344642048,555108663296,-840440217600,289247559680,269194149888,-119226318848,-927991267328,-117755920384,-61537046528,440234508288,-27287257088,364654723072,1141373927424,-730714275840,324728389632,-356508303360,234348609536,54533861376,-1126960988160,-226620981248,-319493898240,-94524399616,-658369085440,-149871050752,216184225792,422669025280,93187121152,-53224321024,-994469675008,398334689280,509270851584,-184175247360,387593338880,280967184384,611131588608,-12636765184,251085996032,-74985865216,1003351048192
-154465746944,-289940602880,616471396352,-1357905133568,270274150400,-170991763456,311012196352,329585393664,-390188400640,-551350108160,-22550218752,-340798668800,-517099421696,-1682459983872,-554266918912,400387899392,1292721192960,-1084221056,106166722560,-860292775936,801140703232,-311354621952,270166523904,-421647843328,2098142511104,-756447576064,868513349632,-373063581696,-292294098944,-67747471360,-985977913344,471524638720,1203663011840,484714840064,892221915136,32314800128,-1093878284288,16563663872,-1653531607040,403872514048,1589096873984,1459276087296,-283393916928,-203784454144,308356382720,-67578425344,-526521040896,941004292096,-644522770432,444144484352,328619589632,1755215167488,-539456897024,-381207904256,-1229935345664,-604600270848,-222140956672,240234708992,118482911232,21279162368,259872718848,327059177472,-474449215488,-239405662208,-341279932416,232369717248,618288381952,-106991460352,605846110208,522479960064,-944981082112,-185212960768,-846950039552,-284786360320,29583927296,331646828544,-714225090560,-243877036032,258940731392,-584604123136,-1807778316288,965660901376,-631655956480,243069894656,-127727689728,-939998380032,504032624640,-218465566720,-634379042816,24974401536,78212579328,515274670080,-594417156096,-31279448064,230743113728,613336809472,-253866180608,-610048081920,910814347264,178876563456,-509502521344,526300053504,-614416318464,73518497792,-320008585216,-322198208512,-54881132544,-151458660352,-221944332288,855805460480,-427481300992,-676509188096,1096219033600,-1064076378112,64916135936,-2629574066176,-127095865344,-665249906688,361651535872,-510063804416,-29664737280,-2221082411008,228877872,1062364839936,1615410102272,-93180821504,-1068203245568,1879491608576
92422176768,251208810496,-43664060416,934450888704,1271904337920,137051037696,-288339066880,181712158720,-71640236032,-171460231168,269623967744,-341309063168,-101963382784,-928708820992,294606733312,1438340087808,246027223040,251947008000,-151656185856,528553312256,515121217536,348439347200,815361425408,-685850492928,131155574784,176777707520,1700877565952,-646383927296,-378623524864,319049957376,-491007639552,-380833529856,297814654976,-652662800384,125389914112,-172959203328,-572195471360,-363730501632,480719175680,115426033664,-56941809664,-277541715968,-166329303040,1051238006784,737693466624,-560203759616,157802364928,-152225021952,-764963127296,-321095958528,-66472189952,-490487250944,-468609335296,-652722241536,407338319872,-161682325504,-380939272192,131818921984,367913992192,-447057461248,1527261822976,511193874432,420374020096,-473084657664,-240718479360,-794094993408,-66972786688,-352938328064,1959737294848,-620463718400,192895221760,-784828268544,-575213469696,121227149312,609797144576,-147331252224,174904098816,-54882709504,-258692972544,225899446272,167247069184,-161389428736,-513175912448,-1448890990592,26743306240,-603082588160,559467134976,-329860841472,-1160647278592,286172086272,-32902795264,-369232904192,-233207824384,-482554511360,78364803072,-546076229632,246655025152,-26688741376,296247853056,60636307456,-175041069056,-118434791424,-122020167680,-29876758528,-170195501056,-401441685504,-560441196544,-236321112064,-514504491008,48142004224,622960000,384642285568,257762295808,293539807232,7183590912,625252106240,488114978816,216533204992,-73353895936,15276650496,121675603968,224684785664,-691591839744,-45862875136,107641856000,36525879296,83878486016,-889672761344
765080436736,-367764963328,302370291712,-889156993024,-9622871040,-16912988160,267786190848,-423808204800,-48845824000,37338165248,-215026532352,177604935680,99453288448,-316040675328,-13078503424,231892942848,-661634547712,43274006528,301654310912,105881673728,316720939008,-227517431808,-759066525696,-156009857024,64777367552,-1392576430080,-574955061248,507817984000,663841865728,44039421952,-561929715712,1223387520,447858147328,318114430976,-255552864256,-190000971776,100411162624,-36615684096,-390330449920,574140383232,487229325312,358573899776,212826800128,41878437888,348679602176,-274512379904,313513279488,-1099884003328,500383088640,-394955685888,120970846208,1122095988736,-293937512448,-1927023296512,-823246258176,422768869376,-111718965248,-145986142208,175975661568,-5882512384,-1297661165568,22999377920,366727266304,-314346799104,-216768102400,1010136121344,-136392941568,6980439040,-1163794304,-226756378624,-62783500288,-1181870194688,-134749167616,794568949760,338837667840,-239423619072,-417884340224,-730331348992,-109046800384,207370010624,-271440986112,201427910656,370894962688,-69268291584,272372285440,-602560987136,754417664000,-315756773376,-27505168384,-233376940032,-164570152960,424056291328,-266769678336,-208739401728,696045928448,1234823938048,1300415381504,282671546368,-30938042368,-19336278016,506618544128,-348434235392,-257156825088,81812602880,-327367589888,3339603968,-313683214336,1097117335552,88438202368,543398068224,331073880064,-59833257984,48508567552,572202418176,846012416000,885402042368,147503857664,504837079040,176842637312,-71916470272,-386525462528,545354317824,547747725312,-112911605760,-74498048000,-9991915520,-131770187776,1440811319296
-153644138496,35367174144,-11395713024,-1676119769088,-665106186240,-1184292667392,-285476159488,-430902247424,7645376512,1751909400576,-179467583488,112788602880,900740743168,630143516672,-923958444032,699299725312,-456545894400,-556533284864,-294119309312,-1136787849216,454660423680,-821685780480,6497516032,3002130759680,309503885312,586973249536,477248192512,389428051968,808788295680,-6369508352,-23542024192,-160806305792,146130026496,179848019968,607989923840,-67011686400,-971921686528,907099176960,95913271296,-71932141568,117549752320,108826247168,641751711744,-626934087680,-1005970718720,171642830848,58210291712,80726499328,-169475948544,861191405568,-635856486400,-205899382784,209769906176,147351994368,35002363904,-74042433536,-627360989184,823805214720,-334222458880,448374079488,-1285899812864,-669745020928,11564459008,370277974016,-363685183488,37846085632,-114743304192,687931916288,737891909632,-133359501312,565817704448,-757955952640,61101764608,360492990464,-36322328576,-138230792192,-251067416576,-343525982208,-528230055936,204347637760,-613707022336,483546693632,-116078403584,-88996528128,-169655009280,143783591936,-54182641664,-204554731520,-337164173312,-224693878784,264157528064,-846788362240,480160677888,134494978048,-419404087296,-861790863360,195798990848,-29887838208,177222680576,160535855104,131956310016,773574295552,17762228224,-76493987840,-536404197376,266787471360,341931622400,-516779704320,225365557248,-195576987648,-101058158592,-170509647872,-506477477888,-63516209152,365599326208,-1002960715776,6611771392,405416083456,140678135808,418513256448,71358308352,-380358492160,397753974784,1194287824896,617860235264,340308656128,94814281728,-56000004096
-283419312128,399701901312,391469858816,-93862273024,693155069952,-519817068544,-273250304000,159795937280,-59173703680,2213471322112,141869023232,-514148859904,-42684555264,268097781760,-230944735232,968543240192,-390568640512,-70710288384,-503225745408,-434306711552,-718559510528,-210167906304,50914668544,1142787014656,304765075456,487853883392,875803508736,-9824055296,-81000767488,289003929600,-110998945792,366300200960,-499588857856,-252966551552,284548530176,-174481063936,-1211344486400,-379320696832,131597393920,-144613605376,-212726972416,27850467328,-352719962112,-368319037440,-497658232832,411507916800,71818125312,308717748224,597356707840,-4639161856,-108160311296,-506713309184,-548475142144,68230168576,113921441792,-159904350208,-266053910528,-291075227648,-160233947136,-275921305600,128135528448,335467216896,-75965636608,284496232448,-8539069952,-256747241472,-646023413760,-230297534464,248370135040,202632331264,50737569792,-1156629659648,48871047168,429970030592,440408276992,145269751808,-156609150976,-18387996672,-58324344832,74986545152,192765837312,62206824448,-779396710400,-275865534464,-90364755968,-600451514368,-149703278592,177863114752,-845353582592,-216287657984,-227031203840,-36005572608,-20418392064,-109858832384,-25936023552,-1005653917696,61088964608,266944561152,11104762880,-44485431296,-1221867264,-41982517248,-214304899072,-311277355008,-471728914432,51482304512,246205644800,-108349464576,46859198464,-541558538240,44371816448,1015287185408,122846068736,-649932767232,873607790592,340701216768,-675590963200,243710656512,-128595623936,43903176704,526554955776,-342364913664,-3804923136,523093639168,-174123499520,24655935488,-127489687552,-182098558976
-116917002240,-625968152576,149112291328,598467149824,293080694784,55117914112,482587803648,61721481216,74076413952,163662381056,-396463407104,-428932726784,149188886528,-402212618240,417973305344,343743823872,1176354160640,395840847872,61304549376,264198062080,-1250983936000,762445561856,188909453312,-320903151616,-345133744128,-753825415168,63012532224,-1016159535104,-111957966848,-55312650240,82636300288,697516687360,-670937710592,1042823643136,497954095104,288876232704,-303024898048,882600247296,228670717952,-132601126912,-515562373120,-495487287296,328208941056,-126808825856,350851465216,-122672226304,-239277309952,731923808256,541558603776,81456234496,16669044736,-146906316800,355092201472,-96521142272,1200781656064,-865781022720,-276239810560,93510811648,-335609659392,231388315648,559719251968,110035402752,-418951856128,-100174086144,59271200768,-8594443264,-159308775424,-528855269376,486009995264,-113067245568,-229193302016,432091561984,9265361920,-1063904739328,-468944289792,153287491584,822032334848,522697834496,274373918720,-364999999488,430870691840,-476262662144,-149813772288,303220064256,110057201664,70012149760,200670216192,-559176089600,-109668974592,235092951040,193860468736,164184752128,367839150080,-375507386368,-758275047424,-770339897344,-210325716992,-137161646080,-135607713792,-341000159232,-118714769408,-61756669952,448542834688,88580243456,43256553472,-428600655872,42139709440,-294722535424,-53406220288,-128466722816,-65915408384,-31839105024,104677359616,-33126213632,-57011273728,342064791552,30951751680,-269233061888,21433401344,-211259326464,-176653090816,-657797545984,-357782290432,255353946112,555274141696,-225474248704,319749160960,-1311158960128
39709798400,146752880640,-102951493632,-666835484672,-107025399808,-503677681664,33146929152,-198874988544,-33102753792,-1023392546816,-39634378752,-354913681408,-285858365440,-132067819520,-141299728384,243424460800,58298773504,78579613696,-580875911168,-296258666496,97233608704,-574206246912,108914860032,1747205095424,-719112568832,-183361716224,638632591360,-220664168448,-79592136704,-336009068544,-329779544064,-139529551872,-847331524608,82993299456,427305435136,-91514707968,-372003733504,-32630915072,295710883840,-210078269440,-792147066880,-646671630336,1271286144,180992524288,-370706644992,35957305344,-104738742272,272518873088,-130907865088,-177409425408,320885915648,751698378752,-145304862720,-137528623104,572809347072,-249993625600,34868084736,-219134918656,-344629510144,-24122208256,138168172544,-118468878336,-42470334464,-357833244672,-53270945792,-280682168320,-408090443776,-650128719872,1768782954496,-98439438336,175242461184,429358088192,-342832676864,-364269568000,-123336507392,35606216704,59159916544,23892180992,328393883648,-262047416320,295377141760,-424829190144,152022777856,-656100360192,12106771456,-129633763328,-301020020736,-47354077184,23272310784,-319582044160,95539445760,345762299904,282380500992,-212119748608,-543024316416,-323115253760,-144290856960,71430946816,12515647488,-330392436736,-33967564800,-32624709632,203095752704,164831870976,91031494656,221444128768,-2509498880,271023783936,152075943936,-425931177984,-297383886848,110307704832,-1323606867968,-280592744448,150734405632,-394286104576,890881572864,133114593280,-132412424192,-235899928576,-215390240768,-1156112768,371752239104,752388014080,-270222721024,46503260160,-68947435520,477862821888
-886484828160,80233005056,114829615104,-645711200256,-368924622848,404144357376,-274046713856,342819340288,-245201666048,2090503110656,13264492544,1234661539840,-127276802048,188333719552,256129089536,290896642048,898331049984,-362670915584,1265326882816,382158209024,1026079522816,906870652928,176379330560,1861997297664,-1732398284800,434350194688,381710663680,-69805834240,-178486312960,928214155264,769459814400,145436884992,-241006297088,-485520179200,659982188544,334086537216,194470395904,-75389435904,-223336333312,292114923520,-179781074944,1039085076480,322316369920,-227652222976,527781756928,22658789376,29209425920,547035971584,-14318560256,10090199040,94827642880,935024001024,128716619776,270155546624,1281186594816,195968745472,47339249664,-28584278016,-213579169792,97007681536,154077757440,-174691696640,100518256640,229860081664,130694447104,-314100350976,810714071040,239639494656,441781551104,155078017024,742993559552,-386956197888,-591683190784,-559228059648,-250603470848,-57726918656,60068691968,-345076137984,336739139584,-46684143616,-215637540864,141296140288,375968530432,422767198208,567930126336,438729179136,652866289664,241803051008,-80880189440,330518855680,-235276861440,-370915442688,630529392640,-134360334336,44125331456,-1201050746880,-179052806144,-43052802048,-382244749312,92361269248,60588130304,398944960512,164485611520,302726643712,-471689003008,422556925952,154105036800,-524784566272,104818163712,210880069632,873222438912,662192521216,-403369689088,-194512158720,-13666013184,818442141696,48952127488,-660885078016,212058193920,447449399296,-231584694272,-950331768832,-589136265216,833003126784,481378566144,487637024768,-419075489792,-591624798208
-778252451840,358693208064,-924124512256,241953095680,-467720765440,-140414304256,-149108785152,-190586306560,827545812992,-166969786368,304405315584,873668673536,-282800816128,789796421632,102117638144,605341679616,99867844608,38762811392,-95725133824,31058759680,1046096183296,-491833720832,434308841472,-514569535488,569375916032,-573716496384,124584919040,-883589578752,-35093958656,-715336777728,420425334784,-325437292544,173138558976,636205793280,786862440448,-592313647104,308851671040,-109523361792,1577419538432,-457719218176,863242158080,425261891584,103172268032,596312981504,-613270880256,-437516730368,166811222016,-1853762568192,752506241024,344690458624,1076236386304,877191888896,138619125760,830454431744,-594467815424,894001872896,132761452544,730548797440,-234223992832,537587253248,-389875400704,213673902080,594345197568,-670020337664,-95368437760,614940016640,688359866368,193423982592,-414419746816,1005314310144,429228687360,-975016361984,-844312150016,1082475020288,340077903872,-411906703360,-453686984704,-458746134528,1134456733696,-824246140928,-159944785920,1024819593216,1095352057856,831515918336,1645627834368,325226856448,50142138368,447708495872,-308428374016,-1969965760512,-746691493888,295198031872,401688657920,-44568489984,737260470272,-2266072088576,524113739776,149224226816,-1083800682496,-541954572288,511740510208,-20427462656,255882985472,1834534305792,58688237568,233966338048,64566390784,7945725952,1073343496192,-572184920064,835626598400,264093220864,229275205632,-586937270272,-44980396032,1648783917056,-98965102592,51778514944,1735310704640,303353004032,354676310016,-994555658240,1847701143552,2004036091904,-41904353280,-395022237696,867302637568,-292877697024
-463526100992,57117270016,192772915200,381255876608,-240173809664,-240988454912,-27307601920,48391897088,1056187154432,806491521024,-105710075904,797401546752,-261267456000,290815934464,-42983280640,-625763024896,-302172176384,132450721792,234455367680,-91382120448,-386480701440,-134983229440,177273569280,-2994276139008,-1602450751488,-180509638656,-1044884029440,-350481416192,294628392960,448718372864,364180766720,-55755350016,993999912960,22708979712,-690415337472,689657479168,257847197696,-212838498304,-186141392896,406165553152,1085907468288,1126381256704,-285955555328,48302317568,424896593920,15939735552,75235909632,564628094976,-70191718400,724389789696,61534502912,30326779904,-516341301248,94031749120,-401495326720,218043514880,387017146368,-45673660416,105038471168,1145208963072,-851910590464,-41552928768,-856131960832,308497940480,203753979904,324651483136,980026916864,-1718643720192,-354726805504,249531727872,216545656832,1075469680640,913278697472,-168735653888,104779972608,162168422400,-168274149376,126022885376,97136336896,84379451392,-538064322560,-40709033984,380356329472,641751384064,-393313353728,-808288583680,53211340800,-360338096128,468811153408,-165759156224,301957349376,503772643328,-878620639232,-449509392384,-1003775655936,1200561061888,79280209920,570124992512,-212426883072,255240830976,-216671010816,-111412633600,-138518020096,-464594927616,335074394112,-375491493888,-587308662784,744067235840,-480546029568,-136674205696,-177544347648,-1553122328576,225187594240,93828038656,-60724551680,-355859628032,286874075136,334061404160,18526064640,-146583945216,-286276124672,400323969024,-117102125056,256140656640,-264800190464,-234958225408,283642626048,717344931840
-266570465280,-60878082048,120330788864,345643352064,-257699823616,-175044345856,540231925760,70026436608,-118824992768,183204724736,-275602374656,-486556467200,126027472896,-725644738560,-374244016128,-77769752576,109042835456,1323709759488,-376169234432,-466203181056,-1727737757696,53864943616,45991411712,-219072086016,-1995040751616,-802100543488,111050440704,367113469952,-334036271104,527873441792,200641855488,69906317312,-79824076800,-727542661120,-562782011392,-74494345216,790176137216,169695248384,-1240761499648,398800322560,16046223360,-210563448832,-409159434240,120228421632,-296015462400,195826434048,480798703616,362896195584,307031310336,265745563648,-381314433024,359819935744,56635056128,71536910336,101909340160,326322094080,-39282704384,379863433216,-78374551552,362900783104,-167838892032,9862200320,-316164800512,273527357440,-286287691776,-525779337216,100899913728,1479513079808,418791587840,66955751424,568140693504,-236448776192,-699076378624,-211400851456,259500703744,-27222738944,116486004736,58127515648,-90941792256,-211271270400,-30761670656,-216169840640,834448850944,239731671040,78422999040,260514775040,297635545088,628515274752,-10334971904,-28149389312,-578387705856,98395987968,115345997824,-43132559360,337714839552,745399386112,-249465323520,-211462635520,35968086016,-117549596672,-91252260864,390899105792,-63247446016,80890503168,-161753579520,-113956257792,67122614272,247439458304,-2032469760,142514864128,170790273024,41708212224,-44698984448,-219756134400,-406847717376,-194460057600,174261420032,-439556341760,240547201024,418247213056,75970543616,-29346721792,-95818604544,304499458048,488374435840,198495059968,-50358222848,214226960384
-337839063040,130103091200,502369353728,361482092544,191733202944,-19391703040,-196031447040,-100270645248,-864608976896,-410227474432,143910420480,-434952011776,-305119068160,-169490841600,-374363717632,-478794022912,6351556096,-319304040448,-125551566848,107231002624,-420385718272,-53941841920,264445624320,-59380363264,226248884224,-305006215168,18217998336,-449450016768,77080797184,132777312256,-299453579264,-304361406464,171588517888,-77171032064,-510623481856,-337096146944,186079084544,-176482091008,363128291328,239395307520,16292377600,-227086614528,121575768064,-48378310656,147843497984,261714919424,-4727974912,113990991872,-326218579968,-199693598720,57201131520,15660144640,88082382848,649795993600,183833870336,599811883008,-49318862848,-98188410880,162750447616,-359188529152,-270890713088,46913667072,66977898496,-430737227776,-223266324480,-406268313600,-340456800256,22045679616,-796392292352,-454510510080,-207758917632,-227457368064,-385037238272,164764663808,190955208704,-191173984256,-93665828864,-100771209216,-422406815744,194848047104,62272614400,8106989056,41949872128,-39664533504,-116429250560,-502872899584,-136353038336,-311804755968,-409261965312,-374129950720,-28719835136,-29004124160,-502533390336,10915290112,314693976064,390670876672,407971201024,406677848064,150775382016,162578300928,78958223360,-643299475456,-590415986688,51776708608,-576070811648,247355129856,-131510034432,1433579814912,-238368964608,-1093942771712,-329854844928,-69397233664,177793105920,-160394985472,-231859208192,66529189888,-168353546240,59336757248,-135319617536,146248990720,-203133255680,743604748288,180170997760,60985438208,-68783030272,155726512128,-317897768960,-41818660864
98199666688,-86714646528,55389388800,288502874112,-24172660736,59169824768,5046506496,230159876096,-224592265216,290577022976,270261272576,167959330816,-263052230656,-559060287488,520998846464,-29284630528,150139191296,650839457792,174414004224,474405404672,-414244143104,188607168512,-415021236224,-15223580672,-103976984576,-691219726336,112001507328,-1429894463488,167248494592,58213076992,438846980096,887906172928,-64953913344,583737344000,222421336064,-70674841600,-30534893568,-280162205696,-955378048,244652965888,-236818808832,-18635812864,-221506797568,-130065604608,641214185472,-97918836736,152373313536,85293555712,-137757966336,-677109891072,10519136256,-37115772928,158773428224,-343806738432,-388072931328,-476492103680,468638269440,391619903488,292763271168,99086852096,42330214400,133699837952,-140710510592,542046519296,198662619136,213378383872,-1176669257728,-89228230656,604516515840,331770953728,-132890951680,353225637888,3884598784,263327744000,-336448389120,-139145412608,392747253760,482910633984,238605287424,-218486538240,162631024640,-341326495744,211558825984,85479563264,18622713856,332576391168,133101051904,101995003904,354107686912,205014777856,254318624768,199031308288,225948958720,-132621869056,-155144994816,-123602624512,183557963776,-77202612224,362301554688,-238121598976,-63365242880,-123028774912,336946724864,-46016176128,363833360384,-562507284480,-167259373568,-180094697472,241256890368,385661829120,33889048576,-36749803520,-108827500544,-33767536640,525544652800,126576304128,464978673664,-309575680000,-186935115776,-113913651200,121778634752,-122343161856,-166012878848,-81874083840,-586059022336,-123733188608,273089658880,45332373504
733794140160,-495682486272,-321887502336,497063329792,108246482944,-430761345024,1401531138048,-562976915456,341261549568,-305580015616,-581767593984,-359210844160,-636597043200,-381185556480,-228056104960,-184416878592,748832882688,552795766784,-263771029504,130605645824,634684637184,393894297600,-36304756736,-1121880768512,-287061868544,-969002254336,147740164096,1031557873664,-86760038400,-588317851648,-87648714752,77387718656,471910809600,175385247744,-221548888064,-192842334208,-108199010304,-953207685120,45047410688,115184254976,283905884160,-647499612160,-325819531264,-315220459520,-156193423360,-27604203520,-691512803328,197590597632,-512839286784,-619028545536,-295573585920,-1562907508736,-702844174336,232214200320,-1081837682688,-343753883648,-55487680512,-427763007488,-447479414784,131776249856,183498276864,-298336813056,-127453274112,18097686528,262081773568,-160300040192,-713131491328,-294172360704,-710668058624,389887721472,291074605056,-53216370688,467178815488,273402019840,-165007474688,-421971329024,-904128561152,191188320256,-270843527168,-327697891328,-21256523776,-125419757568,-861780864,-6491372032,-446335614976,-103573127168,-225053933568,135463469056,-159685050368,-40404889600,-544222543872,1440829407232,-420076355584,-352499499008,-726981869568,512656867328,-108567379968,389267226624,-847227518976,414122115072,-68030889984,-1164275482624,454626082816,12287961088,69032624128,-734619500544,780388288,-174585757696,-7948440576,75630985216,161603174400,544691716096,727152328704,-185442631680,186593787904,139106123776,73948061696,596464893952,132350328832,-603258355712,37273018368,-86890668032,-237939310592,-651704205312,-131022168064,-495029911552,-8902549504,1231121154048
349435559936,71728291840,-135937794048,373405745152,149144682496,8050739712,-227572776960,330804166656,-369962254336,-205391757312,168696070144,164433494016,156565422080,-154091945984,-167236648960,-82867208192,-369165238272,39724281856,103978254336,-105472434176,-823162699776,-252151316480,-1359385460736,129585799168,464645816320,324662820864,-122595090432,468912668672,136050081792,52566446080,324557635584,369551671296,283291320320,735565971456,-492415320064,61046038528,158508220416,88578588672,-170535993344,407133323264,486872776704,54066446336,-260394680320,38586564608,-395227758592,-480362528768,-692803338240,-978860048384,478744772608,-12162215936,-167213137920,-109915496448,-75141013504,-1059850092544,-727175593984,421843828736,-150738239488,-469123235840,75617009664,-857204457472,-509131849728,-116476084224,413935370240,-211445170176,11542562816,-31339952128,14929901568,-33598011392,-354739257344,-132814561280,-276111228928,-141411074048,140831981568,-71006806016,252462628864,-314931576832,-1102767718400,-254268604416,-341995978752,140928630784,174113308672,191582306304,-377676529664,-191903039488,-40922521600,-866568306688,-333749649408,-106526908416,-298723901440,5589961216,-123273969664,40927797248,-657579442176,-268525895680,107740282880,166099107840,470432579584,541846011904,-68034015232,91037835264,1157317656576,-167828127744,-216434589696,1192003968,-275804323840,102821371904,-161913012224,247906697216,-258312617984,411184922624,-128206905344,-76913639424,-264587182080,-39309611008,1983902646272,67218448384,-305933680640,526205452288,-43456344064,16340119552,-170666508288,446754062336,207138144256,-11454264320,-177762910208,-133215813632,-99346825216,12675210240
-187297792000,120641699840,523695620096,-181972779008,495511764992,-683018616832,-32044761088,-186791837696,-98826338304,332087525376,-16853726208,-304900308992,-156439101440,-266711597056,-557870415872,190945017856,-404703412224,125806673920,-253161373696,-52643274752,-286873321472,-419585228800,786528796672,-66158219264,-241293295616,256650608640,480981188608,-110689091584,129289461760,-99018571776,-430530166784,45630017536,174189281280,-178008719360,-50768687104,33262303232,-497643978752,-86333628416,-56704335872,-139705696256,80377036800,63318622208,-122103226368,-237684785152,-428351651840,48159133696,-581321031680,109527007232,101611675648,-184599265280,-130721005568,-339441582080,-521247424512,245511897088,474385317888,-137378381824,203646337024,-241030234112,-92702433280,130644303872,-322170716160,570886651904,407957078016,-189704962048,29248008192,83158441984,-1363105939456,-489716121600,921476399104,183712792576,63899418624,-16769567744,53299687424,246943973376,516540104704,17532153856,-4717356032,215968940032,-172741328896,45184958464,-75367014400,-405503803392,-102021087232,29575041024,3653679872,-827383349248,-405363589120,158859280384,-286379966464,-260268261376,-332759072768,134666657792,-518659375104,-194777186304,82349678592,-100499857408,420560470016,280512004096,277282979840,24722438144,-125348610048,-324732977152,-318183538688,-187438874624,-18575898624,-478487019520,152989351936,710117097472,-216453611520,-453718114304,-411817574400,286283694080,18302382080,-271271362560,-180415725568,-73292013568,576820740096,278954278912,-106404610048,-158611030016,439324606464,-114840109056,568906547200,67441639424,-211606913024,-200547221504,-302431600640,-85700878336
114558803968,444858302464,-1171106693120,939570626560,-91453964288,869267406848,1826578497536,-324166844416,-922208829440,-375612243968,161326972928,411285028864,-352243974144,-677578997760,685568753664,-572132032512,87911309312,-382713298944,-393761456128,326882656256,1100748161024,1148410265600,174101987328,140625018880,152382734336,89351995392,-522380869632,-918558539776,-286753652736,-123923947520,-916145569792,439261298688,-625579327488,161194491904,-247852531712,-656645423104,369741692928,-109395714048,227507781632,469062778880,180985610240,-177951555584,2860493307904,1146865057792,951297376256,154486046720,-98056757248,-263587627008,180569899008,-521515270144,935325532160,-21686083584,348006023168,-148019183616,812051005440,156475326464,-831737102336,81306836992,900035117056,-656721313792,328798568448,-371110903808,-25163317248,877614858240,-50342760448,-359807811584,-103638679552,916817903616,-582685687808,54212796416,-381324165120,-83682025472,-427430838272,144739188736,602297597952,-47213092864,-245499363328,-285921837056,-427242487808,46118944768,238273118208,312972607488,462971764736,-826994655232,-319204392960,331973558272,695441162240,32491251712,1365416345600,26895271936,-31815143424,-207734980608,-485641650176,-480302235648,308100857856,843748671488,441490309120,-886884270080,-226546384896,2417724489728,-439669751808,-347444903936,-57743540224,-158697160704,-330998480896,-946411143168,-30601838592,535059693568,-209957896192,570473119744,164985176064,104191180800,24781037568,15862987776,-303817392128,168650997760,265347809280,-400951279616,-371610386432,41862311936,-202601349120,831907823616,-27204524032,40968085504,677733072896,135735042048,-366029635584,-279285628928
-595521241088,144162275328,-441012551680,-4866978304,20218523648,-291159343104,-564618723328,294619054080,-126690328576,-7823669248,160304365568,-1195088543744,-44131016704,-259857088512,-97487699968,-428593709056,-117628411904,-512654409728,-70124240896,-254116265984,-68190760960,-386534637568,-2799547711488,321499168768,-26450921472,140953731072,-265823059968,42277158912,-64223875072,37638225920,-68334886912,-424743272448,-242451660800,-325958139904,-396117049344,-232728281088,-91835023360,-538225606656,92139692032,-215042736128,80730800128,-127431630848,75313807360,-126746992640,-316646424576,-464556982272,100071473152,-118499139584,21261778944,-137375596544,49151414272,-50298769408,69987467264,1142432989184,155161526272,651031805952,406947725312,-335220998144,-197762007040,-403020283904,-426900946944,91887738880,196762845184,-326968967168,-214424190976,-734216716288,-275324239872,144789307392,-871835369472,-411487371264,78756225024,-429904986112,-794628259840,188708831232,90829832192,441198411776,-354746466304,-317925621760,13231242240,76947734528,-117503442944,633534480384,81440317440,-771800825856,44565311488,-957482008576,-90809114624,299735515136,-2202841120768,-249475039232,-332198543360,-223546753024,-557772046336,-68944388096,26052603904,467782729728,514776825856,281955926016,-559517270016,180237942784,-443681439744,342626992128,-220367060992,125128835072,-691348963328,52822982656,6346565120,628692615168,-380371107840,-812549537792,-85836496896,310345400320,85399748608,467735019520,-296349106176,-11435249664,123186995200,297479208960,-431409954816,238310473728,87917887488,240558391296,-14526482432,258412183552,-587068342272,159898255360,105856155648,-964348542976
733839622144,-44517310464,-1348486692864,-66352082944,154761265152,440049041408,-271977758720,-155819458560,310945742848,-23449452544,148288733184,-1093823627264,-20918689792,435134005248,-442727989248,50581278720,-13306843136,-70089433088,-907826626560,60425576448,-616219082752,-960580616192,-193188855808,773555945472,1895312654336,-57105620992,126818279424,-603803942912,-37650509824,294232686592,-312577851392,-137989750784,53511462912,-283622244352,825028378624,276391591936,-232797487104,295653736448,4434464768,-57830629376,429027393536,693042872320,-109538910208,404574011392,-187775942656,-752945594368,-534397124608,779013849088,-515801645056,-89446416384,-27436503040,-486132383744,128918380544,641208156160,-303348056064,1140389838848,-3213304576,-1529778929664,44854280192,-192805224448,-464628482048,690919112704,261341790208,-213133164544,54166028288,-321864433664,1069080772608,815796060160,-144227598336,60256428032,-231407370240,-415126913024,-1357641154560,-631691018240,11181086720,-159210110976,179474350080,-302077018112,376508416000,212812349440,177983553536,364778684416,1002393567232,274828099584,377681838080,732348022784,591263891456,167490011136,286839341056,547258499072,8346348544,-175543435264,308732755968,86661439488,125220847616,-1643966365696,-809145925632,-989548707840,-385045331968,147297845248,-697641992192,92628230144,-229802065920,-27586988032,-507916255232,523847172096,-274092703744,261980897280,-228780474368,-1725908647936,142868086784,-1502039113728,-143139454976,201945137152,278242852864,83312033792,-458912694272,-826810171392,539061125120,346652016640,54545416192,-310660694016,496128163840,826714292224,146412273664,-115742228480,-107990548480,111523962880
-212739178496,59970527232,-318239965184,-514911666176,421909331968,-382273781760,-76444336128,-111585812480,80323395584,302703575040,35492782080,-36673896448,-186178813952,-532270186496,-427796627456,-300782813184,-242423136256,-7701963776,-520086913024,-104319262720,-18026164224,-651353063424,18578020352,-84501790720,187664023552,154459963392,-48669790208,-333304496128,66489982976,-63652835328,-169757687808,-266713628672,257971060736,129318551552,20276275200,-186968670208,-111567765504,-257863958528,-264432287744,-11979457536,226396995584,-10195501056,92319170560,-14414774272,-541186359296,-204190875648,20381331456,41104281600,27628343296,-40435716096,-242116444160,60487929856,19399704576,-303850979328,207773220864,-99156189184,216802525184,-520602845184,182900391936,-7187295232,-80528678912,2602734592,247559503872,-349685874688,-251822243840,-301396459520,-128793133056,-252272361472,581375950848,-347938455552,244500332544,-200626782208,-114822004736,-1456946304,274282905600,-140927221760,-270217379840,-77523419136,-216059265024,97892818944,226254946304,-144353886208,-235698438144,-464234283008,-253155999744,-326902644736,-206762704896,-160277004288,-75299364864,-92429000704,60980322304,13300507648,-232820162560,-155252408320,-103431970816,-117303115776,-251266629632,246550331392,-85038145536,316609069056,-21402054656,-91571937280,-26139691008,-60134318080,-307263078400,81164402688,-198158811136,-275130220544,-108918325248,-350728159232,-437367406592,209350180864,256366919680,-108928450560,-60942331904,70307225600,1235028803584,323570565120,-77768785920,-74304536576,-26279692288,153407012864,511734546432,40784019456,-328366096384,-8349542912,-166027771904,11233127424
-293099077632,213402681344,42223255552,191465947136,395925159936,-268310134784,-463094677504,244005502976,-152159666176,945803362304,-155569537024,-72843198464,105553559552,-75565121536,-387165716480,585577988096,-38480547840,-1151779602432,-135003856896,-251396341760,-298750115840,-774625492992,380496838656,1121918779392,-96411074560,147494289408,1346991947776,282344587264,-357403099136,93928136704,-65427038208,-182837002240,-289845510144,-246013952000,69918932992,-224701743104,-855560159232,579132522496,-245919956992,213996306432,-48835825664,243078496256,380128100352,-61414531072,-625552588800,347427995648,-559092269056,67139297280,118373113856,326734249984,-438925328384,-482931900416,-63261081600,529968463872,278538387456,-500791410688,-627872563200,-37466968064,-155919204352,-394774806528,284972875776,-170644209664,164518952960,121457287168,-479218040832,-665928794112,91355815936,-63155478528,-106127925248,-388807229440,-145410605056,-1310838358016,-446887428096,193185693696,-347944976384,2093051520,-266831380480,-109651410944,12150468608,51123597312,91125751808,166545702912,-431479783424,190762188800,66518827008,388178313216,197709299712,363004723200,-396548669440,-297586130944,-268689784832,-355179724800,370502205440,-245035286528,-32296214528,-417027850240,-82365693952,-208366895104,-555444797440,455348912128,114581168128,450775744512,-393453142016,-52285583360,-695298490368,449885208576,90406649856,-553204776960,-485951504384,-120806162432,501524561920,820832960512,-561235689472,233685090304,61445832704,606222680064,-1563882553344,126993596416,44520919040,756282490880,96295919616,167981842432,-223958171648,497852317696,477140451328,6495961088,322677506048,-231065272320
-484539072512,55013715968,524854558720,1362429083648,1072812982272,-605149265920,-880984129536,160315162624,-394563059712,124186173440,558434156544,1049954877440,541201793024,1017213681664,2848647544832,753969135616,-638278172672,-949151662080,791953276928,-627037372416,-2647160520704,-378712784896,17610022912,-915672662016,958513152000,210418499584,40964935680,1014466412544,637008478208,661298216960,1514866343936,265084370944,644740415488,81093214208,-1641652289536,1783713759232,191481724928,922168000512,136274657280,1061307678720,2777353289728,-1150201364480,614173573120,52029251584,-323508240384,513627127808,327938834432,109046145024,779119427584,890607435776,-790339846144,-24083075072,587622711296,-118557982720,360629534720,204279185408,-467521732608,-237361692672,891174125568,133782011904,-2464268943360,241758699520,706082045952,-600684953600,-36022251520,-220892708864,438155771904,144565108736,-3015345963008,-445718855680,609283866624,-537257607168,267542167552,-718494760960,324380557312,220892741632,-98671927296,-175003041792,-62494224384,14114779136,571269447680,178314805248,250336739328,360978644992,-126813356032,-20195680256,-70602874880,237529464832,182567288832,-329430925312,-82864873472,1023481610240,210524930048,121410453504,37800976384,-32265121792,405508521984,386212265984,1124391845888,431501279232,125432791040,51854577664,-175169880064,176254615552,301135593472,526605516800,1176293343232,-799617384448,202182656000,-119736459264,262012944384,-739079815168,-884196704256,532186693632,246550806528,1055434473472,34132004864,789803892736,162282766336,998645825536,-272529063936,573950132224,61691548,497557504000,1826561589248,190201380864,-337533239296,-1227476303872
-302971027456,761283346432,384260112384,-447768788992,1198381334528,-822318071808,-733171941376,-72665849856,-22231975936,1352939208704,183633707008,-108731195392,764226043904,462111342592,-349182263296,-50706616320,-378810138624,-342146973696,-624466853888,-518799327232,-367076114432,-960926646272,-4073743616,787834798080,386339930112,330683023360,1423594225664,-296490369024,-39404838912,65974710272,-76808912896,-246520053760,742388924416,-403287769088,56621056000,646201802752,-776602320896,-177416339456,409069551616,-566253977600,-220888317952,686155956224,-38294216704,-357098422272,-546445623296,409753812992,360440758272,479027888128,98622824448,-117999558656,41729011712,-65401622528,-188074147840,9689753600,390318948352,207637905408,-143029846016,-91312005120,-56660496384,399480750080,-488246607872,106314514432,420131438592,689252925440,3509910528,-176485384192,573075030016,143528574976,239204646912,160626769920,-570327040000,-550121177088,-321133903872,8469625856,623726034944,37218603008,-221283827712,-90383196160,-525367410688,-168444985344,-515403317248,251257683968,-42118299648,80490102784,-61751255040,306734432256,-120527503360,395285102592,-108509069312,-347661172736,-88444542976,117726224384,205709426688,51297918976,65337769984,-930707472384,-55605276672,-205978271744,-91927150592,-154350551040,66631081984,18464075776,190000447488,108941484032,-222550654976,-244595523584,39469195264,-15521447936,8443493888,201235070976,82263138304,246122971136,-1046742630400,183624433664,130772492288,-383523782656,-63781261312,-191797526528,-338229133312,271206531072,739827253248,-145691230208,1074662932480,1077468135424,-517879824384,313448366080,-3636159232,221993517056
968204484608,-558501986304,221207396352,243052429312,858246610944,480511197184,-196081451008,-587167236096,-1655450370048,-63922159616,-79073648640,1389141295104,-171372773376,536769298432,448158597120,-83402227712,251050328064,-473777504256,-291090857984,339678494720,418814263296,-169285468160,257184727040,-1096767766528,-2260392738816,-998668959744,-381884628992,-1368466128896,2966123520,1043535233024,-73758007296,-412363063296,-1474576384000,1176471207936,-493211615232,701605150720,457808740352,53550145536,-251421671424,-648040677376,823097622528,70933258240,-180760117248,399657795584,315304345600,-91426201600,9409648640,613986140160,-298538696704,355196043264,1226737713152,-90933731328,-303680684032,-1025806368768,-216173428736,374659874816,452457365504,-342254157824,924733079552,547067199488,621276102656,540803399680,-265307963392,-157162913792,-851516260352,687291629568,104690335744,-21473193984,326088884224,1774907162624,-207438200832,617680273408,-9756307456,-1041291018240,720747823104,-139556519936,-895603113984,-462316109824,553709010944,-709975736320,-621754056704,-687423684608,395710070784,331276713984,783320940544,1106952060928,1076178845696,766708023296,1036093358080,-1527010164736,-443090731008,2036004421632,8243988480,1266720964608,977027858432,358204080128,597135851520,-653619036160,-595360677888,-727729569792,-306740658176,-1215914967040,-519271710720,764290727936,1547361714176,-780866748416,469044264960,1502860279808,123150761984,-410139197440,569409339392,-1955993747456,-298000482304,1226783326208,-387134652416,132301217792,464440197120,1119466553344,-1293381271552,-1239591944192,29138481152,4629025792,597979234304,-383145574400,-674545795072,-1227803459584,-413574823936,1816060231680
319673597952,-60251295744,-52437700608,380292890624,-4745657856,576466911232,132193984512,154144374784,-297952804864,-137771876352,201083666432,593416159232,-24081647616,217888440320,469831647232,-108773711872,164428087296,110532960256,342983180288,280557682688,-84971364352,497600299008,-178779521024,-423342997504,410310213632,-248124489728,-282555121664,301487947776,178011521024,-306176753664,328284569600,-274687557632,132850966528,88985436160,-15312228352,-221406937088,715986960384,65372512256,111477358592,143928852480,-374334521344,-15635538944,-170900242432,-69913690112,429336035328,-176633593856,-51121565696,-48206471168,12015405056,86035267584,805509791744,-49514872832,228771905536,981726527488,-457290776576,182344089600,-128811679744,288607698944,112537034752,169270722560,57276502016,-152768249856,-216822972416,114443395072,200334950400,87810867200,381980049408,618517364736,-461852672000,19980247040,-455075725312,97417265152,170342711296,-1155479680,-212616134656,106194018304,70184116224,322815000576,73359532032,23843627008,244785905664,269925826560,335003844608,383587024896,113958862848,580880236544,33984028672,451195174912,107555340288,63404298240,227375316992,-245253652480,319295324160,261873238016,-179331563520,-120439087104,195005677568,-223175671808,-76179439616,-207604154368,315137032192,112535437312,-43016372224,186965950464,29342453760,-86800703488,83020587008,-396331220992,172115050496,915980746752,221309255680,-98042626048,321752432640,-207923871744,-160697335808,-180258013184,-1237830336512,-533939257344,230727041024,-2145038976,72572559360,151082860544,157476257792,-94357127168,150933340160,187833122816,94203052032,55008317440
358964264960,-301750943744,1692612165632,1026326462464,294450397184,-65659998208,-44921446400,-589475741696,-814813478912,-43387969536,-127469953024,-2159914254336,-115685048320,-549820432384,283099627520,642881224704,-81321885696,254337400832,195008299008,126131281920,-61233864704,-71079780352,-1460669251584,-117228027904,3858193973248,-327953612800,580255809536,223958630400,100804476928,381390356480,342096707584,-764246228992,-481259978752,946367692800,117079277568,-653841334272,552978874368,-165641469952,-180856029184,52232228864,-2171131658240,-839615512576,-180791263232,663248437248,448783548416,428649807872,-716581634048,651325407232,687131983872,69100101632,-715939119104,-929807466496,-358135332864,27885297664,-58978377728,765720985600,136703459328,469878505472,-45146411008,25563641856,-92187549696,155399258112,591232368640,-283883634688,-138560897024,419365289984,224611729408,-1508224139264,757033402368,254424481792,-310506749952,426305847296,871329038336,531580387328,143789555712,-58511814656,870484148224,493144145920,-13857610752,-257454374912,-2311765248,-927665160192,-1557229731840,207585378304,603753414656,-443508686848,501444411392,-507935621120,-181279309824,-519207092224,-399180726272,-90016112640,-594664095744,-122470866944,85372461056,-607677251584,-1276127608832,-191740559360,334152990720,-360657485824,232325939200,-292598284288,605103259648,-45588381696,664517279744,16681090048,116205338624,-690293637120,159157321728,1037604356096,-251138031616,569736953856,-380344664064,302594850816,-459249123328,730901381120,429992181760,-1131908825088,311825039360,-181989146624,-515259465728,-461563592704,-210179833856,61857779712,-402063392768,-276128202752,110517829632,602692911104
-442810302464,591825207296,158750605312,301460422656,110496735232,-466460475392,102954442752,63551553536,32748054528,53158838272,6834172416,-700642033664,278083371008,125582524416,-264594407424,-311729782784,-299350589440,135694303232,25391433728,-255767412736,-1372508520448,89622183936,99922845696,652852461568,938007724032,1224687222784,-342331621376,-469944401920,321640202240,161134051328,470353641472,115973677056,-189457121280,-192559661056,108331253760,-171760664576,275943325696,-110402895872,61627523072,2449505280,388939284480,103395893248,44267642880,-490791010304,-190585372672,-173351092224,223547752448,-1044094713856,-169500622848,-234514481152,184286560256,285929832448,25053708288,53042069504,1304334434304,-181672148992,47070019584,-101471748096,12081257472,-129035689984,-291218849792,-240695820288,195118055424,333834223616,283783528448,30863792128,259857547264,-100342153216,-721643044864,-572906668032,-31416772608,-213295267840,-155524956160,944031924224,388671963136,280009736192,-118158311424,-79404376064,-402203279360,762573029376,671160467456,103914315776,-571180646400,-108450299904,-351684395008,-100153581568,-49653968896,-143601287168,84558381056,318236884992,79039406080,-971598069760,-64685776896,21551718400,-639616745472,208576479232,-455401701376,261476499456,-365088571392,647712079872,-10958398464,917001338880,-622623064064,-398361559040,-83411312640,63082639360,-629717663744,454531514368,-476959965184,808061108224,131840327680,-44370386944,-222071324672,144623681536,467764674560,114368454656,-576197623808,613564809216,-198895566848,1019645460480,-49780137984,686795915264,-24333817856,68470927360,-143060860928,576566722560,82451177472,-948668203008
-166070730752,603371339776,115234693120,-19976654848,82702909440,1365397248,-586737451008,-500040040448,589308362752,-367791669248,99141156864,-987764948992,-65738571776,2199638769664,361735749632,-340055556096,-421210390528,-333323796480,-322444230656,189549936640,877252968448,604534472704,479232819200,-431021391872,-594709643264,254101356544,-123837841408,-341717417984,-86896001024,1106431574016,-128264011776,-1072942153728,-387360194560,69391785984,-36775534592,212563968000,358896173056,-109283368960,-608770785280,561677205504,-651377377280,-212004618240,463390015488,-37385490432,686497005568,-520301510656,401883398144,686639874048,-311202217984,453369102336,-818579636224,-361027633152,489703079936,-254183505920,426988470272,-208337616896,-1341051764736,338493440000,134306299904,-230029524992,1361904140288,553038249984,-451051847680,-396832047104,-24268429312,-348171239424,-70544105472,-612680269824,2158098120704,-251958280192,91521196032,-657353801728,-140570968064,-177381720064,230748831744,304868032512,-353295138816,318883823616,350453465088,-138650517504,1869244923904,-1498325975040,-822915104768,-699710242816,92764274688,253490036736,240997646336,-991482806272,412755034112,390131056640,-1707408621568,-594896945152,-73340551168,-418342797312,142511669248,-739068608512,-298599612416,59058864128,1059476209664,576479232000,-7748892672,-15993940992,829498261504,13872050176,-65453043712,-1480324939776,-627205734400,1216478314496,742271418368,84886020096,53136523264,-631934418944,561611145216,-519754874880,2594181376,520353972224,1888535183360,316617424896,221777100800,318983864320,13313797120,-598891364352,-509739859968,157051666432,908060917760,9076638720,-340345520128,-161697906688
416435109888,87112187904,633107906560,92870705152,-39969730560,238445461504,476205678592,-296866414592,20356175872,399975383040,-44979331072,-254621188096,280453808128,200615739392,288677822464,176628056064,10560160768,243403210752,186368737280,143206793216,-139983519744,527143862272,-213558116352,72246706176,-127771328512,30261284864,-17242173440,537229426688,-198196297728,163180707840,25233821696,368682598400,-102087573504,-1056854835200,111990743040,-96251994112,77487120384,11082202112,-12427634688,297505882112,-133784379392,129129504768,66517585920,62276210688,206587985920,137989865472,-209336434688,-108221644800,-65456582656,271819423744,-55739379712,64894570496,179701923840,-48236883968,-209996627968,-2382338304,-151098064896,176276848640,57969065984,177563353088,68809416704,113744273408,-407412899840,582866305024,85188435968,357498552320,479642124288,360885911552,213100380160,290949431296,-168532361216,135542972416,166784942080,257835417600,-257260552192,320359628800,422714572800,-23185715200,196545445888,-79520800768,-194653143040,436364476416,152351309824,177050599424,211127910400,11900594176,341407367168,225263140864,247622287360,263363739648,-56204070912,-63375298560,372650835968,244659666944,-16443757568,180317208576,62474297344,-106572914688,11318634496,-194013003776,48282918912,159378817024,32375719936,-11624105984,350495834112,135647485952,-31977213952,-627603472384,190677172224,1741915815936,57219330048,-8832807936,108892790784,-7134197760,28196059136,-83844169728,-1197978943488,-540683829248,240400990208,113619574784,-368023502848,-177896865792,-454125617152,-62985351168,293808340992,-76226576384,-7237476864,180798980096
-198189989888,436039712768,111635841024,-126552981504,-786094030848,-374789668864,107855151104,17508990976,-711277477888,772508155904,-585345597440,780636848128,414471880704,-225969848320,986049413120,-637095510016,-1180895674368,-49152917504,-375080517632,-450404417536,-1257170927616,-47397040128,902738149376,-1607845281792,-396931760128,95363022848,-207002419200,-128028958720,104106319872,250529382400,-83770335232,167491862528,643803381760,-717984825344,-1132917817344,1268071661568,468301021184,69985107968,-167166722048,-258886074368,-442536558592,530809815040,-425982656512,-888848908288,1244603613184,199184449536,-400845471744,413866262528,223785254912,1006669529088,-743959363584,-252354052096,-363875663872,-410985627648,111030517760,-1209115607040,-153026314240,-154881540096,59671867392,412003598336,579985670144,184108400640,-1147423555584,-1198048804864,-46441295872,354321924096,1515837063168,1010859245568,35938541568,-145497063424,-852447920128,-1334729113600,-665285558272,-568630181888,956763799552,666579828736,-738654814208,253919494144,-272479748096,-223280103424,-260175659008,475825373184,-4900582912,1133150601216,-106482466816,-322317910016,354469117952,622480064512,454822526976,967796064256,1928053376,349243375616,-87032061952,209874157568,-129742503936,-136458625024,181476999168,-443281768448,503042572288,-200049442816,-1602240643072,531777814528,-130183593984,-180283113472,101950488576,319091834880,223714525184,628314537984,-62836232192,1038456717312,799372804096,673936834560,-173011271680,503951654912,-539835400192,702223941632,-1013238136832,-775525105664,-116834156544,416011780096,102648684544,405222064128,-853529526272,-68407808000,-333591740416,-216430264320,-146739298304,764870983680
