-233513123840,450257715200,177231577088,353666924544,-468271529984,206231437312,427607195648,-505602277376,526146240512,-397170671616,-403793149952,-383956844544,-459371577344,-366739980288,446778114048,479144640512,-515819241472,-442942488576,309294825472,512232718336,-486114263040,211584614400,503463215104,243284131840,-324289363968,497975918592,268230230016,-537711411200,109821493248,297067577344,-447591809024,480361676800,379229503488,468358004736,-231425327104,-250736279552,-250168311808,516718231552,-454278840320,-364713705472,252302147584,-483048521728,250047447040,347143012352,-461421346816,-246652469248,461531447296,210521374720,-337327325184,-604728786944,-520844181504,-338935152640,168463663104,-297456828416,275016253440,-456266416128,192186384384,-467838959616,-216577638400,-489145237504,-474190577664,-492341428224,-461459947520,487084064768
233644408832,100883955712,-189483253760,-231248986112,-86751682560,-222621433856,-274322276352,-45598826496,33545730048,263862714368,21979369472,223799148544,-74009231360,251377860608,58494898176,39438741504,-16798694400,-71317815296,-245716811776,35227222016,-16557162496,-211802292224,49771102208,-217799802880,236788531200,51071066112,-192654589952,-44061114368,-170615980032,-229444042752,-27220623360,76717572096,8606445568,32463020032,176276291584,208963534848,267218567168,34006755328,-60459257856,228898734080,-241057382400,-39104626688,-218071973888,-205418004480,-19381792768,185534726144,58204426240,-241462362112,277969698816,-110521327616,-111001804800,193428094976,-194695151616,229076566016,-227856515072,-40176066560,-205035864064,-20711620608,188083781632,-7615719936,-49540288512,-33065971712,-38379315200,54463643648
-361732669440,-367042527232,343520739328,482840608768,379086503936,399949103104,483276423168,340122337280,-253757849600,-450709520384,-524369952768,-434102763520,389468291072,-439359242240,-312952389632,-419821453312,300292734976,544017678336,449707245568,-535801430016,366363672576,321550680064,-466483511296,377549553664,-506203275264,-215829741568,371300368384,397069942784,410676396032,494452768768,380477964288,-480485212160,463555788800,-401711824896,-341935783936,-327671808000,-413201203200,-436373225472,480464764928,-485514444800,447189680128,339217514496,364269043712,410185564160,325683314688,-368099590144,-494392836096,436270956544,-543549194240,-80164601856,283070627840,-358672498688,317001760768,-426931585024,350747295744,370713591808,440437899264,397150420992,-370249302016,221347102720,339902595072,298516086784,374364569600,-430917484544
216173707264,-645925044224,-169595355136,-242284216320,641274347520,-194431844352,-266177904640,711965147136,-671353143296,298999119872,-81621409792,240233955328,644453498880,252457271296,-682765647872,-656313417728,654782627840,681652060160,-250081853440,-650597498880,680587296768,-200576286720,-683813765120,-227042295808,252162195456,-668205711360,-200007335936,671893159936,-119390281728,-215849189376,619071340544,-700131508224,20656951296,-643380412416,197740183552,210304991232,224514818048,-677927124992,641654849536,246809214976,-218272727040,670569529344,-222863441920,-264248754176,607858130944,197178589184,-647238778880,-191601328128,243915702272,210558091264,674504179712,222891507712,-159014518784,218966376448,-236904349696,625962975232,-177738514432,630974054400,195321528320,661551579136,633533366272,687342288896,642860646400,-624895721472
5729092608,100296065024,-19970631680,65422843904,-132517888000,13532467200,68862476288,-118967156736,129942183936,-82117787648,212545503232,-74249502720,-116876582912,-70650167296,83420864512,117713068032,-102290989056,-168867086336,59703480320,157120921600,-101407391744,-6609887232,100021657600,40459993088,-64625504256,106209427456,30750664704,-131178471424,-58659704832,41080492032,-94407090176,124125396992,-171132600320,111981740032,-22445752320,-14479294464,-35182166016,130706948096,-96791109632,-47897915392,32308375552,-115760881664,28279169024,85562679296,-128026304512,-2105075200,137142771712,9549723648,-62715625472,51911770112,-143906979840,-27955650560,-30395858944,-27121977344,41989885952,-113626963968,-6748949504,-65604001792,-7997263872,-138638934016,-76875948032,-111963783168,-103615741952,109412253696
-215487512576,-49148719104,121772924928,109831888896,110641807360,33761476608,133494546432,206948007936,99874652160,36419158016,-307139117056,-44987789312,19482400768,38092967936,101029388288,-36339478528,81563820032,-200446935040,-88606916608,-50569818112,111413559296,94948270080,71279321088,-27163373568,11565891584,-51546693632,-87343013888,115989069824,46039318528,-113266221056,-138449567744,42745446400,383541936128,50964439040,-143321006080,-32904054784,-150563831808,-58434539520,-16894629888,-114052964352,-11630740480,70288031744,174442364928,20223981568,516851200,-116617363456,75169464320,-117286699008,-139455135744,-223236521984,-128186703872,-180688764928,132634140672,-82585927680,211615399936,-63168425984,-91760492544,-61870718976,75497152512,137677504512,-17775446016,116695162880,-55918264320,-107903950848
83332718592,-39776825344,-88722251776,-72157863936,63578689536,-91246403584,-19179368448,46893367296,-74646700032,33375660032,-531206995968,61723983872,58131591168,45564821504,-74651254784,-82999738368,86520217600,95533473792,-50899058688,-125023993856,60014530560,-67808112640,-69124169728,-67825033216,21778046976,-77674700800,-68980006912,68635648000,-57461690368,-36939661312,94902951936,-30005565440,554030202880,-61596110848,39214743552,77629038592,93517127680,-92609470464,51115180032,49486532608,-93023698944,63354572800,-73325428736,-47066939392,92057051136,78534918144,-49280176128,-86501171200,62879977472,-452340678656,74000711680,78585872384,-101855993856,77173907456,-88928600064,40898142208,-78179860480,51218812928,71439065088,78655488000,56924827648,88275763200,45575446528,-36572676096
-383388745728,-45594185728,346966851584,457283338240,129316438016,418455158784,418889039872,93455982592,3643590656,-415894667264,91945525248,-426795892736,73082347520,-396310118400,-41726791680,-31059691520,64443785216,137768976384,402188173312,-88383627264,71907950592,365589889024,-76117303296,360933031936,-414555471872,-33257562112,352868761600,77857456128,386805366784,454826000384,95331221504,-56879013888,-48634662912,-108449021952,-358319751168,-367731998720,-383616090112,-76595208192,102325035008,-454654099456,390315343872,64289030144,406380216320,385605697536,35251027968,-343194370048,-122328637440,364163301376,-477575577600,-27241805824,90794090496,-376626282496,356331126784,-418740436992,377239601152,100447125504,369315512320,78792105984,-372567015424,24979058688,91746607104,28267247616,98419171328,-93420355584
-113911283712,-261297061888,129217052672,69252489216,260415471616,81776754688,81545527296,293241126912,-243215892480,-39625863168,-179023282176,-58010677248,290686959616,-46836318208,-282778402816,-274208063488,234828922880,290611462144,46089732096,-251770339328,278353018880,91731025920,-288319307776,67302535168,-59794337792,-225143898112,67444695040,260921393152,141741490176,39425056768,222284480512,-302110343168,31275722752,-266170499072,-67208159232,-73616375808,-108755902464,-249165824000,233989357568,-70858547200,66762985472,286239981568,74292158464,43571978240,235740577792,-117695758336,-248488968192,98518302720,-60967165952,209458036736,224572866560,-98950971392,122866188288,-102419275776,99492085760,235029430272,84919943168,220121530368,-75671060480,263539720192,203036033024,303062581248,241740742656,-246123249664
-140610125824,-121586147328,131624591360,30406883328,68102782976,101478531072,32137512960,95155560448,-74643783680,-4554883072,-38375485440,-14064407552,113342013440,-17517301760,-123609366528,-68682567680,83039567872,108109225984,27883290624,-55208083456,42347483136,136464482304,-118949945344,97710587904,-25307297792,-99276603392,57689759744,73584959488,214765780992,43792465920,29888792576,-134811713536,-43072184320,-63324614656,-83265126400,-99210199040,-119931084800,-46372741120,78127833088,-25391859712,57403777024,91799527424,81454514176,42471370752,50400161792,-128474365952,-85032787968,124868222976,-31436267520,186718912512,139537399808,-86779379712,174461042688,-100902690816,89264553984,83285417984,134556147712,28315406336,-103164715008,89692233728,89309765632,128946683904,70976659456,-65923436544
-79507972096,170962567168,60649734144,134230401024,-176277340160,76178006016,161375223808,-191776784384,196372840448,-154568736768,-140096749568,-134078488576,-182910484480,-132292296704,188515008512,180241039360,-207517859840,-189934714880,104867364864,189424287744,-180557938688,71194877952,204205162496,70961938432,-124616146944,178148900864,80851779584,-201619472384,16720893,100397817856,-174402945024,203514855424,139556290560,198353895424,-86579216384,-78795882496,-83159138304,182277980160,-182875521024,-145703124992,88090869760,-169631662080,99871891456,116866899968,-157951737856,-79683919872,175368519680,59068174336,-138221223936,-268473597952,-193098416128,-108658204672,48143785984,-99855384576,106819346432,-187900592128,53932859392,-193512243200,-71631101952,-182790684672,-185368363008,-197330518016,-182239035392,198838648832
-5578862080,-110008778752,20008273920,-22043090944,131720798208,64419364864,-28767830016,7295083008,-61197025280,19051902976,-424405008384,37471940608,36960636928,27133593600,-25624875008,-117059272704,95710470144,84278263808,-15938586624,-140966051840,39822589952,-27728207872,-36366266368,-12730853376,17293694976,-95985885184,-1362574720,100786233344,20279609344,19210569728,101114454016,-79800442880,412160098304,-108314787840,41206771712,-1256020480,18601793536,-104868945920,83995156480,29382057984,27698876416,129514708992,6302323712,-89721995264,80772087808,19742703616,-132781703168,54977503232,-8718589952,-98842099712,116135591936,37236535296,14138429440,12449985536,-47906701312,105495019520,8501523968,34987233280,-47251521536,50053840896,43877433344,51561988096,31768227840,-81655832576
-257781530624,153653870592,286495539200,312621432832,-133240340480,307459260416,331712757760,-154882424832,83800678400,-281503924224,-319532793856,-263833337856,-109590986752,-293683658752,89554944000,109498212352,-114225643520,-41705095168,251582005248,49087467520,-111731687424,293897666560,117619408896,232500887552,-276252098560,104591474688,263465189376,-74508779520,294752681984,292514070528,-94312644608,129545789440,342667132928,102150168576,-261155733504,-271868346368,-260560633856,68850229248,-119482687488,-322040922112,269372391424,-135057965056,276977188864,283999174656,-59855413248,-262408749056,75102060544,245000601600,-292253958144,-437847130112,-130366963712,-288808665088,262946619392,-269314785280,238106656768,-107497529344,259393208320,-130041479168,-296540241920,-17579900928,-121265250304,-84433756160,-93039083520,125466099712
-312618713088,92636831744,307085148160,185879822336,-114572337152,265839607808,222536925184,-130968231936,20752932864,-278496051200,-243134988288,-143940452352,-72468250624,-230102482944,156911370240,118744350720,-61571022848,-145357750272,240144400384,64222543872,-135781998592,331048452096,155375386624,247122149376,-248872845312,32362702848,233679044608,-95845679104,343105470464,192485441536,-127970844672,143133704192,285410459648,131606659072,-275193167872,-270055194624,-237098237952,96492666880,-154280427520,-260219879424,263209222144,-100250714112,285926391808,235106697216,15333191680,-267084529664,101305245696,226622767104,-200066039808,-231523090432,-2283083520,-220969746432,277967470592,-224171098112,233396994048,-96802930688,270240710656,-143312781312,-296558166016,-32350906368,-56975695872,-106441351168,-131937107968,75613003776
-107148615680,-253193175040,47807213568,76525674496,196154589184,105217236992,30805696512,184697487360,-197348278272,-38144012288,179394772992,-6267376640,203815796736,-44783382528,-263512260608,-144571465728,212199211008,91832844288,99973103616,-112868294656,167746437120,49399574528,-165286625280,26316781568,-21488754688,-285062561792,47862562816,222167744512,124331622400,31203928064,150886187008,-250361462784,-181251014656,-186253131776,-53456650240,-51585916928,-82101600256,-212171669504,193630683136,-40786022400,86374834176,224848969728,75844632576,43286720512,182652338176,-81620221952,-203566989312,97284931584,-72767168512,170378772480,291119104000,-54923591680,118647603200,-93474619392,104830156800,213377007616,121423020032,205950009344,-84505985024,179720552448,254396252160,234484137984,173203570688,-213723774976
-126589272064,-48534585344,176573890560,-227441952,-16651679744,84721418240,44371783680,-17542078464,-63495376896,31262912512,-500113571840,-6163934208,-4231540480,34152067072,125446037504,-118671605760,-18185230336,82535972864,63523487744,-66925289472,-42825043968,54221869056,96745963520,80209534976,-21806376960,55867604992,73773514752,1755587456,117079334912,-8824962048,-96775561216,33809063936,567179870208,54558339072,-66999926784,-31848511488,9297727488,-52433584128,-73026035712,-5583504896,47817502720,114192384000,104937766912,-34391375872,108710494208,-57656909824,-80479485952,-3461116672,-11949957120,-375295082496,-91500249088,-77057073152,49935106048,-66603433984,40988336128,-48211197952,-13283776512,-122242179072,-87998390272,102800105472,-53402415104,-46661214208,-61920497664,-26375165952
-46376304640,196577034240,50167377920,71046553600,-197207441408,51843264512,121807585280,-229950947328,181776728064,-117496512512,-76654870528,-79312732160,-175013281792,-102049071104,185156255744,157409624064,-183146119168,-187786838016,85266210816,145258610688,-191867469824,67984551936,197265932288,62340104192,-103898914816,198160334848,69064286208,-171493605376,41687764992,78176509952,-145773019136,185276334080,117043396608,190339825664,-62835965952,-52192784384,-60073869312,160279412736,-165633867776,-94270668800,66888507392,-204753862656,52744749056,82185486336,-153210093568,-48113213440,171615649792,54292013056,-82987008000,-150933602304,-216040652800,-66015686656,31522762752,-58238210048,58962321408,-179050856448,52292694016,-170675191808,-56067411968,-178439929856,-186612465664,-183474323456,-190404591616,184212996096
339098042368,101912862720,-367924379648,-416648298496,-95287050240,-378323238912,-468397162496,-137902391296,109815095296,419129065472,366113882112,375840210944,-115393478656,398089781248,101697667072,130389901312,-141603160064,-89831432192,-375673421824,157389471744,-141132693504,-353961607168,102015115264,-337964171264,435459948544,95017230336,-346655457280,-114834096128,-400657252352,-393205547008,-151797268480,98707791872,-366219689984,99436904448,355739402240,352300662784,334205779968,157746036736,-127290179584,415278006272,-360316469248,-114862432256,-361772417024,-388557963264,-132579639296,332496797696,124326223872,-318614011904,402601771008,294631047168,-72818876416,353573601280,-313659949056,343900749824,-336388292608,-81252827136,-325560238080,-123302772736,384133726208,-102780264448,-91977482240,-120760057856,-82836176896,109128171520
-177014767616,24283592704,175818424320,224140673024,-21066696704,202000269312,260468490240,-45703675904,-22571603968,-260652318720,-1055993626624,-188586835968,-8022521856,-244185874432,-9035157504,-41241100288,-13471381504,37292830720,166101434368,-95870427136,22370598912,216054104064,3172839936,134912991232,-231221673984,6932215808,181721661440,6033614336,173016383488,232051671040,45942173696,27110774784,1033070903296,36572286976,-187975450624,-194356428800,-181326086144,-39379402752,12604365824,-287780306944,193192181760,-13448744960,200655339520,161413365760,31926859776,-157904945152,-31204964352,174465433600,-234470686720,-686064140288,-16085649408,-191102304256,172191301632,-206282915840,129340588032,-7883270656,194455896064,-10450739200,-204508938240,8219610624,-20580687872,-22441850880,-11096053760,42782822400
62442156032,-26245419008,-33076160512,-39346929664,-41872859136,-68991811584,3080505088,-15258562560,167770718208,150742515712,342902013952,53901500416,-170094395392,130258821120,137974579200,31724058624,-50269057024,-220113584128,-178504073216,28595486720,-141810057216,-147885768704,6068151296,-21784076288,124946685952,97207836672,-111460425728,-52225773568,-168996159488,-201949052928,-214967615488,7964191744,-281736052736,40263667712,92501516288,74012057600,-79665643520,130513829888,-108711780352,154229456896,-56706555904,3630566912,-39377186816,18912024576,-215595909120,-8989143040,209039032320,-40612069376,28637396992,211992543232,-251786559488,17962176512,-55925800960,126742913024,-14911422464,-85530525696,-201962733568,-52522004480,51407929344,-83957628928,-197931188224,7102136832,-168107687936,-40285376512
-76643155968,-53368729600,142841708544,195010002944,69720580096,148396294144,171113496576,109324304384,-144813457408,-53039099904,119118176256,-133821784064,18606913536,-110201167872,-111542460416,-80571367424,31723374592,64817160192,21029281792,-57658593280,150199058432,123264671744,-27030714368,41217134592,-37880147968,-133359083520,169691398144,29314084864,135324254208,151218667520,64265867264,77229694976,-27836217344,-117732114432,-19175045120,-210153504768,-57033281536,-66010673152,47550857216,-170912464896,117348630528,159204032512,141336920064,97835876352,79674490880,-125253271552,14609218560,83159760896,-46780416000,42774335488,85368807424,-216257314816,188262858752,-77334790144,113341997056,-6259334656,48192045056,-31840919552,-117931909120,180983480320,48299286528,104915976192,131759456256,72951070720
230091980800,50999685120,-226725036032,-157958193152,-27448193024,-163532603392,-145598152704,-264331182080,117204656128,303442984960,595697991680,148759609344,-21801963520,226383233024,-69724200960,57980239872,-175566569472,-117743296512,-109353484288,139752898560,-135524098048,-345727893504,63486791680,-240069443584,163149316096,118102974464,-112801931264,48042237952,-162192539648,-177588387840,-74169352192,102303506432,-474363527168,-144244834304,372535853056,289386528768,239825698816,-7571656192,1469883392,283647180800,-50257518592,-18443192320,-243021299712,-66267742208,-56655622144,153831227392,30042034176,-108357926912,182143254528,380218376192,-113248133120,110935957504,-296283930624,298908876800,-117448531968,-224923877376,-185840926720,-86864232448,291839803392,-43571580928,7787139584,-48132489216,23203006464,102142140416
101070004224,90283548672,-120655208448,-89575948288,-68570927104,-125051404288,-117637881856,-49462583296,79736815616,88158519296,97821040640,99642417152,-29258301440,70538469376,55555289088,154882719744,-95542386688,-182053388288,-53484179456,241583587328,-53192019968,-123925856256,89549955072,-88238948352,75730182144,86822273024,-101027012608,-62422859776,-152630902784,-133233754112,-98441895936,85293187072,-111710314496,58254495744,77956284416,114912780288,74652139520,123302830080,-110456102912,97874116608,-84093173760,-112415432704,-96854261760,-62191411200,-92852150272,98877218816,175695118336,-114479054848,89931751424,-47544688640,-70414409728,117990924288,-124696518656,98538323968,-60826820608,-86359785472,-91787583488,-1970545408,142594981888,-109012000768,-36878409728,-59949142016,-42807701504,6304194560
-207255732224,220735668224,163326574592,194345926656,-189374611456,183126097920,204110512128,-342535536640,331209932800,-146366218240,255423594496,-189403250688,-290015641600,-146569101312,256799571968,302511882240,-304158179328,-242679676928,153346441216,339651067904,-287091884032,164717330432,346300841984,132610277376,-101468667904,243509116928,146937151488,-282788823040,205450969088,199078510592,-280863866880,321111228416,-245489549312,259542106112,-120343715840,-192819216384,-124873146368,274150113280,-295532789760,-181120008192,144306831360,-203990335488,176969678848,128227999744,-260323459072,-157835329536,240908238848,145857806336,-181749383168,5252441088,-246897541120,-234466738176,209457594368,-217121308672,170680680448,-217818906624,155431419904,-323340435456,-123479179264,-245745582080,-247568859136,-284910911488,-277907636224,304928784384
116799913984,193316438016,-159827853312,-150935224320,-191276285952,-138940334080,-179054198784,-212174176256,240670965760,155737194496,352473612288,149410267136,-233689300992,185099370496,210692374528,182839771136,-192840974336,-166900432896,-131857235968,202155376640,-214456664064,-124647120896,187952807936,-119411195904,179785482240,220318253056,-167615954944,-222212554752,-173873659904,-155750678528,-223130615808,248803557376,-387719593984,257663746048,109474578432,155433353216,118692233216,223683215360,-235007475712,184862834688,-171803820032,-193342390272,-137370771456,-155728297984,-226040414208,153554305024,209796595712,-138115530752,139794415616,181659369472,-214420258816,162519072768,-125910499328,114620047360,-118737534976,-210515623936,-154350600192,-242803048448,165781782528,-201764651008,-213087305728,-235968184320,-215023337472,221779951616
209841455104,220041986048,-266086973440,-101000011776,-189563420672,-203398660096,-83372220416,-240327737344,266919313408,98235449344,-114703572992,80553762816,-254773903360,113762476032,142063960064,207700180992,-194713518080,-187638251520,-118681935872,185655918592,-182066921472,-248876974080,184253497344,-206902509568,123304837120,204077268992,-187715485696,-221486120960,-294107414528,-116224851968,-138887086080,246700539904,66727546880,185033342976,160598409216,215057645568,191155126272,192571310080,-163861053440,130042421248,-200329183232,-223056642048,-212060258304,-170080747520,-241173446656,240370155520,196615749632,-196086906880,94809808896,-141555023872,-277661515776,178791186432,-237182304256,139997036544,-187557871616,-197670076416,-212828078080,-154127564800,225221017600,-247555620864,-201916104704,-188503015424,-191867813888,211527319552
-132748017664,-55700049920,134175637504,215901405184,5838631424,147044909056,280477761536,49273307136,-47662342144,-251630649344,3005889280,-190694064128,30833344512,-224977698816,-75522170880,1474093952,-17991924,651444416,236433833984,55730724864,9893005312,153017319424,-85579907072,178856116224,-197490425856,-38331981824,185624313856,-16352389120,135300382720,149868937216,-9967745024,-43586584576,-2351424256,-17586849792,-145635065856,-182402695168,-227873505280,13033404416,-4530811904,-194905194496,190668177408,30400894976,159355191296,232520499200,-29670821888,-166546145280,60652875776,190720933888,-169674719232,-168332967936,-12075026432,-166847004672,152282234880,-170447601664,188258779136,504541568,140551487488,41790119936,-167073824768,-15908880384,7298387968,76561588224,20829179904,-12454227968
-22128232448,-252708372480,29077972992,-21930094592,273001758720,-23314042880,-5666350592,299470028800,-263969243136,1851911936,-103700742144,-6374366720,278232236032,-4220526080,-260672339968,-255052349440,234711465984,301708869632,-17736140800,-264789016576,283087831040,7811083776,-256817135616,-9081441280,-15056381952,-228656332800,-3021144576,248673861632,44347994112,10013026304,269043417088,-306785386496,29915992064,-289598242816,1507769600,-1368243840,444895872,-263005405184,289289404416,-2073228032,8861880320,221029613568,-19290923008,-36087001088,269337886720,-9625602048,-269548929024,9607104512,-17652418560,226622013440,243205259264,2056777856,12033771520,-4999127552,2399944448,233559605248,18502230016,257709375488,3519631872,232324464640,245171830784,260735778816,257563262976,-284113141760
184226758656,128057884672,-163085221888,-210269831168,-124198502400,-187313995776,-208288251904,-92261752832,29402683392,180268793856,-341053276160,209373642752,-144674193408,199862665216,111625166848,25064161280,-79602515968,-81982570496,-222303731712,14834333696,-66158194688,-142424981504,117181530112,-205240745984,198434406400,76081086464,-196696932352,-105201352704,-208958029824,-228575952896,-60339347456,162286518272,255297814528,173353418752,135651409920,179130351616,192270843904,81034256384,-142271627264,173348126720,-217535741952,-78050164736,-167656161280,-244876328960,-47391125504,207585148928,130938077184,-214465708032,220052406272,-174970863616,-134694797312,198210027520,-180296138752,198176391168,-216156110848,-110834917376,-227498475520,-137298403328,173669138432,-24934897664,-171782881280,-70600417280,-144645799936,161400061952
-8752264192,-42038534144,13546980352,-99309748224,-17192062976,-66211098624,-103609942016,66604945408,-54762610688,116170760192,317283631104,120340824064,14657983488,103842832384,34947497984,100356268032,-21946202112,-53040353280,-62837325824,69856165888,-51131056128,-27893618688,11000793088,-20850288640,151101751296,-46890483712,-24507033600,-80872587264,23877963776,-146544328704,-140924649472,31604928512,-314411319296,11348629504,53209980928,4699794944,10380299264,86485180416,-79387303936,89440813056,-42808627200,10896567296,-35955847168,-87589797888,188686336,-28880953344,82109202432,-24064057344,132837687296,187382054912,44349280256,16576301056,59623186432,19116132352,-11319796736,1411399936,-8011610112,-44501864448,20128448512,-6347898880,452305472,17211459584,-13933893632,-31785738240
69949022208,-27198883840,-67307110400,80775012352,130141831168,-22299779072,92920791040,20993509376,-114594643968,-116297089024,-448381943808,-55862296576,63802556416,-77581156352,-103134134272,-56171814912,24403890176,104350031872,46462328832,-115737149440,102493921280,-89605595136,-77127663616,-74285236224,-100493107200,-52834746368,36251525120,108357025792,-110396850176,58071957504,148550270976,-13865652224,451183181824,-186171310080,36236259328,7086808064,63785095168,-152998019072,71411269632,-117808504832,56048357376,87094976512,-15212605440,53868752896,122000064512,33254785024,-43660914688,-8636023808,-63074603008,-644957208576,58000101376,22938443776,-117339013120,59618394112,-18528831488,25117784064,-50024837120,85192835072,13210105856,81773715456,23526404096,92030812160,98018304000,-47393345536
-139522392064,-277432369152,158532091904,126541766656,282699759616,156691677184,121756680192,315522777088,-253025828864,-101002706944,29901006848,-108947169280,259997040640,-110977810432,-284115632128,-252283371520,294108954624,271924641792,110319034368,-239940091904,268063965184,138251190272,-285861249024,136737923072,-120355790848,-271120285696,114462302208,289223639040,209896914944,144930504704,265920790528,-315933163520,-59556700160,-288602128384,-128723107840,-139979456512,-136415551488,-271654846464,272952541184,-105123414016,131590299648,270118141952,130566021120,131995967488,238701674496,-137232285696,-277717123072,146905317376,-122121576448,213007368192,317368795136,-117289590784,160848969728,-122460692480,133922111488,279219437568,151493869568,280179998720,-159299141632,267112759296,289565769728,288013058048,263423049728,-297014493184
-916662255616,-440556224512,979036340224,992952713216,437388148736,1016858804224,1015189995520,497504911360,-433789140992,-880713465856,-445483483136,-861596090368,445961011200,-889889882112,-462211907584,-411273723904,448300974080,433027252224,904137670656,-346691338240,459189092352,934648545280,-465632264192,870897549312,-916321402880,-458819403776,866473279488,472874319872,1116271804416,940547244032,396668731392,-499809189888,571853635584,-477358817280,-863813369856,-951789355008,-908511477760,-454130237440,421475123200,-924834922496,929469759488,477819273216,923569815552,951364681728,391312474112,-910384627712,-424646508544,889376997376,-935725826048,-774891110400,474202406912,-905924837376,957417717760,-879472476160,914717343744,437002764288,902277824512,441044140032,-985780518912,486035423232,450738880512,488567570432,448793804800,-459485020160
177507139584,123847647232,-192644055040,-155202551808,-120606949376,-181365506048,-133365891072,-152568610816,115833626624,133244592128,-15921371136,131878158336,-137989144576,134235570176,112081633280,87369744384,-106448338944,-116526907392,-138230857728,40647057408,-121685696512,-180435009536,124342067200,-177331027968,145704730624,111225044992,-154071760896,-108133941248,-209690116096,-141398327296,-82998878208,167472250880,43916488704,134877691904,150096953344,166999506944,162218754048,89681469440,-102737805312,148335820800,-158181883904,-122837172224,-161437433856,-156687155200,-113161887744,183676534784,116124966912,-168785215488,149568372736,-43584299008,-149738029056,169835757568,-177576476672,165625331712,-171752652800,-135243276288,-179440140288,-130179063808,171800297472,-131190652928,-124580831232,-104320393216,-138097868800,149707030528
-20809367552,-47058026496,22508961792,-2588006400,51680661504,662689536,23477831680,73839738880,-59567689728,-22835146752,-162942992384,-22765477888,48290742272,-8439535104,-42409500672,-40518737920,52924219392,57168109568,28386224128,-25901895680,46402043904,41228197888,-61693100032,32649121792,-6033689088,-47975268352,21840322560,36750221312,51427717120,20980412416,29225707520,-50131714048,216328994816,-51222429696,-27167655936,-32203327488,-30865678336,-29382678528,45889298432,-15854162944,13856233472,29966903296,13623729152,26411843584,36480249856,-34739171328,-27867328512,10125875200,1002479808,-379900624896,39515820032,-14561730560,42744643584,-7020320256,30713083904,40536621056,27568173056,48464281600,-9572328448,41423306752,66013810688,57849192448,55471529984,-58333892608
29064538112,81737441280,37681987584,106103562240,-96415891456,122384556032,118426066944,-92767387648,-45911134208,-115784327168,-81176920064,-111363145728,-34161295360,-100163674112,-64067969024,-5720557568,-10098624512,78770905088,184324341760,93685145600,70840328192,114180407296,-64422789120,145300176896,-134669139968,22344706048,150645211136,50212085760,98813067264,162762784768,23913904128,24354041856,277263450112,-5122777600,-58030120960,-83106865152,-73974104064,-1066392768,-14525609984,-67174006784,100829667328,-52320432128,81590009856,194957754368,-18223560704,-37480939520,45630758912,82370813952,-45453889536,-151204134912,-49690980352,-49410248704,10166668288,-31378216960,14421547008,-4284491520,63072399360,81731239936,-61618085888,63944495104,93121748992,-63626797056,96240394240,-7228380160
8910918656,158693310464,13566376960,69854896128,-129347706880,41133514752,51749785600,-137967304704,153856442368,-62311489536,82306957312,-104870002688,-137496936448,-67091501056,152423792640,105725165568,-138848616448,-33007835136,55642181632,88090787840,-83751133184,8130790400,105961095168,45154414592,-85474828288,193183989760,40029126656,-82828247040,-33724360704,100407771136,-71749345280,96228294656,-13442477056,85847482368,-30304462848,-4936443904,-25816043520,98743156736,-58662424576,-55114375168,38989959168,-176085499904,26443776000,58940493824,-125964582912,6140160000,58130272256,27139717120,-98916851712,-36291977216,-211455606784,-29370669056,-28079360000,-30272065536,10072312832,-87505469440,7787175936,-52369752064,-17703852032,-109855383552,-105083527168,-188671000576,-60844154880,49624809472
-52878127104,-321336705024,63094624256,113011671040,328422752256,75270258688,88142209024,306377064448,-278749741056,-37208915968,308981104640,-101199921152,291789045760,-64155279360,-315265548288,-255343001600,263682523136,317831610368,35861348352,-211944472576,351565905920,-1645434624,-319640862720,38946820096,-66248359936,-273039130624,61971357696,349379821568,-16980545536,70437076992,279004577792,-346661552128,-391761952768,-403799408640,-27137081344,-52056563712,-59860463616,-311906500608,290866495488,-102827892736,86946340864,361817964544,80299540480,59863011328,266742366208,-57324314624,-292872781824,30321389568,-118211616768,711378206720,255430311936,-104477638656,8229518336,-64569929728,38115688448,317276913664,-5564172800,335391555584,-44435533824,359680016384,307966410752,320466223104,309874917376,-377144082432
-93215907840,-82741805056,156561047552,139324719104,115181060096,118457016320,149430337536,130858434560,-153650085888,-69031092224,-561087840256,-68955660288,160562085888,-129312825344,-118075809792,-69172445184,144408412160,37175934976,29098729472,-205709426688,176028467200,90645553152,-101968920576,-3995691264,-131053805568,-159453593600,109329915904,231329628160,178916589568,127638978560,164122787840,-153567608832,645855903744,-207643639808,-85662892032,-105992216576,-23537238016,-246463479808,184271290368,-189321609216,119355875328,103122550784,88960655360,85324169216,182423650304,-131386966016,-159877398528,60059914240,-116938153984,-558966243328,131870203904,-127106826240,115631153152,-65623851008,60171259904,137381183488,137541402624,147496255488,-138845290496,185013288960,134313328640,191554945024,130213847040,-151970840576
32449554432,16276898816,-100074782720,-32532822016,9868334080,-117212405760,-26443814912,-23251959808,80654336000,33213007872,-213747351552,19350517760,-70410100736,50927448064,72034099200,42122153984,-129698103296,-3228757248,-167243005952,-33486446592,-54725808128,-82942050304,77049389056,-146596675584,133104828416,47987150848,-80926965760,-135960813568,-128986071040,-66636234752,-57137500160,98645753856,58944258048,81825890304,109448806400,66629189632,71089422336,80652681216,-38033670144,-41943302144,-79473893376,-15282852864,-74166181888,-153365757952,-46807924736,30112225280,12650180608,-45011709952,26112989184,-86810402816,-37931356160,-15172662272,-10977381376,9314734080,-55121104896,-54565224448,-48283176960,-152039112704,111892062208,-102286303232,-114314469376,-64771387392,-85508571136,169029992448
-235852578816,-16117934080,230783320064,143478079488,-60371288064,246207152128,-14281705472,-1559294848,78156390400,-51308765184,439674699776,-59721650176,8863253504,-47691980800,89485475840,-29767919616,-83512893440,-168508620800,94962655232,113266098176,-26305208320,197224284160,3669160448,177492705280,-97200971776,120233730048,119476371456,-36335853568,204542115840,49956200448,-111685427200,-27981903872,-490902323200,144092987392,-114111447040,-148201570304,-273488674816,96701243392,-32180416512,-86273056768,220207661056,-10975305728,215453958144,68121616384,-124312870912,-187916779520,57603375104,250494320640,-144860987392,614658473984,-94446084096,-137362833408,242314756096,-198890323968,253844324352,-77843021824,206523006976,-48214355968,-150497591296,-132568981504,-99887276032,-114672181248,-54265356288,71151984640
-78699020288,-86719791104,94329372672,134939041792,69125144576,108192284672,181769043968,134554976256,-102119735296,-136064892928,416352960512,-151643553792,24840919040,-141876985856,-76632752128,-36360388608,67042615296,63455748096,164200759296,-44370776064,106773643264,72877834240,-29121449984,106662666240,-82628272128,-113129103360,122499227648,23611836416,58496532480,121008250880,55121715200,-27513288704,-353775878144,-52557139968,-61424939008,-143223439360,-148684980224,-27854065664,77791887360,-104957337600,129759887360,43757019136,100937547776,91676459008,25206624256,-64667086848,-16017353728,100339187712,-140199706624,337690525696,21158725632,-102755352576,142049689600,-116166369280,119449362432,63846363136,69854937088,86462218240,-90489741312,34636959744,48717185024,60380966912,82792914944,-92645490688
26833262592,-107462893568,-35003846656,10095652864,102055559168,-19829182464,9336621056,135194927104,-148941357056,-31316076544,-693263859712,-16563356672,127961415680,-26463338496,-152993562624,-146082119680,108244246528,167212056576,12436659200,-187954708480,141475102720,-25705172992,-139969200128,-16649624576,-27538057216,-109803085824,3106489600,124260859904,-47516700672,14146554880,144344334336,-129687470080,707882975232,-124745859072,-943156672,10857639936,19505571840,-136467324928,144073031680,-30286082048,2829623040,114677538816,-11497149440,11345040384,152676941824,20428374016,-136339857408,-9976265728,-14323592192,-624725458944,123616149504,20633958400,-48951156736,6739604992,-5810235392,106076733440,-4176548352,131139559424,12297989120,114108964864,118052888576,121450971136,127883001856,-116237410304
-42799247360,-10266836992,-95386771456,-58132307968,69346893824,-84766851072,-63026012160,187342471168,167750877184,192691945472,12249266176,-65549688832,-135243759616,34716659712,-103580991488,-9498087424,89038348288,142229520384,-156396519424,109670850560,22626314240,-12949140480,129207525376,-123284275200,236640305152,-6769491968,-145372102656,2597694976,86105620480,16603755520,97629511680,-121405644800,-160198393856,27774457856,-111546957824,46212866048,159803932672,-73914245120,157332652032,161316208640,-175135916032,-122757627904,-183389618176,37721165824,-49087741952,75958280192,-148554727424,-221287481344,-47457890304,152847417344,63723114496,-35877576704,43775950848,70665281536,47871111168,46428786688,-30707896320,62046593024,57443184640,192800243712,180332118016,96640745472,112037666816,7487503360
-118302892032,-134898188288,122637434880,64064491520,97058357248,112897818624,42703507456,123199725568,-91196334080,-64642994176,37702488064,-64189083648,124586426368,-44488564736,-157638787072,-120976392192,141635600384,125580959744,66219868160,-81327603712,80673595392,141456736256,-146886197248,119964041216,-49738194944,-128227115008,96501227520,108351397888,246135259136,77192986624,128218464256,-188370944000,-194075721728,-104524062720,-118360113152,-115582779392,-80268140544,-106977304576,129134960640,-39339712512,75182653440,128486834176,84454219776,138024992768,96268591104,-155366785024,-149029093376,136715616256,-33929715712,355630612480,171365171200,-107445862400,160687194112,-85843968000,108737650688,126789500928,162771648512,122283679744,-160115359744,105065832448,142989099008,155782414336,114844327936,-78259290112
-264412282880,-293623365632,242918064128,291403890688,237891256320,292307533824,356096901120,217109807104,-204043714560,-304405741568,-107420041216,-308378042368,186969587712,-279350771712,-277703655424,-411791196160,244124581888,341646245888,294283509760,-359144390656,252660285440,260193550336,-214140485632,261117116416,-292001939456,-213938307072,223455150080,227391586304,267469635584,302266155008,297959227392,-283512307712,32124112896,-165574688768,-237488521216,-253454712832,-299165220864,-295653277696,278689611776,-246031024128,270386397184,287120687104,261809995776,263141867520,228011393024,-194744713216,-317206560768,280964431872,-330621943808,130592497664,172986531840,-242628001792,250631782400,-274436669440,259950936064,193513963520,231182729216,215421747200,-260221468672,213960441856,186424999936,243303579648,182533324800,-187280343040
166150930432,109939023872,-190021664768,-170012082176,-168267890688,-202127278080,-56043462656,-199967637504,60606906368,107913691136,-350599348224,170981408768,-103132717056,85757558784,160023101440,85556355072,-119761240064,-153018761216,-121725435904,58851938304,-122395344896,-172814336000,205634797568,-204764938240,89240231936,99935240192,-160882622464,-60040704000,-282832338944,-170372612096,-164725964800,186737311744,506153730048,215810703360,126578548736,216125177856,180832649216,34132799488,-124297773056,102447284224,-164664360960,-165098192896,-152406458368,-189880664064,-43609681920,240117121024,108131442688,-259074457600,125785964544,-307829047296,-133169987584,175856599040,-241517674496,151069016064,-210493849600,-177585602560,-215131717632,-169649258496,216864604160,-36496982016,-105917063168,-139379720192,-169261121536,91377852416
-300549767168,636727656448,272169861120,387334766592,-641479540736,320502464512,443997814784,-661453340672,629316452352,-441109905408,-216736612352,-382350950400,-614984974336,-383522832384,658615959552,631607721984,-589502742528,-655833104384,380006629376,594665275392,-628916027392,309501263872,637004480512,309930491904,-410915340288,616246411264,315493482496,-640692584448,258459369472,369800839168,-578477621248,715847761920,431692939264,630850977792,-319980601344,-318027169792,-307381665792,634070368256,-617177874432,-404739129344,327853015040,-646415646720,343830069248,412519333888,-584034615296,-289776074752,607664406528,265591816192,-380540747776,-927251562496,-644806082560,-331703910400,250322059264,-334773321728,306882281472,-588912132096,269316571136,-597662957568,-302082326528,-625483644928,-584432222208,-653418299392,-606698405888,603850014720
41667325952,18158848000,-91397709824,53670014976,-11632650240,-43503820800,141752909824,-53315575808,67346182144,-39963222016,-737633632256,-59093393408,-33122996224,-39127052288,-30192576512,20668719104,-51825041408,72209661952,38392246272,-86061580288,-39926132736,-81847672832,-22286964736,-58641829888,-16105197568,32070232064,-33008713728,-64586166272,-41789313024,50183139328,6059177472,104846196736,698950025216,75137933312,52727590912,81798193152,-4399319040,25159761920,13861586944,-33645987840,-23820111872,-78138982400,-53656756224,-66289414144,-76023562240,78291853312,-19904399360,2850002944,-84818821120,-411184332800,-81335255040,1515436928,-42862321664,-54451646464,-64941985792,-60046045184,-15713992704,-58756022272,76025929728,-117356290048,-45076254720,-26746798080,-41561767936,97368924160
-238588035072,-112128909312,284353134592,220084617216,97495064576,271596453888,231953416192,108294053888,-126829821952,-197135876096,-318677975040,-188732375040,92060762112,-196881956864,-143683403776,-152528830464,124258246656,106980990976,201575284736,-130537431040,104910045184,259845734400,-123640520704,235101601792,-214340157440,-110847328256,206151712768,105087557632,341326135296,226329264128,120710922240,-114106605568,333860012032,-93551910912,-216094556160,-250688045056,-223208210432,-117338431488,97975959552,-193984167936,229795594240,125401423872,228089708544,241104158720,92254576640,-248747180032,-106430406656,255482363904,-207450898432,-371652263936,114263638016,-220539092992,270439137280,-211967131648,219628175360,79732563968,253357850624,88150007808,-280385191936,119351033856,87390732288,141057851392,85139275776,-69671354368
514228420608,-140600115200,-517863342080,-431763914752,209402675200,-542233722880,-353865400320,191398166528,-227750297600,307508543488,-400554229760,356223385600,172224118784,321099890688,-217085657088,-173988921344,205332267008,219253653504,-378417348608,-276118110208,228993351680,-500570914816,-183546413056,-467673939968,319836028928,-202613686272,-410493583360,198613368832,-575112347648,-381685563392,287197659136,-141224509440,384137461760,-254848008192,393172713472,464312008704,507272331264,-253660233728,212783005696,356566892544,-438536732672,139749523456,-488674656256,-390637027328,245656256512,473520406528,-169378807808,-482579316736,396460818432,-319307317248,167484424192,470354034688,-556585713664,468216119296,-480054902784,166383140864,-456650063872,246194552832,473957466112,169751150592,174011973632,218409861120,172277006336,-222022008832
-37232713728,-169780854784,49732665344,70909755392,157947592704,55077498880,64525000704,194097201152,-154807795712,-42910306304,-65685270528,-56995856384,174393802752,-57994592256,-193838268416,-167292633088,151380590592,153652690944,31384182784,-154228506624,186692534272,44597170176,-187019608064,38054490112,-56729411584,-166849298432,42551648256,175312355328,43589840896,54730964992,166761185280,-214905274368,67125886976,-176663986176,-30552375296,-58828283904,-66434334720,-166192054272,181072969728,-58860208128,57183735808,170255138816,38818996224,41045434368,138624729088,-48116441088,-160635289600,63699881984,-60197605376,-43612545024,164531421184,-48269656064,57954263040,-57836888064,52998680576,166696026112,64747327488,185599410176,-57248858112,155788148736,148944863232,184558387200,168897511424,-161695285248
114033614848,82224988160,-72833589248,-182367141888,-111500779520,-103345192960,-149066465280,-94797733888,-53667958784,123922399232,-492912738304,134879633408,-13721439232,104699969536,-73810739200,-4606831616,-78498971648,-31906373632,-143770779648,75339816960,-107483217920,-67794001920,43523170304,-126670823424,127123234816,65315737600,-109769883648,-28776304640,-78976442368,-167936917504,21846894592,-33973000192,376830918656,67444977664,109440557056,147317833728,89671925760,52768718848,-31518969856,160060080128,-98384379904,-125224198144,-161435500544,-122417176576,-4340698112,112895393792,55092277248,-63863341056,164725686272,-284195454976,-64470458368,118073524224,-97852850176,150747807744,-112161226752,-90116890624,-85965930496,-33083660288,76460097536,34519085056,-112634830848,15423442944,-40802238464,104270831616
51978240000,288367083520,-65856868352,-24215271424,-262684557312,-44066295808,-33621579776,-297071869952,308844822528,42991296512,-90375380992,33110304768,-282695958528,30726846464,314674577408,300056641536,-279233200128,-307076923392,-32696492032,241472061440,-301483786240,-66497679360,292858658816,-39680823296,42768818176,280440668160,-34751062016,-278415540224,-90661199872,-53649408000,-279099408384,327550205952,229890359296,273471291392,55394004992,49571594240,50187583488,289838104576,-281548193792,26705809408,-41805586432,-302349090816,-52051660800,-27203547136,-263592886272,47496167424,277431091200,-38497345536,17431500800,-538972422144,-298614358016,48294248448,-52678905856,45556514816,-35416444928,-270959263744,-51023327232,-272784506880,54948466688,-307276283904,-264783740928,-307598229504,-267639750656,258076983296
-22349043712,-85777711104,-36748824576,-47519158272,30939396096,-109351313408,-7362897408,142382989312,-162307489792,-21543991296,91982290944,79258378240,73869828096,-40120426496,18198083584,135002832896,-15131591680,-38271348736,-36377485312,65931591680,98083749888,49358385152,75836768256,-46715125760,148747272192,-205130809344,25954668544,-85910634496,-134518898688,-97990590464,-144464478208,22493491200,-31974789120,60145721344,42942914560,-117527019520,-87305912320,97712504832,-74733264896,-80931987456,-41196089344,11408030720,23644231680,-175295053824,53545504768,-5719781888,122150830080,-70064087040,87506894848,-32592089088,162544402432,-30084331520,148254326784,-82147278848,-22973784064,123175559168,-30773798912,-55546535936,82688286720,71607853056,44808437760,30421035008,32426577920,-91736162304
17985007616,159702237184,-50502860800,73310175232,-160446136320,24670789632,5781470720,-203477172224,193389608960,-70941581312,181569257472,-47565705216,-191797788672,-24775364608,217421987840,176901062656,-208093511680,-153684574208,26184321024,240727506944,-149699280896,-13765687296,99969458176,17108599808,-28958128128,193299611648,58199429120,-170365861888,-82403237888,51647197184,-167239712768,209517461504,-114315616256,144091938816,16894021632,-16626949120,-6626071040,192144031744,-183687315456,-69455478784,43982970880,-123674509312,35864158208,50846687232,-190419009536,-12787187712,183578443776,27416444928,-35582619648,-89991675904,-172250808320,-26068666368,-42445049856,-21226936320,2764254976,-162336620544,-5032613888,-172336873472,10912095232,-176703569920,-122841022464,-217453133824,-136952930304,229636882432
-127041495040,70368239616,148138328064,264171782144,84368039936,240258138112,50298585088,58188779520,64985112576,-88879480832,488397144064,-199060488192,24240179200,-111799574528,29904183296,-25924556800,114782248960,60610949120,118753280000,-68420448256,107690950656,111899893760,-46069084160,120043184128,-170916265984,11755952128,114343100416,111309012992,191192449024,247737909248,132265541632,-7547568640,-441209225216,-122957168640,-192825360384,-108649644032,-33321742336,-123092221952,70040854528,-193090551808,116281696256,64401084416,208772579328,157194993664,53931696128,-96865787904,-139410472960,90094084096,-225910571008,453545918464,6006241280,-167705313280,88376721408,-159441158144,132849278976,99318530048,124019056640,124373680128,-199073398784,83747405824,89413689344,-13524590592,102214074368,-58297716736
357184602112,115175120896,-373659598848,-368321101824,-75138383872,-386257584128,-382544674816,-101551915008,64875569152,340957003776,364557369344,347621818368,-92065595392,350609080320,68864032768,108580929536,-84327448576,-96365305856,-358284951552,81232166912,-52963074048,-356924096512,101154906112,-364260950016,358320898048,64875085824,-336426041344,-91458445312,-408652644352,-361445228544,-69340446720,154808287232,-459644010496,75193827328,324895342592,350659182592,368751476736,79450791936,-97414447104,336974020608,-366378582016,-98869739520,-352113065984,-386221146112,-58649079808,355551215616,116035788800,-356598939648,373884649472,471829479424,-87891116032,346871496704,-358815694848,341982838784,-361504374784,-94133223424,-366454734848,-88520835072,376741429248,-69785411584,-77724164096,-90402742272,-71289307136,96045350912
154999881728,223493881856,-131827965952,25656346624,-185830227968,-85024407552,-82437890048,-41086758912,104835678208,36850237440,-190781407232,-4355057152,76801048576,66310860800,18642184192,21675292672,47513526272,-145251926016,-51898654720,-2663263488,-9811700736,-134156935168,-15703755776,-46842003456,-165167661056,169052389376,-141427851264,-151921754112,-107409186816,-68864098304,44770709504,226829385728,30938494976,143189442560,-31405232128,221870718976,133268652032,106427228160,-124976316416,28828932096,-195648274432,-97308499968,-4593827328,-73824616448,-13442235392,138080813056,66575781888,-122624507904,79674892288,-92851929088,-247430709248,58670247936,-285904633856,-55580418048,-35814412288,-180633059328,-144246718464,-22581784576,56766373888,-151572922368,-151645863936,-80542253056,-112815267840,119221608448
-321093435392,-468709572608,331694833664,334053539840,439910825984,344725487616,342097166336,465463640064,-416025968640,-292665491456,-39173750784,-292313104384,418070495232,-295251345408,-460129468416,-403281215488,408797315072,438310141952,310912745472,-343451041792,426807001088,326134890496,-440986304512,303331606528,-278626926592,-442574438400,303597125632,437514633216,382852268032,317153837056,361990062080,-516495081472,32873385984,-420469932032,-280180097024,-339821625344,-337317330944,-416017580032,408250155008,-306304253952,323732439040,462700904448,323263856640,324792451072,352106446848,-320802390016,-418026127360,322462908416,-323934486528,-54519275520,483235430400,-312964907008,359846543360,-307907133440,315173470208,427250548736,322621177856,396846465024,-333293453312,435812958208,425006399488,461501431808,409656459264,-409993871360
-144465297408,188237250560,140931809280,196974477312,-218236239872,169729212416,195607265280,-225602387968,237580910592,-183031529472,-37270806528,-175344861184,-208815783936,-175207563264,210098225152,184862900224,-202273112064,-212210941952,170464821248,214392225792,-216684544000,146167169024,190161780736,162940993536,-174935228416,226371141632,143021342720,-208754475008,98777579520,166601179136,-204023513088,192474054656,107887648768,224893632512,-145350688768,-146902499328,-174570274816,213709471744,-201377415168,-166482673664,149902114816,-194532851712,168121155584,176699555840,-233977364480,-132125868032,181153660928,150106161152,-188668002304,-351820152832,-237142261760,-155709095936,133667971072,-171758469120,156994207744,-177887297536,132999626752,-190821875712,-160495157248,-216198447104,-214184476672,-229278515200,-203360337920,202242015232
83642097664,-149666103296,-83168845824,-180097581056,85786656768,-196513366016,-45902999552,200015708160,-161236303872,106607755264,-236661456896,107601543168,117927469056,134132547584,-117552381952,-207507750912,115641810944,202513350656,-87698776064,-141086605312,166460997632,-70610722816,-109280624640,-66273271808,96504750080,-102808150016,-110150836224,61121384448,-38236782592,-167299383296,91493212160,-96648585216,93743284224,-49619927040,64106917888,110505934848,110299684864,-119680532480,91664064512,153089622016,-154330611712,134175891456,-134860898304,-100431929344,175373500416,91876016128,-79475589120,-159396626432,172439011328,356106698752,27744989184,108373180416,-103966949376,115389308928,-96721412096,42206322688,-137161842688,84093599744,159161958400,145879400448,100429824000,151825481728,79003500544,-127062310912
92674220032,-176419438592,-39337910272,-7311150080,180681146368,-29732618240,-63386648576,232271085568,-211935543296,70254166016,-232550891520,166282240,239872360448,33513500672,-213195915264,-244694515712,240996139008,294603456512,-45898518528,-266414227456,231239122944,-83159498752,-279857266688,-42906722304,12675237888,-162679848960,-7987082240,200751398912,3953055488,10684841984,249292062720,-212967014400,200266137600,-212186955776,32675430400,79746170880,106714406912,-237398278144,235166302208,21251387392,-48610533376,204417138688,-54546432000,-34679046144,222333796352,51395776512,-288531546112,-44015169536,34837348352,-190184456192,183107321856,24151556096,-84896612352,21895888896,-98294874112,196593106944,-13847843840,228257153024,-9454555136,215398268928,236682510336,203394007040,236665880576,-172155863040
15921751040,599974543360,-39304486912,55672803328,-583667089408,-8117319680,60041867264,-647372275712,548286988288,-113901961216,-74106118144,-68403232768,-538365755392,-94268022784,577726840832,588194381824,-620853592064,-586463903744,68404576256,598981869568,-540957245440,-7829479424,600332238848,1312883968,-65124687872,593198579712,48565620736,-577851424768,-166488752128,29380466688,-529748852736,632498356224,143897952256,562006130688,17550583808,2662299136,-5692233216,596599898112,-550845480960,-104751177728,38116679680,-594061819904,21997262848,35838513152,-514794979328,25211035648,574980816896,-20305258496,-50208043008,-360249556992,-591556837376,-44137897984,-67652280320,-40006971392,2066963328,-529806000128,-30538186752,-546522562560,46803255296,-542393139200,-550610599936,-636017639424,-515037462528,567990943744
